{"learner":{"attributes":{"scikit_learn":"{\"_estimator_type\": \"classifier\"}"},"feature_names":["R1","R2","R3","R4","R5","R6","R7","R8","R9","R10","R11","R12","R13","R14","R15","R16","R17","R18","R19","R20","R40","R60","R80","R100","R120","R140","R160","R180","R200","R220","R240"],"feature_types":["float","float","float","float","float","float","float","float","float","float","float","float","float","float","float","float","float","float","float","float","float","float","float","float","float","float","float","float","float","float","float"],"gradient_booster":{"model":{"cats":{"enc":[],"feature_segments":[],"sorted_idx":[]},"gbtree_model_param":{"num_parallel_tree":"1","num_trees":"100"},"iteration_indptr":[0,1,2,3,4,5,6,7,8,9,10,11,12,13,14,15,16,17,18,19,20,21,22,23,24,25,26,27,28,29,30,31,32,33,34,35,36,37,38,39,40,41,42,43,44,45,46,47,48,49,50,51,52,53,54,55,56,57,58,59,60,61,62,63,64,65,66,67,68,69,70,71,72,73,74,75,76,77,78,79,80,81,82,83,84,85,86,87,88,89,90,91,92,93,94,95,96,97,98,99,100],"tree_info":[0,0,0,0,0,0,0,0,0,0,0,0,0,0,0,0,0,0,0,0,0,0,0,0,0,0,0,0,0,0,0,0,0,0,0,0,0,0,0,0,0,0,0,0,0,0,0,0,0,0,0,0,0,0,0,0,0,0,0,0,0,0,0,0,0,0,0,0,0,0,0,0,0,0,0,0,0,0,0,0,0,0,0,0,0,0,0,0,0,0,0,0,0,0,0,0,0,0,0,0],"trees":[{"base_weights":[1.211395E-7,7.6331915E-3,-1.4499336E-1,-2.827771E-2,2.3034088E-2,8.311041E-3,-1.8249716E-1,-6.108999E-3,-1.0342781E-3,6.78092E-3,5.161806E-4,1.043371E-2,-1.2533443E-2,-2.3430083E-2,-3.5069436E-3],"categories":[],"categories_nodes":[],"categories_segments":[],"categories_sizes":[],"default_left":[0,0,0,0,0,0,0,0,0,0,0,0,0,0,0],"id":0,"left_children":[1,3,5,7,9,11,13,-1,-1,-1,-1,-1,-1,-1,-1],"loss_changes":[7.028442E1,3.3365833E1,1.8260384E1,1.0656008E1,3.3787445E1,8.011278E0,1.948848E1,0E0,0E0,0E0,0E0,0E0,0E0,0E0,0E0],"parents":[2147483647,0,0,1,1,2,2,3,3,4,4,5,5,6,6],"right_children":[2,4,6,8,10,12,14,-1,-1,-1,-1,-1,-1,-1,-1],"split_conditions":[1.1038002E-1,-4.7131695E-2,-5.3887833E-3,-2.5533345E-2,-1.3918251E-2,-5.7887523E-3,4.6458542E-2,-6.108999E-3,-1.0342781E-3,6.78092E-3,5.161806E-4,1.043371E-2,-1.2533443E-2,-2.3430083E-2,-3.5069436E-3],"split_indices":[15,25,1,5,13,0,2,0,0,0,0,0,0,0,0],"split_type":[0,0,0,0,0,0,0,0,0,0,0,0,0,0,0],"sum_hessian":[6.3505484E4,6.0329484E4,3.1759993E3,1.8107496E4,4.222199E4,6.242499E2,2.5517495E3,6.3994985E3,1.1707997E4,1.2045247E4,3.0176742E4,3.632499E2,2.6099994E2,1.8882495E3,6.634998E2],"tree_param":{"num_deleted":"0","num_feature":"31","num_nodes":"15","size_leaf_vector":"1"}},{"base_weights":[2.6627102E-8,6.8698428E-3,-1.3050732E-1,-3.0297097E-2,1.9384919E-2,-4.5624588E-2,-2.1657431E-1,1.8189404E-3,-5.650508E-3,2.931397E-3,-2.5597576E-3,-3.174076E-2,-2.4957045E-3,-4.9682274E-2,-1.9886132E-2],"categories":[],"categories_nodes":[],"categories_segments":[],"categories_sizes":[],"default_left":[0,0,0,0,0,0,0,0,0,0,0,0,0,0,0],"id":1,"left_children":[1,3,5,7,9,11,13,-1,-1,-1,-1,-1,-1,-1,-1],"loss_changes":[5.693613E1,2.8061998E1,2.320034E1,1.9311543E1,2.0157522E1,8.980859E0,7.8275375E0,0E0,0E0,0E0,0E0,0E0,0E0,0E0,0E0],"parents":[2147483647,0,0,1,1,2,2,3,3,4,4,5,5,6,6],"right_children":[2,4,6,8,10,12,14,-1,-1,-1,-1,-1,-1,-1,-1],"split_conditions":[1.1038002E-1,-6.9676705E-2,4.990552E-3,-2.1435975E-1,5.2715745E-2,-4.797985E-2,-4.4055562E-3,1.8189404E-3,-5.650508E-3,2.931397E-3,-2.5597576E-3,-3.174076E-2,-2.4957045E-3,-4.9682274E-2,-1.9886132E-2],"split_indices":[15,24,0,27,16,20,4,0,0,0,0,0,0,0,0],"split_type":[0,0,0,0,0,0,0,0,0,0,0,0,0,0,0],"sum_hessian":[6.3504996E4,6.0329305E4,3.1756926E3,1.5197165E4,4.5132137E4,1.5988462E3,1.5768464E3,5.3322153E3,9.86495E3,3.697139E4,8.1607476E3,1.1299082E2,1.4858553E3,9.373928E1,1.483107E3],"tree_param":{"num_deleted":"0","num_feature":"31","num_nodes":"15","size_leaf_vector":"1"}},{"base_weights":[-1.211989E-7,6.182848E-3,-1.17480226E-1,-1.4353953E-2,2.687366E-2,2.4783474E-1,-1.226121E-1,-7.252146E-4,-5.3217164E-3,7.836027E-3,8.94254E-4,6.2660046E-2,1.4904886E-3,-4.871259E-3,-1.9660236E-2],"categories":[],"categories_nodes":[],"categories_segments":[],"categories_sizes":[],"default_left":[0,0,0,0,0,0,0,0,0,0,0,0,0,0,0],"id":2,"left_children":[1,3,5,7,9,11,13,-1,-1,-1,-1,-1,-1,-1,-1],"loss_changes":[4.6127853E1,2.5635187E1,5.9525414E0,8.356472E0,2.7744213E1,3.880651E0,1.7120506E1,0E0,0E0,0E0,0E0,0E0,0E0,0E0,0E0],"parents":[2147483647,0,0,1,1,2,2,3,3,4,4,5,5,6,6],"right_children":[2,4,6,8,10,12,14,-1,-1,-1,-1,-1,-1,-1,-1],"split_conditions":[1.1038002E-1,5.618124E-2,-5.44218E-2,2.036199E-2,-1.3918251E-2,-2.6837984E-2,4.990552E-3,-7.252146E-4,-5.3217164E-3,7.836027E-3,8.94254E-4,6.2660046E-2,1.4904886E-3,-4.871259E-3,-1.9660236E-2],"split_indices":[15,28,3,1,13,0,0,0,0,0,0,0,0,0,0],"split_type":[0,0,0,0,0,0,0,0,0,0,0,0,0,0,0],"sum_hessian":[6.3504113E4,6.0329004E4,3.175111E3,3.0277184E4,3.0051818E4,4.3985428E1,3.1311257E3,2.559922E4,4.677965E3,7.7626104E3,2.2289207E4,1.6749378E1,2.723605E1,1.5665236E3,1.564602E3],"tree_param":{"num_deleted":"0","num_feature":"31","num_nodes":"15","size_leaf_vector":"1"}},{"base_weights":[-1.4314897E-7,9.992562E-3,-5.6457434E-2,-1.93426E-2,2.67458E-2,2.210242E-3,-1.2783499E-1,-7.1011246E-3,-6.922811E-4,6.8500154E-3,1.367567E-3,-6.3989623E-3,5.5613546E-3,-1.604598E-2,-1.0136872E-3],"categories":[],"categories_nodes":[],"categories_segments":[],"categories_sizes":[],"default_left":[0,0,0,0,0,0,0,0,0,0,0,0,0,0,0],"id":3,"left_children":[1,3,5,7,9,11,13,-1,-1,-1,-1,-1,-1,-1,-1],"loss_changes":[3.582582E1,2.6515839E1,3.9989105E1,1.2585384E1,1.874117E1,1.8529926E1,1.654258E1,0E0,0E0,0E0,0E0,0E0,0E0,0E0,0E0],"parents":[2147483647,0,0,1,1,2,2,3,3,4,4,5,5,6,6],"right_children":[2,4,6,8,10,12,14,-1,-1,-1,-1,-1,-1,-1,-1],"split_conditions":[6.555601E-2,-2.2091176E-2,4.990552E-3,-3.174584E-2,-2.3545248E-2,5.618124E-2,4.6458542E-2,-7.1011246E-3,-6.922811E-4,6.8500154E-3,1.367567E-3,-6.3989623E-3,5.5613546E-3,-1.604598E-2,-1.0136872E-3],"split_indices":[16,25,0,2,16,28,2,0,0,0,0,0,0,0,0],"split_type":[0,0,0,0,0,0,0,0,0,0,0,0,0,0,0],"sum_hessian":[6.350283E4,5.3953316E4,9.549513E3,1.9612152E4,3.4341164E4,5.241414E3,4.3080986E3,3.800667E3,1.5811485E4,8.1869165E3,2.6154248E4,2.3403127E3,2.901101E3,3.3731055E3,9.34993E2],"tree_param":{"num_deleted":"0","num_feature":"31","num_nodes":"15","size_leaf_vector":"1"}},{"base_weights":[-2.2716384E-7,5.2664476E-3,-1.0011482E-1,3.102428E-2,-2.0865053E-2,-1.2899229E-1,4.5607183E-3,-2.1292034E-3,6.2556597E-3,4.8293333E-4,-6.441053E-3,-3.4954436E-3,-2.122774E-2,-3.0023118E-2,3.0711791E-3],"categories":[],"categories_nodes":[],"categories_segments":[],"categories_sizes":[],"default_left":[0,0,0,0,0,0,0,0,0,0,0,0,0,0,0],"id":4,"left_children":[1,3,5,7,9,11,13,-1,-1,-1,-1,-1,-1,-1,-1],"loss_changes":[3.3482372E1,4.0605972E1,9.593115E0,5.011821E1,3.3506477E1,1.948125E1,5.4695754E0,0E0,0E0,0E0,0E0,0E0,0E0,0E0,0E0],"parents":[2147483647,0,0,1,1,2,2,3,3,4,4,5,5,6,6],"right_children":[2,4,6,8,10,12,14,-1,-1,-1,-1,-1,-1,-1,-1],"split_conditions":[1.1038002E-1,3.889602E-4,4.6458542E-2,-2.2091176E-2,5.9518564E-2,9.300922E-3,4.374761E-2,-2.1292034E-3,6.2556597E-3,4.8293333E-4,-6.441053E-3,-3.4954436E-3,-2.122774E-2,-3.0023118E-2,3.0711791E-3],"split_indices":[15,0,2,25,21,2,7,0,0,0,0,0,0,0,0],"split_type":[0,0,0,0,0,0,0,0,0,0,0,0,0,0,0],"sum_hessian":[6.3501254E4,6.032763E4,3.173623E3,3.0381031E4,2.9946598E4,2.4874072E3,6.8621576E2,1.1425164E4,1.8955867E4,1.8833645E4,1.1112954E4,1.1682863E3,1.3191211E3,5.422468E1,6.319911E2],"tree_param":{"num_deleted":"0","num_feature":"31","num_nodes":"15","size_leaf_vector":"1"}},{"base_weights":[-3.603594E-7,4.739881E-3,-9.013683E-2,2.7922597E-2,-1.8778598E-2,-2.7042206E-2,-1.5420033E-1,-1.131912E-3,5.66195E-3,4.346396E-4,-5.796986E-3,7.971383E-3,-7.210286E-3,-2.323486E-2,4.5825524E-4],"categories":[],"categories_nodes":[],"categories_segments":[],"categories_sizes":[],"default_left":[0,0,0,0,0,0,0,0,0,0,0,0,0,0,0],"id":5,"left_children":[1,3,5,7,9,11,13,-1,-1,-1,-1,-1,-1,-1,-1],"loss_changes":[2.7131277E1,3.2891495E1,1.28236885E1,3.4211678E1,2.7140469E1,7.68894E0,1.9533554E1,0E0,0E0,0E0,0E0,0E0,0E0,0E0,0E0],"parents":[2147483647,0,0,1,1,2,2,3,3,4,4,5,5,6,6],"right_children":[2,4,6,8,10,12,14,-1,-1,-1,-1,-1,-1,-1,-1],"split_conditions":[1.1038002E-1,3.889602E-4,4.990552E-3,4.442792E-3,5.9518564E-2,-3.535682E-3,4.6458542E-2,-1.131912E-3,5.66195E-3,4.346396E-4,-5.796986E-3,7.971383E-3,-7.210286E-3,-2.323486E-2,4.5825524E-4],"split_indices":[15,0,0,26,21,2,2,0,0,0,0,0,0,0,0],"split_type":[0,0,0,0,0,0,0,0,0,0,0,0,0,0,0],"sum_hessian":[6.3499336E4,6.0326773E4,3.172561E3,3.038025E4,2.9946523E4,1.5983671E3,1.574194E3,1.2832452E4,1.7547797E4,1.8833643E4,1.1112881E4,4.7441077E2,1.1239563E3,1.0549692E3,5.1922473E2],"tree_param":{"num_deleted":"0","num_feature":"31","num_nodes":"15","size_leaf_vector":"1"}},{"base_weights":[-5.6629085E-7,2.3431195E-2,-2.3152787E-2,-2.2323655E-2,5.15771E-2,-3.4846624E-3,-8.298403E-2,4.698319E-3,-3.4182935E-3,5.8711595E-3,-3.682897E-3,2.0201605E-2,-7.6827675E-4,-6.317232E-3,-1.39942905E-2],"categories":[],"categories_nodes":[],"categories_segments":[],"categories_sizes":[],"default_left":[0,0,0,0,0,0,0,0,0,0,0,0,0,0,0],"id":6,"left_children":[1,3,5,7,9,11,13,-1,-1,-1,-1,-1,-1,-1,-1],"loss_changes":[3.4446793E1,4.0640556E1,3.7584652E1,9.878887E0,1.2323696E1,2.0737215E1,8.916664E0,0E0,0E0,0E0,0E0,0E0,0E0,0E0,0E0],"parents":[2147483647,0,0,1,1,2,2,3,3,4,4,5,5,6,6],"right_children":[2,4,6,8,10,12,14,-1,-1,-1,-1,-1,-1,-1,-1],"split_conditions":[3.889602E-4,-2.2695098E-2,4.9298212E-2,-1.10657066E-1,3.5646334E-1,-4.6975438E-2,1.0342701E-1,4.698319E-3,-3.4182935E-3,5.8711595E-3,-3.682897E-3,2.0201605E-2,-7.6827675E-4,-6.317232E-3,-1.39942905E-2],"split_indices":[0,24,14,17,26,2,13,0,0,0,0,0,0,0,0],"split_type":[0,0,0,0,0,0,0,0,0,0,0,0,0,0,0],"sum_hessian":[6.3496707E4,3.155784E4,3.193887E4,1.20191455E4,1.9538693E4,2.40372E4,7.901669E3,1.7561318E3,1.0263014E4,1.807964E4,1.459053E3,4.8121725E2,2.3555982E4,5.862534E3,2.0391349E3],"tree_param":{"num_deleted":"0","num_feature":"31","num_nodes":"15","size_leaf_vector":"1"}},{"base_weights":[-5.7220757E-7,-1.5777038E-2,1.5984988E-2,-1.1222488E-2,-9.7830035E-2,4.5465954E-2,-2.6742402E-2,-2.2206728E-3,2.11957E-3,8.141561E-3,-1.3150781E-2,9.117202E-3,2.5424294E-3,1.5382469E-3,-7.1336287E-3],"categories":[],"categories_nodes":[],"categories_segments":[],"categories_sizes":[],"default_left":[0,0,0,0,0,0,0,0,0,0,0,0,0,0,0],"id":7,"left_children":[1,3,5,7,9,11,13,-1,-1,-1,-1,-1,-1,-1,-1],"loss_changes":[1.6012949E1,1.1942446E1,3.9726772E1,1.0780794E1,1.0144608E1,1.7094707E1,2.418819E1,0E0,0E0,0E0,0E0,0E0,0E0,0E0,0E0],"parents":[2147483647,0,0,1,1,2,2,3,3,4,4,5,5,6,6],"right_children":[2,4,6,8,10,12,14,-1,-1,-1,-1,-1,-1,-1,-1],"split_conditions":[5.618124E-2,1.1038002E-1,3.3524614E-3,1.5458368E-2,-1.1075607E-2,-1.1973676E-2,2.7343718E-2,-2.2206728E-3,2.11957E-3,8.141561E-3,-1.3150781E-2,9.117202E-3,2.5424294E-3,1.5382469E-3,-7.1336287E-3],"split_indices":[28,15,0,24,1,9,18,0,0,0,0,0,0,0,0],"split_type":[0,0,0,0,0,0,0,0,0,0,0,0,0,0,0],"sum_hessian":[6.349415E4,3.1956068E4,3.1538078E4,3.027555E4,1.680518E3,1.8661826E4,1.2876253E4,2.2613447E4,7.6621025E3,2.6580505E2,1.4147129E3,5.688623E3,1.2973203E4,6.6214297E3,6.254823E3],"tree_param":{"num_deleted":"0","num_feature":"31","num_nodes":"15","size_leaf_vector":"1"}},{"base_weights":[-5.942218E-7,7.949447E-3,-3.1582844E-2,-1.14049595E-2,2.219681E-2,2.114242E-1,-3.4460288E-2,-1.5326266E-4,-6.6526807E-3,5.9977323E-3,1.3281535E-3,1.1991083E-2,6.902124E-2,2.3057351E-3,-7.170108E-3],"categories":[],"categories_nodes":[],"categories_segments":[],"categories_sizes":[],"default_left":[0,0,0,0,0,0,0,0,0,0,0,0,0,0,0],"id":8,"left_children":[1,3,5,7,9,11,13,-1,-1,-1,-1,-1,-1,-1,-1],"loss_changes":[1.5941412E1,1.3986846E1,8.9280615E0,1.17036495E1,9.840693E0,6.546891E0,2.7029587E1,0E0,0E0,0E0,0E0,0E0,0E0,0E0,0E0],"parents":[2147483647,0,0,1,1,2,2,3,3,4,4,5,5,6,6],"right_children":[2,4,6,8,10,12,14,-1,-1,-1,-1,-1,-1,-1,-1],"split_conditions":[5.2715745E-2,9.5927494E-4,-4.6975438E-2,2.036199E-2,-3.0737102E-2,8.2351804E-2,3.889602E-4,-1.5326266E-4,-6.6526807E-3,5.9977323E-3,1.3281535E-3,1.1991083E-2,6.902124E-2,2.3057351E-3,-7.170108E-3],"split_indices":[16,25,2,1,14,8,0,0,0,0,0,0,0,0,0],"split_type":[0,0,0,0,0,0,0,0,0,0,0,0,0,0,0],"sum_hessian":[6.3491312E4,5.0723055E4,1.2768261E4,2.1506896E4,2.9216158E4,1.4941946E2,1.2618841E4,1.8240092E4,3.266804E3,5.578022E3,2.3638137E4,1.2544288E2,2.3976576E1,4.959302E3,7.6595396E3],"tree_param":{"num_deleted":"0","num_feature":"31","num_nodes":"15","size_leaf_vector":"1"}},{"base_weights":[-6.047588E-7,4.8507224E-3,-4.3417435E-2,7.49192E-3,-6.1555546E-2,3.9441275E-4,-8.149976E-2,-2.1722973E-3,1.5967283E-3,-1.7231954E-2,1.2056985E-3,-6.304472E-3,4.781939E-3,-1.1652732E-2,-8.343728E-4],"categories":[],"categories_nodes":[],"categories_segments":[],"categories_sizes":[],"default_left":[0,0,0,0,0,0,0,0,0,0,0,0,0,0,0],"id":9,"left_children":[1,3,5,7,9,11,13,-1,-1,-1,-1,-1,-1,-1,-1],"loss_changes":[1.3372639E1,1.0016264E1,1.0646658E1,1.3599401E1,1.7811453E1,8.927567E0,8.747761E0,0E0,0E0,0E0,0E0,0E0,0E0,0E0,0E0],"parents":[2147483647,0,0,1,1,2,2,3,3,4,4,5,5,6,6],"right_children":[2,4,6,8,10,12,14,-1,-1,-1,-1,-1,-1,-1,-1],"split_conditions":[8.3012715E-2,4.6458542E-2,4.374761E-2,-2.5533345E-2,-8.552649E-3,2.8114427E-2,2.6366603E-2,-2.1722973E-3,1.5967283E-3,-1.7231954E-2,1.2056985E-3,-6.304472E-3,4.781939E-3,-1.1652732E-2,-8.343728E-4],"split_indices":[16,2,7,5,18,27,1,0,0,0,0,0,0,0,0],"split_type":[0,0,0,0,0,0,0,0,0,0,0,0,0,0,0],"sum_hessian":[6.348899E4,5.7107848E4,6.3811396E3,5.4923363E4,2.1844844E3,2.9673496E3,3.41379E3,1.2350553E4,4.2572812E4,8.721578E2,1.3123265E3,1.2693601E3,1.6979894E3,2.308477E3,1.105313E3],"tree_param":{"num_deleted":"0","num_feature":"31","num_nodes":"15","size_leaf_vector":"1"}},{"base_weights":[-6.2597525E-7,2.0630024E-2,-8.910315E-3,2.5474848E-2,-1.4853829E-1,-1.798409E-1,-6.3516935E-3,2.1593506E-3,1.9741436E-2,-3.974051E-2,-3.9689806E-3,-3.2595668E-3,-3.0008374E-2,-1.2200118E-2,-3.694965E-4],"categories":[],"categories_nodes":[],"categories_segments":[],"categories_sizes":[],"default_left":[0,0,0,0,0,0,0,0,0,0,0,0,0,0,0],"id":10,"left_children":[1,3,5,7,9,11,13,-1,-1,-1,-1,-1,-1,-1,-1],"loss_changes":[1.1669868E1,1.5694033E1,1.9391603E1,1.2423161E1,1.4441849E1,1.157769E1,1.3422279E1,0E0,0E0,0E0,0E0,0E0,0E0,0E0,0E0],"parents":[2147483647,0,0,1,1,2,2,3,3,4,4,5,5,6,6],"right_children":[2,4,6,8,10,12,14,-1,-1,-1,-1,-1,-1,-1,-1],"split_conditions":[-2.0548167E-2,1.076363E-2,-5.539086E-2,4.374761E-2,-1.1459024E-3,-8.1717107E-4,-4.1557197E-2,2.1593506E-3,1.9741436E-2,-3.974051E-2,-3.9689806E-3,-3.2595668E-3,-3.0008374E-2,-1.2200118E-2,-3.694965E-4],"split_indices":[12,15,15,7,19,0,4,0,0,0,0,0,0,0,0],"split_type":[0,0,0,0,0,0,0,0,0,0,0,0,0,0,0],"sum_hessian":[6.3487836E4,1.9148625E4,4.433921E4,1.8615494E4,5.331305E2,6.539153E2,4.3685297E4,1.8204547E4,4.1094727E2,1.6222523E2,3.7090524E2,2.939519E2,3.5996338E2,9.810135E2,4.2704285E4],"tree_param":{"num_deleted":"0","num_feature":"31","num_nodes":"15","size_leaf_vector":"1"}},{"base_weights":[-6.0432995E-7,3.117291E-3,-5.9376575E-2,-2.274991E-2,9.985648E-3,5.7756264E-2,-6.2297452E-2,7.456699E-4,-1.10563645E-2,3.0736078E-3,-3.4023722E-4,-8.854759E-3,3.2879803E-3],"categories":[],"categories_nodes":[],"categories_segments":[],"categories_sizes":[],"default_left":[0,0,0,0,0,0,0,0,0,0,0,0,0],"id":11,"left_children":[1,3,5,7,9,-1,11,-1,-1,-1,-1,-1,-1],"loss_changes":[1.1753295E1,1.0716749E1,5.892823E0,3.357054E1,1.3241402E1,0E0,7.877513E0,0E0,0E0,0E0,0E0,0E0,0E0],"parents":[2147483647,0,0,1,1,2,2,3,3,4,4,6,6],"right_children":[2,4,6,8,10,-1,12,-1,-1,-1,-1,-1,-1],"split_conditions":[1.1038002E-1,-2.5533345E-2,-3.4542054E-2,-2.1198737E-2,2.0834927E-3,5.7756264E-2,4.6458542E-2,7.456699E-4,-1.10563645E-2,3.0736078E-3,-3.4023722E-4,-8.854759E-3,3.2879803E-3],"split_indices":[15,5,18,13,4,0,2,0,0,0,0,0,0],"split_type":[0,0,0,0,0,0,0,0,0,0,0,0,0],"sum_hessian":[6.3487387E4,6.031992E4,3.1674634E3,1.2655925E4,4.7664E4,1.44590645E1,3.1530042E3,9.416716E3,3.2392092E3,1.8692312E4,2.8971686E4,2.471389E3,6.8161536E2],"tree_param":{"num_deleted":"0","num_feature":"31","num_nodes":"13","size_leaf_vector":"1"}},{"base_weights":[-6.2189025E-7,-1.3047032E-2,1.3219012E-2,2.1437095E-2,-2.1675434E-2,4.267835E-2,-7.466818E-3,2.8242467E-3,-1.0854802E-2,-3.7475985E-3,1.289233E-3,8.408488E-3,6.898815E-4,2.0608073E-3,-3.9564343E-3],"categories":[],"categories_nodes":[],"categories_segments":[],"categories_sizes":[],"default_left":[0,0,0,0,0,0,0,0,0,0,0,0,0,0,0],"id":12,"left_children":[1,3,5,7,9,11,13,-1,-1,-1,-1,-1,-1,-1,-1],"loss_changes":[1.0949341E1,9.507185E0,1.9216301E1,5.6568475E0,1.3959234E1,1.9271757E1,1.6693884E1,0E0,0E0,0E0,0E0,0E0,0E0,0E0,0E0],"parents":[2147483647,0,0,1,1,2,2,3,3,4,4,5,5,6,6],"right_children":[2,4,6,8,10,12,14,-1,-1,-1,-1,-1,-1,-1,-1],"split_conditions":[5.618124E-2,-2.1435975E-1,-8.684251E-4,-1.1946766E-1,1.5458368E-2,-6.258521E-3,7.361448E-2,2.8242467E-3,-1.0854802E-2,-3.7475985E-3,1.289233E-3,8.408488E-3,6.898815E-4,2.0608073E-3,-3.9564343E-3],"split_indices":[28,27,1,30,24,9,21,0,0,0,0,0,0,0,0],"split_type":[0,0,0,0,0,0,0,0,0,0,0,0,0,0,0],"sum_hessian":[6.3485934E4,3.195231E4,3.1533623E4,6.3948315E3,2.5557479E4,1.3008216E4,1.8525408E4,6.076687E3,3.181449E2,1.7540092E4,8.017386E3,6.0299478E3,6.9782686E3,9.881932E3,8.643476E3],"tree_param":{"num_deleted":"0","num_feature":"31","num_nodes":"15","size_leaf_vector":"1"}},{"base_weights":[-5.187777E-7,1.7466828E-2,-1.7260386E-2,-1.7196855E-2,3.8792834E-2,3.2759146E-3,-5.0613165E-2,-6.2541175E-3,-7.3721494E-5,2.803337E-2,3.615884E-3,1.3753513E-3,-8.723573E-3,-8.662833E-3,-2.6194681E-3],"categories":[],"categories_nodes":[],"categories_segments":[],"categories_sizes":[],"default_left":[0,0,0,0,0,0,0,0,0,0,0,0,0,0,0],"id":13,"left_children":[1,3,5,7,9,11,13,-1,-1,-1,-1,-1,-1,-1,-1],"loss_changes":[1.9139458E1,2.3324749E1,2.1871393E1,8.96969E0,1.2428099E1,1.874216E1,1.0701578E1,0E0,0E0,0E0,0E0,0E0,0E0,0E0,0E0],"parents":[2147483647,0,0,1,1,2,2,3,3,4,4,5,5,6,6],"right_children":[2,4,6,8,10,12,14,-1,-1,-1,-1,-1,-1,-1,-1],"split_conditions":[3.889602E-4,-2.2695098E-2,6.837446E-2,-4.1557197E-2,-1.0491359E-1,7.483602E-2,1.3739906E-2,-6.2541175E-3,-7.3721494E-5,2.803337E-2,3.615884E-3,1.3753513E-3,-8.723573E-3,-8.662833E-3,-2.6194681E-3],"split_indices":[0,24,22,4,25,13,9,0,0,0,0,0,0,0,0],"split_type":[0,0,0,0,0,0,0,0,0,0,0,0,0,0,0],"sum_hessian":[6.348414E4,3.1552426E4,3.1931715E4,1.2018056E4,1.953437E4,1.976303E4,1.2168687E4,3.2006501E3,8.817405E3,2.1072363E2,1.9323646E4,1.7712621E4,2.0504075E3,4.916812E3,7.2518745E3],"tree_param":{"num_deleted":"0","num_feature":"31","num_nodes":"15","size_leaf_vector":"1"}},{"base_weights":[-5.022179E-7,-2.0160824E-2,6.7721936E-3,1.4897305E-2,-4.6990637E-2,1.2617621E-1,4.1970788E-3,-2.9766545E-4,1.5546115E-2,-8.018453E-3,-8.222318E-4,2.1929631E-2,3.925185E-3,2.3271411E-3,-2.3756798E-3],"categories":[],"categories_nodes":[],"categories_segments":[],"categories_sizes":[],"default_left":[0,0,0,0,0,0,0,0,0,0,0,0,0,0,0],"id":14,"left_children":[1,3,5,7,9,11,13,-1,-1,-1,-1,-1,-1,-1,-1],"loss_changes":[8.667778E0,1.501522E1,1.4610892E1,1.7387268E1,1.1637054E1,8.120022E0,2.4801958E1,0E0,0E0,0E0,0E0,0E0,0E0,0E0,0E0],"parents":[2147483647,0,0,1,1,2,2,3,3,4,4,5,5,6,6],"right_children":[2,4,6,8,10,12,14,-1,-1,-1,-1,-1,-1,-1,-1],"split_conditions":[-8.077782E-2,-1.1043587E-1,-9.938206E-2,2.6220474E-2,2.7770617E-3,-7.2541066E-2,3.3524614E-3,-2.9766545E-4,1.5546115E-2,-8.018453E-3,-8.222318E-4,2.1929631E-2,3.925185E-3,2.3271411E-3,-2.3756798E-3],"split_indices":[29,22,13,0,5,6,0,0,0,0,0,0,0,0,0],"split_type":[0,0,0,0,0,0,0,0,0,0,0,0,0,0,0],"sum_hessian":[6.348173E4,1.5963396E4,4.7518332E4,6.920491E3,9.042905E3,1.0031648E3,4.6515168E4,6.139765E3,7.807264E2,4.8716997E3,4.171206E3,4.8432178E2,5.18843E2,2.7648922E4,1.8866244E4],"tree_param":{"num_deleted":"0","num_feature":"31","num_nodes":"15","size_leaf_vector":"1"}},{"base_weights":[-4.651895E-7,1.4644923E-2,-1.447155E-2,-3.1516746E-2,2.7217358E-2,-9.7405695E-4,-5.6606535E-2,1.0348599E-3,-1.39525505E-2,-1.821413E-3,3.9809193E-3,1.7569078E-2,-4.554528E-4,-8.059131E-3,-8.195783E-4],"categories":[],"categories_nodes":[],"categories_segments":[],"categories_sizes":[],"default_left":[0,0,0,0,0,0,0,0,0,0,0,0,0,0,0],"id":15,"left_children":[1,3,5,7,9,11,13,-1,-1,-1,-1,-1,-1,-1,-1],"loss_changes":[1.3453678E1,1.8310593E1,1.815922E1,3.0538246E1,1.4185299E1,1.5296986E1,8.995045E0,0E0,0E0,0E0,0E0,0E0,0E0,0E0,0E0],"parents":[2147483647,0,0,1,1,2,2,3,3,4,4,5,5,6,6],"right_children":[2,4,6,8,10,12,14,-1,-1,-1,-1,-1,-1,-1,-1],"split_conditions":[3.889602E-4,-3.3751756E-2,5.0959982E-2,-3.0737102E-2,-8.077782E-2,-4.6975438E-2,4.7499523E-2,1.0348599E-3,-1.39525505E-2,-1.821413E-3,3.9809193E-3,1.7569078E-2,-4.554528E-4,-8.059131E-3,-8.195783E-4],"split_indices":[0,5,15,14,29,2,5,0,0,0,0,0,0,0,0],"split_type":[0,0,0,0,0,0,0,0,0,0,0,0,0,0,0],"sum_hessian":[6.3480316E4,3.1550148E4,3.1930168E4,6.7535244E3,2.4796623E4,2.4183305E4,7.7468633E3,4.8670166E3,1.8865077E3,5.3811978E3,1.9415426E4,4.8038766E2,2.3702916E4,5.180313E3,2.5665503E3],"tree_param":{"num_deleted":"0","num_feature":"31","num_nodes":"15","size_leaf_vector":"1"}},{"base_weights":[-4.643613E-7,1.833341E-2,-7.940811E-3,2.2377888E-2,-1.0674773E-1,-1.3113907E-1,-2.2491335E-3,2.0806827E-3,4.3499444E-2,1.6341556E-3,-2.6020689E-2,-1.6321626E-2,2.0013262E-2,-4.348539E-3,5.704021E-4],"categories":[],"categories_nodes":[],"categories_segments":[],"categories_sizes":[],"default_left":[0,0,0,0,0,0,0,0,0,0,0,0,0,0,0],"id":16,"left_children":[1,3,5,7,9,11,13,-1,-1,-1,-1,-1,-1,-1,-1],"loss_changes":[9.240894E0,9.704739E0,3.1059147E1,1.2046169E1,1.1349915E1,2.0784824E1,1.3885094E1,0E0,0E0,0E0,0E0,0E0,0E0,0E0,0E0],"parents":[2147483647,0,0,1,1,2,2,3,3,4,4,5,5,6,6],"right_children":[2,4,6,8,10,12,14,-1,-1,-1,-1,-1,-1,-1,-1],"split_conditions":[-2.1198737E-2,4.6458542E-2,-3.3751756E-2,6.598298E-2,-8.18222E-2,2.0546046E-1,-3.3606112E-2,2.0806827E-3,4.3499444E-2,1.6341556E-3,-2.6020689E-2,-1.6321626E-2,2.0013262E-2,-4.348539E-3,5.704021E-4],"split_indices":[13,2,5,10,22,23,20,0,0,0,0,0,0,0,0],"split_type":[0,0,0,0,0,0,0,0,0,0,0,0,0,0,0],"sum_hessian":[6.3477562E4,1.9183588E4,4.4293973E4,1.8582719E4,6.008688E2,1.9559868E3,4.2337984E4,1.8512232E4,7.048638E1,3.334273E2,2.6744147E2,1.7833083E3,1.726785E2,6.8453867E3,3.5492598E4],"tree_param":{"num_deleted":"0","num_feature":"31","num_nodes":"15","size_leaf_vector":"1"}},{"base_weights":[-4.81298E-7,5.217784E-3,-2.0737877E-2,2.2276086E-3,6.446109E-2,2.3683773E-2,-5.0079737E-2,-3.4565877E-3,7.543768E-4,-1.2196848E-2,7.877087E-3,4.1337973E-3,-1.3151154E-2,8.3289214E-4,-6.9388575E-3],"categories":[],"categories_nodes":[],"categories_segments":[],"categories_sizes":[],"default_left":[0,0,0,0,0,0,0,0,0,0,0,0,0,0,0],"id":17,"left_children":[1,3,5,7,9,11,13,-1,-1,-1,-1,-1,-1,-1,-1],"loss_changes":[6.8690095E0,8.984042E0,1.6633747E1,9.443217E0,6.500641E0,1.39085045E1,8.667509E0,0E0,0E0,0E0,0E0,0E0,0E0,0E0,0E0],"parents":[2147483647,0,0,1,1,2,2,3,3,4,4,5,5,6,6],"right_children":[2,4,6,8,10,12,14,-1,-1,-1,-1,-1,-1,-1,-1],"split_conditions":[5.2715745E-2,5.6119338E-2,3.889602E-4,-4.1557197E-2,-9.908755E-2,6.63768E-2,-4.7116943E-2,-3.4565877E-3,7.543768E-4,-1.2196848E-2,7.877087E-3,4.1337973E-3,-1.3151154E-2,8.3289214E-4,-6.9388575E-3],"split_indices":[16,18,0,4,21,5,26,0,0,0,0,0,0,0,0],"split_type":[0,0,0,0,0,0,0,0,0,0,0,0,0,0,0],"sum_hessian":[6.3476605E4,5.071493E4,1.2761678E4,4.8278195E4,2.4367358E3,5.076377E3,7.6853013E3,6.0949116E3,4.218328E4,1.737036E2,2.2630322E3,4.5578945E3,5.18482E2,1.9094058E3,5.7758955E3],"tree_param":{"num_deleted":"0","num_feature":"31","num_nodes":"15","size_leaf_vector":"1"}},{"base_weights":[-5.0872484E-7,2.3826656E-3,-4.5420658E-2,4.2816348E-4,7.755921E-2,-6.934167E-2,4.1097343E-2,-1.1364475E-3,1.220275E-3,5.6353793E-3,3.3293355E-2,-4.1295486E-3,-1.7636284E-2,-2.3274671E-2,6.4554396E-3],"categories":[],"categories_nodes":[],"categories_segments":[],"categories_sizes":[],"default_left":[0,0,0,0,0,0,0,0,0,0,0,0,0,0,0],"id":18,"left_children":[1,3,5,7,9,11,13,-1,-1,-1,-1,-1,-1,-1,-1],"loss_changes":[6.870787E0,8.861578E0,6.5491624E0,8.1621065E0,8.276058E0,7.440934E0,4.4028454E0,0E0,0E0,0E0,0E0,0E0,0E0,0E0,0E0],"parents":[2147483647,0,0,1,1,2,2,3,3,4,4,5,5,6,6],"right_children":[2,4,6,8,10,12,14,-1,-1,-1,-1,-1,-1,-1,-1],"split_conditions":[1.1038002E-1,9.1383554E-2,4.6458542E-2,5.618124E-2,3.710549E-1,6.63768E-2,4.374761E-2,-1.1364475E-3,1.220275E-3,5.6353793E-3,3.3293355E-2,-4.1295486E-3,-1.7636284E-2,-2.3274671E-2,6.4554396E-3],"split_indices":[15,10,2,28,27,5,7,0,0,0,0,0,0,0,0],"split_type":[0,0,0,0,0,0,0,0,0,0,0,0,0,0,0],"sum_hessian":[6.3474906E4,6.0310445E4,3.1644614E3,5.878218E4,1.528268E3,2.4790415E3,6.8542004E2,2.9368574E4,2.9413604E4,1.4110953E3,1.1717256E2,1.9642786E3,5.147628E2,5.4079628E1,6.3134045E2],"tree_param":{"num_deleted":"0","num_feature":"31","num_nodes":"15","size_leaf_vector":"1"}},{"base_weights":[-5.9260935E-7,1.2004577E-2,-8.102281E-3,4.7652265E-3,1.0873672E-1,-3.688621E-2,-6.499812E-5,-2.8570378E-3,2.1038034E-3,1.696775E-2,-1.0829168E-2,1.5620966E-3,-7.8578135E-3,-3.20598E-3,1.0140825E-3],"categories":[],"categories_nodes":[],"categories_segments":[],"categories_sizes":[],"default_left":[0,0,0,0,0,0,0,0,0,0,0,0,0,0,0],"id":19,"left_children":[1,3,5,7,9,11,13,-1,-1,-1,-1,-1,-1,-1,-1],"loss_changes":[6.1735754E0,1.7909964E1,8.767512E0,1.2907782E1,2.355234E1,1.8109177E1,9.673785E0,0E0,0E0,0E0,0E0,0E0,0E0,0E0,0E0],"parents":[2147483647,0,0,1,1,2,2,3,3,4,4,5,5,6,6],"right_children":[2,4,6,8,10,12,14,-1,-1,-1,-1,-1,-1,-1,-1],"split_conditions":[-6.258521E-3,1.8617902E-2,-3.959914E-2,-8.077782E-2,1.8658828E-2,-1.20124586E-1,8.412603E-3,-2.8570378E-3,2.1038034E-3,1.696775E-2,-1.0829168E-2,1.5620966E-3,-7.8578135E-3,-3.20598E-3,1.0140825E-3],"split_indices":[9,5,22,29,0,29,9,0,0,0,0,0,0,0,0],"split_type":[0,0,0,0,0,0,0,0,0,0,0,0,0,0,0],"sum_hessian":[6.347357E4,2.5575508E4,3.7898062E4,2.379473E4,1.780777E3,8.272336E3,2.9625727E4,7.80527E3,1.5989461E4,1.3903671E3,3.9040988E2,3.661283E3,4.6110527E3,7.164702E3,2.2461023E4],"tree_param":{"num_deleted":"0","num_feature":"31","num_nodes":"15","size_leaf_vector":"1"}},{"base_weights":[-5.237937E-7,1.514543E-2,-8.243097E-3,2.1121863E-2,-5.766803E-2,-9.02751E-2,-2.4982449E-3,-6.257949E-4,3.8766365E-3,-1.6578889E-2,2.5715432E-3,-3.1180857E-2,-7.416863E-3,-4.267809E-3,6.440828E-4],"categories":[],"categories_nodes":[],"categories_segments":[],"categories_sizes":[],"default_left":[0,0,0,0,0,0,0,0,0,0,0,0,0,0,0],"id":20,"left_children":[1,3,5,7,9,11,13,-1,-1,-1,-1,-1,-1,-1,-1],"loss_changes":[7.924044E0,9.734218E0,1.9370613E1,9.986847E0,1.52970705E1,9.59886E0,1.3797016E1,0E0,0E0,0E0,0E0,0E0,0E0,0E0,0E0],"parents":[2147483647,0,0,1,1,2,2,3,3,4,4,5,5,6,6],"right_children":[2,4,6,8,10,12,14,-1,-1,-1,-1,-1,-1,-1,-1],"split_conditions":[-1.3918251E-2,2.9752541E-2,-2.5533345E-2,-3.6953453E-2,-5.8393046E-2,-6.172954E-2,-3.6165554E-2,-6.257949E-4,3.8766365E-3,-1.6578889E-2,2.5715432E-3,-3.1180857E-2,-7.416863E-3,-4.267809E-3,6.440828E-4],"split_indices":[13,3,5,6,17,19,21,0,0,0,0,0,0,0,0],"split_type":[0,0,0,0,0,0,0,0,0,0,0,0,0,0,0],"sum_hessian":[6.3472766E4,2.2369041E4,4.1103727E4,2.0672287E4,1.6967542E3,2.6901719E3,3.8413555E4,8.1012275E3,1.2571059E4,7.3878876E2,9.579654E2,1.8233118E2,2.5078406E3,6.9908213E3,3.1422734E4],"tree_param":{"num_deleted":"0","num_feature":"31","num_nodes":"15","size_leaf_vector":"1"}},{"base_weights":[-5.301024E-7,1.2692784E-2,-1.2542585E-2,-2.3295296E-2,2.2494089E-2,5.590235E-3,-4.1567452E-2,1.1184813E-3,-1.1228303E-2,-5.1161106E-4,3.2579154E-3,1.0353504E-3,-9.424038E-3,2.4352623E-3,-5.5042E-3],"categories":[],"categories_nodes":[],"categories_segments":[],"categories_sizes":[],"default_left":[0,0,0,0,0,0,0,0,0,0,0,0,0,0,0],"id":21,"left_children":[1,3,5,7,9,11,13,-1,-1,-1,-1,-1,-1,-1,-1],"loss_changes":[1.0104664E1,1.1127044E1,1.68027E1,2.0718346E1,6.90366E0,9.343943E0,1.090406E1,0E0,0E0,0E0,0E0,0E0,0E0,0E0,0E0],"parents":[2147483647,0,0,1,1,2,2,3,3,4,4,5,5,6,6],"right_children":[2,4,6,8,10,12,14,-1,-1,-1,-1,-1,-1,-1,-1],"split_conditions":[3.889602E-4,-3.3751756E-2,5.9518564E-2,-3.0737102E-2,-4.219473E-2,1.0342701E-1,-7.651178E-3,1.1184813E-3,-1.1228303E-2,-5.1161106E-4,3.2579154E-3,1.0353504E-3,-9.424038E-3,2.4352623E-3,-5.5042E-3],"split_indices":[0,5,21,14,30,13,15,0,0,0,0,0,0,0,0],"split_type":[0,0,0,0,0,0,0,0,0,0,0,0,0,0,0],"sum_hessian":[6.347141E4,3.1545484E4,3.1925926E4,6.752371E3,2.4793111E4,1.9649941E4,1.2275985E4,4.8666777E3,1.8856935E3,6.633198E3,1.8159914E4,1.875507E4,8.948703E2,2.0834326E3,1.0192553E4],"tree_param":{"num_deleted":"0","num_feature":"31","num_nodes":"15","size_leaf_vector":"1"}},{"base_weights":[-5.6570497E-7,4.7532108E-2,-2.4955836E-3,1.5162132E-2,2.0429376E-1,-6.797255E-2,1.4149264E-3,8.286655E-4,2.9813502E-2,1.8920237E-2,9.500566E-2,-3.2847337E-3,-1.3831097E-2,2.6100643E-3,-5.813189E-4],"categories":[],"categories_nodes":[],"categories_segments":[],"categories_sizes":[],"default_left":[0,0,0,0,0,0,0,0,0,0,0,0,0,0,0],"id":22,"left_children":[1,3,5,7,9,11,13,-1,-1,-1,-1,-1,-1,-1,-1],"loss_changes":[7.527012E0,1.606209E1,1.5440468E1,5.1043825E0,6.0971622E0,8.396578E0,1.0153523E1,0E0,0E0,0E0,0E0,0E0,0E0,0E0,0E0],"parents":[2147483647,0,0,1,1,2,2,3,3,4,4,5,5,6,6],"right_children":[2,4,6,8,10,12,14,-1,-1,-1,-1,-1,-1,-1,-1],"split_conditions":[-9.938206E-2,-2.0892542E-2,-7.589243E-2,7.361448E-2,1.3739906E-2,2.9001704E-3,-2.1198737E-2,8.286655E-4,2.9813502E-2,1.8920237E-2,9.500566E-2,-3.2847337E-3,-1.3831097E-2,2.6100643E-3,-5.813189E-4],"split_indices":[13,26,16,21,9,1,13,0,0,0,0,0,0,0,0],"split_type":[0,0,0,0,0,0,0,0,0,0,0,0,0,0,0],"sum_hessian":[6.3468273E4,3.1653367E3,6.0302938E4,2.6235876E3,5.41749E2,3.3985273E3,5.690441E4,2.5613538E3,6.223398E1,5.3100354E2,1.0745475E1,2.2666301E3,1.1318973E3,1.2888193E4,4.4016215E4],"tree_param":{"num_deleted":"0","num_feature":"31","num_nodes":"15","size_leaf_vector":"1"}},{"base_weights":[-4.5161244E-7,3.6237922E-3,-2.0451993E-2,4.932535E-2,1.1970866E-3,-3.903847E-2,7.481264E-2,9.060244E-3,-6.0101836E-3,-3.908475E-3,7.431685E-4,-1.5084094E-3,-8.156217E-3,7.478647E-2,6.195442E-3],"categories":[],"categories_nodes":[],"categories_segments":[],"categories_sizes":[],"default_left":[0,0,0,0,0,0,0,0,0,0,0,0,0,0,0],"id":23,"left_children":[1,3,5,7,9,11,13,-1,-1,-1,-1,-1,-1,-1,-1],"loss_changes":[4.704288E0,5.9792156E0,1.691672E1,1.2278553E1,1.2857146E1,8.143249E0,1.3498236E1,0E0,0E0,0E0,0E0,0E0,0E0,0E0,0E0],"parents":[2147483647,0,0,1,1,2,2,3,3,4,4,5,5,6,6],"right_children":[2,4,6,8,10,12,14,-1,-1,-1,-1,-1,-1,-1,-1],"split_conditions":[2.036199E-2,-1.10657066E-1,7.737747E-2,-1.5726494E-2,-3.6953453E-2,5.9518564E-2,-1.1973676E-2,9.060244E-3,-6.0101836E-3,-3.908475E-3,7.431685E-4,-1.5084094E-3,-8.156217E-3,7.478647E-2,6.195442E-3],"split_indices":[1,17,7,3,6,21,9,0,0,0,0,0,0,0,0],"split_type":[0,0,0,0,0,0,0,0,0,0,0,0,0,0,0],"sum_hessian":[6.3467363E4,5.3913316E4,9.554048E3,2.7183975E3,5.1194918E4,7.9943257E3,1.559722E3,1.9738431E3,7.445543E2,6.861656E3,4.433326E4,5.1136904E3,2.8806353E3,2.9238897E1,1.5304832E3],"tree_param":{"num_deleted":"0","num_feature":"31","num_nodes":"15","size_leaf_vector":"1"}},{"base_weights":[-4.3760468E-7,2.1266143E-3,-4.036936E-2,3.9400387E-4,8.515291E-2,-1.5133819E-1,-2.40844E-2,2.801881E-4,-4.9666776E-3,1.8827036E-2,5.759985E-4,1.3627201E-2,-2.0574361E-2,-3.9794654E-2,-1.1579246E-3],"categories":[],"categories_nodes":[],"categories_segments":[],"categories_sizes":[],"default_left":[0,0,0,0,0,0,0,0,0,0,0,0,0,0,0],"id":24,"left_children":[1,3,5,7,9,11,13,-1,-1,-1,-1,-1,-1,-1,-1],"loss_changes":[5.4497E0,8.672876E0,5.7407055E0,7.1188335E0,1.0089653E1,6.3612146E0,1.2951149E1,0E0,0E0,0E0,0E0,0E0,0E0,0E0,0E0],"parents":[2147483647,0,0,1,1,2,2,3,3,4,4,5,5,6,6],"right_children":[2,4,6,8,10,12,14,-1,-1,-1,-1,-1,-1,-1,-1],"split_conditions":[1.0342701E-1,9.1383554E-2,-9.908755E-2,3.5646334E-1,-4.7116943E-2,1.2197626E-2,1.9590992E-2,2.801881E-4,-4.9666776E-3,1.8827036E-2,5.759985E-4,1.3627201E-2,-2.0574361E-2,-3.9794654E-2,-1.1579246E-3],"split_indices":[13,10,21,26,26,18,18,0,0,0,0,0,0,0,0],"split_type":[0,0,0,0,0,0,0,0,0,0,0,0,0,0,0],"sum_hessian":[6.3466895E4,6.0290184E4,3.1767097E3,5.9057754E4,1.2324299E3,4.065309E2,2.770179E3,5.6347492E4,2.7102622E3,5.3611316E2,6.963168E2,6.466806E1,3.4186285E2,8.965954E1,2.6805193E3],"tree_param":{"num_deleted":"0","num_feature":"31","num_nodes":"15","size_leaf_vector":"1"}},{"base_weights":[-4.974766E-7,2.6198564E-2,-2.9354664E-3,2.3154344E-3,6.1939478E-2,-3.9230973E-2,4.4602854E-3,2.203231E-3,-8.6576175E-3,1.2574653E-2,-7.4887386E-4,-5.111503E-3,1.8059086E-3,1.6236579E-3,-1.7543829E-3],"categories":[],"categories_nodes":[],"categories_segments":[],"categories_sizes":[],"default_left":[0,0,0,0,0,0,0,0,0,0,0,0,0,0,0],"id":25,"left_children":[1,3,5,7,9,11,13,-1,-1,-1,-1,-1,-1,-1,-1],"loss_changes":[4.880151E0,5.457627E0,1.5320196E1,6.7172265E0,1.1345441E1,6.5775003E0,1.2285703E1,0E0,0E0,0E0,0E0,0E0,0E0,0E0,0E0],"parents":[2147483647,0,0,1,1,2,2,3,3,4,4,5,5,6,6],"right_children":[2,4,6,8,10,12,14,-1,-1,-1,-1,-1,-1,-1,-1],"split_conditions":[-2.1435975E-1,-6.673932E-3,-8.077782E-2,-2.9725788E-2,1.2413803E-2,3.7028138E-2,4.990552E-3,2.203231E-3,-8.6576175E-3,1.2574653E-2,-7.4887386E-4,-5.111503E-3,1.8059086E-3,1.6236579E-3,-1.7543829E-3],"split_indices":[27,11,29,13,2,5,0,0,0,0,0,0,0,0,0],"split_type":[0,0,0,0,0,0,0,0,0,0,0,0,0,0,0],"sum_hessian":[6.3466418E4,6.3936216E3,5.7072797E4,3.8325793E3,2.5610422E3,9.660886E3,4.741191E4,3.1368096E3,6.957697E2,1.334546E3,1.2264962E3,8.0011533E3,1.6597324E3,3.0883496E4,1.6528416E4],"tree_param":{"num_deleted":"0","num_feature":"31","num_nodes":"15","size_leaf_vector":"1"}},{"base_weights":[-5.0354663E-7,1.1139626E-2,-9.223613E-3,-7.902041E-3,3.3824723E-2,-1.9305898E-4,-3.7882123E-2,-1.474556E-3,9.9837035E-3,4.376723E-3,-5.9034447E-3,1.4416265E-3,-2.8955338E-3,-6.072572E-4,-5.9454474E-3],"categories":[],"categories_nodes":[],"categories_segments":[],"categories_sizes":[],"default_left":[0,0,0,0,0,0,0,0,0,0,0,0,0,0,0],"id":26,"left_children":[1,3,5,7,9,11,13,-1,-1,-1,-1,-1,-1,-1,-1],"loss_changes":[6.5208235E0,1.2416836E1,8.985582E0,1.1522427E1,1.2110895E1,1.10935335E1,5.7086353E0,0E0,0E0,0E0,0E0,0E0,0E0,0E0,0E0],"parents":[2147483647,0,0,1,1,2,2,3,3,4,4,5,5,6,6],"right_children":[2,4,6,8,10,12,14,-1,-1,-1,-1,-1,-1,-1,-1],"split_conditions":[-8.1717107E-4,3.6960788E-2,5.0959982E-2,6.268032E-2,3.710549E-1,6.837446E-2,6.817474E-3,-1.474556E-3,9.9837035E-3,4.376723E-3,-5.9034447E-3,1.4416265E-3,-2.8955338E-3,-6.072572E-4,-5.9454474E-3],"split_indices":[0,24,15,9,27,22,0,0,0,0,0,0,0,0,0],"split_type":[0,0,0,0,0,0,0,0,0,0,0,0,0,0,0],"sum_hessian":[6.3465082E4,2.8745201E4,3.471988E4,1.5627563E4,1.3117638E4,2.6400762E4,8.319117E3,1.4694197E4,9.333663E2,1.184896E4,1.2686779E3,1.750791E4,8.892853E3,3.361868E3,4.957249E3],"tree_param":{"num_deleted":"0","num_feature":"31","num_nodes":"15","size_leaf_vector":"1"}},{"base_weights":[-4.7433005E-7,1.0026132E-2,-8.3017135E-3,-1.3310546E-2,2.5135327E-2,5.5806316E-3,-3.0517599E-2,-6.6953446E-3,8.2522485E-4,6.808147E-3,9.116334E-4,-4.616421E-3,1.6488755E-3,-4.2832815E-3,1.6336174E-3],"categories":[],"categories_nodes":[],"categories_segments":[],"categories_sizes":[],"default_left":[0,0,0,0,0,0,0,0,0,0,0,0,0,0,0],"id":27,"left_children":[1,3,5,7,9,11,13,-1,-1,-1,-1,-1,-1,-1,-1],"loss_changes":[5.282194E0,1.0135132E1,1.070746E1,1.306646E1,1.2003221E1,1.206021E1,7.704131E0,0E0,0E0,0E0,0E0,0E0,0E0,0E0,0E0],"parents":[2147483647,0,0,1,1,2,2,3,3,4,4,5,5,6,6],"right_children":[2,4,6,8,10,12,14,-1,-1,-1,-1,-1,-1,-1,-1],"split_conditions":[-8.1717107E-4,-2.2695098E-2,5.9518564E-2,-3.174584E-2,-2.0548167E-2,-5.8393046E-2,2.8586662E-1,-6.6953446E-3,8.2522485E-4,6.808147E-3,9.116334E-4,-4.616421E-3,1.6488755E-3,-4.2832815E-3,1.6336174E-3],"split_indices":[0,24,21,2,12,17,27,0,0,0,0,0,0,0,0],"split_type":[0,0,0,0,0,0,0,0,0,0,0,0,0,0,0],"sum_hessian":[6.346255E4,2.8744121E4,3.471843E4,1.1296415E4,1.7447707E4,2.1366715E4,1.3351713E4,3.2388809E3,8.057534E3,4.739999E3,1.2707707E4,3.7200276E3,1.7646688E4,1.0572736E4,2.7789763E3],"tree_param":{"num_deleted":"0","num_feature":"31","num_nodes":"15","size_leaf_vector":"1"}},{"base_weights":[-4.1492137E-7,3.9493356E-2,-2.1196248E-3,1.79711E-2,2.3353222E-1,-2.8553428E-2,3.1944579E-3,-1.9837676E-3,1.4661582E-2,2.7008448E-2,-4.799105E-2,-3.2279007E-3,2.5897343E-2,4.2715846E-3,-6.5867807E-4],"categories":[],"categories_nodes":[],"categories_segments":[],"categories_sizes":[],"default_left":[0,0,0,0,0,0,0,0,0,0,0,0,0,0,0],"id":28,"left_children":[1,3,5,7,9,11,13,-1,-1,-1,-1,-1,-1,-1,-1],"loss_changes":[5.311347E0,1.349658E1,8.460381E0,1.4149796E1,8.414684E0,1.07991E1,1.9385313E1,0E0,0E0,0E0,0E0,0E0,0E0,0E0,0E0],"parents":[2147483647,0,0,1,1,2,2,3,3,4,4,5,5,6,6],"right_children":[2,4,6,8,10,12,14,-1,-1,-1,-1,-1,-1,-1,-1],"split_conditions":[-9.547089E-2,1.1061363E-1,-2.8056053E-2,-8.909842E-2,3.3567544E-2,1.22876294E-1,-1.1229798E-2,-1.9837676E-3,1.4661582E-2,2.7008448E-2,-4.799105E-2,-3.2279007E-3,2.5897343E-2,4.2715846E-3,-6.5867807E-4],"split_indices":[12,29,6,10,20,19,8,0,0,0,0,0,0,0,0],"split_type":[0,0,0,0,0,0,0,0,0,0,0,0,0,0,0],"sum_hessian":[6.3460305E4,3.231821E3,6.0228484E4,2.9091465E3,3.2267447E2,1.0081274E4,5.014721E4,2.2483538E3,6.607928E2,3.069484E2,1.572607E1,9.952318E3,1.2895544E2,9.948798E3,4.0198414E4],"tree_param":{"num_deleted":"0","num_feature":"31","num_nodes":"15","size_leaf_vector":"1"}},{"base_weights":[-2.9537932E-7,4.0242463E-2,-2.1123793E-3,3.010547E-2,3.2879123E-1,-5.921613E-2,1.2980265E-3,1.2082795E-3,2.1544548E-2,4.581296E-2,-1.8096702E-2,-1.7997045E-3,-1.7007437E-2,-4.64581E-3,4.1864315E-4],"categories":[],"categories_nodes":[],"categories_segments":[],"categories_sizes":[],"default_left":[0,0,0,0,0,0,0,0,0,0,0,0,0,0,0],"id":29,"left_children":[1,3,5,7,9,11,13,-1,-1,-1,-1,-1,-1,-1,-1],"loss_changes":[5.3937974E0,9.256188E0,1.1742246E1,1.0211676E1,7.080925E0,1.5527296E1,7.8482943E0,0E0,0E0,0E0,0E0,0E0,0E0,0E0,0E0],"parents":[2147483647,0,0,1,1,2,2,3,3,4,4,5,5,6,6],"right_children":[2,4,6,8,10,12,14,-1,-1,-1,-1,-1,-1,-1,-1],"split_conditions":[-9.938206E-2,7.361448E-2,-7.589243E-2,1.1061363E-1,6.460561E-3,6.460561E-3,-4.5902573E-2,1.2082795E-3,2.1544548E-2,4.581296E-2,-1.8096702E-2,-1.7997045E-3,-1.7007437E-2,-4.64581E-3,4.1864315E-4],"split_indices":[13,21,16,29,2,2,5,0,0,0,0,0,0,0,0],"split_type":[0,0,0,0,0,0,0,0,0,0,0,0,0,0,0],"sum_hessian":[6.3459375E4,3.1644912E3,6.0294883E4,3.0570925E3,1.0739856E2,3.398048E3,5.6896836E4,2.7861628E3,2.7092972E2,8.5663574E1,2.1734983E1,2.4770398E3,9.210081E2,3.2449922E3,5.3651844E4],"tree_param":{"num_deleted":"0","num_feature":"31","num_nodes":"15","size_leaf_vector":"1"}},{"base_weights":[-2.1214093E-7,2.6109524E-2,-2.925377E-3,5.3551394E-2,-3.134707E-3,-3.4172513E-2,3.441636E-3,1.0747982E-3,1.4647791E-2,1.6682483E-2,-1.6738154E-3,-4.134475E-3,6.542602E-3,6.019761E-4,-6.2965374E-3],"categories":[],"categories_nodes":[],"categories_segments":[],"categories_sizes":[],"default_left":[0,0,0,0,0,0,0,0,0,0,0,0,0,0,0],"id":30,"left_children":[1,3,5,7,9,11,13,-1,-1,-1,-1,-1,-1,-1,-1],"loss_changes":[4.8466654E0,5.1306696E0,1.1353198E1,1.3119034E1,7.1556945E0,6.90024E0,8.116133E0,0E0,0E0,0E0,0E0,0E0,0E0,0E0,0E0],"parents":[2147483647,0,0,1,1,2,2,3,3,4,4,5,5,6,6],"right_children":[2,4,6,8,10,12,14,-1,-1,-1,-1,-1,-1,-1,-1],"split_conditions":[-2.1435975E-1,-3.0546957E-3,-8.077782E-2,-1.3699223E-2,-2.3699459E-2,9.1383554E-2,3.761197E-2,1.0747982E-3,1.4647791E-2,1.6682483E-2,-1.6738154E-3,-4.134475E-3,6.542602E-3,6.019761E-4,-6.2965374E-3],"split_indices":[27,1,29,5,2,10,1,0,0,0,0,0,0,0,0],"split_type":[0,0,0,0,0,0,0,0,0,0,0,0,0,0,0],"sum_hessian":[6.345855E4,6.3932275E3,5.7065324E4,3.2982517E3,3.0949758E3,9.659548E3,4.7405773E4,2.2581243E3,1.0401274E3,2.2936182E2,2.865614E3,9.010676E3,6.4887177E2,4.5634117E4,1.7716576E3],"tree_param":{"num_deleted":"0","num_feature":"31","num_nodes":"15","size_leaf_vector":"1"}},{"base_weights":[-2.3814184E-7,1.29448855E-2,-5.590507E-3,1.12776505E-2,6.8386114E-1,-1.5426667E-1,-3.3654615E-3,1.3486542E-3,-2.689693E-2,-1.9977666E-2,1.0346367E-1,-2.7338562E-3,-2.5795195E-2,8.1462795E-3,-5.8385025E-4],"categories":[],"categories_nodes":[],"categories_segments":[],"categories_sizes":[],"default_left":[0,0,0,0,0,0,0,0,0,0,0,0,0,0,0],"id":31,"left_children":[1,3,5,7,9,11,13,-1,-1,-1,-1,-1,-1,-1,-1],"loss_changes":[4.592222E0,2.1408197E1,1.466117E1,1.1818223E1,1.4705149E1,8.600223E0,9.160285E0,0E0,0E0,0E0,0E0,0E0,0E0,0E0,0E0],"parents":[2147483647,0,0,1,1,2,2,3,3,4,4,5,5,6,6],"right_children":[2,4,6,8,10,12,14,-1,-1,-1,-1,-1,-1,-1,-1],"split_conditions":[-2.0548167E-2,6.598298E-2,-5.539086E-2,4.083216E-2,-7.7901565E-2,-8.1717107E-4,-3.2489827E-1,1.3486542E-3,-2.689693E-2,-1.9977666E-2,1.0346367E-1,-2.7338562E-3,-2.5795195E-2,8.1462795E-3,-5.8385025E-4],"split_indices":[12,10,15,15,17,0,29,0,0,0,0,0,0,0,0],"split_type":[0,0,0,0,0,0,0,0,0,0,0,0,0,0,0],"sum_hessian":[6.345766E4,1.913881E4,4.4318848E4,1.9091367E4,4.744229E1,6.534835E2,4.3665367E4,1.8942066E4,1.4930031E2,1.3481382E1,3.3960907E1,2.9381046E2,3.5967303E2,1.2369375E3,4.242843E4],"tree_param":{"num_deleted":"0","num_feature":"31","num_nodes":"15","size_leaf_vector":"1"}},{"base_weights":[-1.6414822E-7,1.8732045E-3,-3.570551E-2,-2.020856E-3,3.0602086E-2,5.579959E-1,-4.0571216E-2,2.2250475E-4,-3.2338642E-3,4.6281684E-3,-1.134085E-2,8.787956E-2,2.175839E-2,-1.4367743E-2,-1.9470797E-3],"categories":[],"categories_nodes":[],"categories_segments":[],"categories_sizes":[],"default_left":[0,0,0,0,0,0,0,0,0,0,0,0,0,0,0],"id":32,"left_children":[1,3,5,7,9,11,13,-1,-1,-1,-1,-1,-1,-1,-1],"loss_changes":[4.244595E0,6.7451634E0,9.138498E0,6.8349323E0,1.6250994E1,2.8082314E0,6.826408E0,0E0,0E0,0E0,0E0,0E0,0E0,0E0,0E0],"parents":[2147483647,0,0,1,1,2,2,3,3,4,4,5,5,6,6],"right_children":[2,4,6,8,10,12,14,-1,-1,-1,-1,-1,-1,-1,-1],"split_conditions":[3.5646334E-1,2.861595E-1,-1.6890283E-1,1.9514824E-1,3.8310714E-2,6.460561E-3,2.515121E-1,2.2250475E-4,-3.2338642E-3,4.6281684E-3,-1.134085E-2,8.787956E-2,2.175839E-2,-1.4367743E-2,-1.9470797E-3],"split_indices":[26,30,29,29,3,2,28,0,0,0,0,0,0,0,0],"split_type":[0,0,0,0,0,0,0,0,0,0,0,0,0,0,0],"sum_hessian":[6.345703E4,6.0293582E4,3.1634507E3,5.3096594E4,7.1969854E3,2.571544E1,3.1377354E3,4.6574055E4,6.522539E3,6.4903306E3,7.066547E2,1.3239095E1,1.2476346E1,5.3304346E2,2.604692E3],"tree_param":{"num_deleted":"0","num_feature":"31","num_nodes":"15","size_leaf_vector":"1"}},{"base_weights":[-1.39873E-7,1.8142903E-3,-3.460533E-2,1.556377E-4,6.5609135E-2,-5.7821557E-2,4.9319297E-2,2.0766792E-4,-5.5785384E-3,1.5663078E-2,-1.2484625E-3,4.800863E-4,-1.1350139E-2,1.7758861E-2,-1.06410525E-5],"categories":[],"categories_nodes":[],"categories_segments":[],"categories_sizes":[],"default_left":[0,0,0,0,0,0,0,0,0,0,0,0,0,0,0],"id":33,"left_children":[1,3,5,7,9,11,13,-1,-1,-1,-1,-1,-1,-1,-1],"loss_changes":[3.984363E0,6.3800516E0,6.159751E0,6.315432E0,1.0860926E1,8.634642E0,4.343045E0,0E0,0E0,0E0,0E0,0E0,0E0,0E0,0E0],"parents":[2147483647,0,0,1,1,2,2,3,3,4,4,5,5,6,6],"right_children":[2,4,6,8,10,12,14,-1,-1,-1,-1,-1,-1,-1,-1],"split_conditions":[1.1038002E-1,9.1383554E-2,4.6458542E-2,5.397538E-2,-4.219473E-2,9.300922E-3,1.1884505E-1,2.0766792E-4,-5.5785384E-3,1.5663078E-2,-1.2484625E-3,4.800863E-4,-1.1350139E-2,1.7758861E-2,-1.06410525E-5],"split_indices":[15,10,2,3,30,2,18,0,0,0,0,0,0,0,0],"split_type":[0,0,0,0,0,0,0,0,0,0,0,0,0,0,0],"sum_hessian":[6.3456684E4,6.0295266E4,3.1614202E3,5.8767324E4,1.5279382E3,2.4763757E3,6.850444E2,5.681623E4,1.9510964E3,7.055682E2,8.223701E2,1.1655247E3,1.3108511E3,1.9054446E2,4.9449988E2],"tree_param":{"num_deleted":"0","num_feature":"31","num_nodes":"15","size_leaf_vector":"1"}},{"base_weights":[-2.6074412E-7,1.2490831E-2,-5.4098796E-3,2.5416408E-2,-2.2172686E-2,-4.0719602E-2,1.8533797E-3,1.5557929E-3,1.6824482E-2,-1.04485275E-2,3.2628027E-3,1.5538675E-3,-7.296762E-3,-5.3215693E-3,6.2777725E-4],"categories":[],"categories_nodes":[],"categories_segments":[],"categories_sizes":[],"default_left":[0,0,0,0,0,0,0,0,0,0,0,0,0,0,0],"id":34,"left_children":[1,3,5,7,9,11,13,-1,-1,-1,-1,-1,-1,-1,-1],"loss_changes":[4.287812E0,8.591867E0,1.135598E1,1.9667751E1,2.349416E1,1.370521E1,8.947885E0,0E0,0E0,0E0,0E0,0E0,0E0,0E0,0E0],"parents":[2147483647,0,0,1,1,2,2,3,3,4,4,5,5,6,6],"right_children":[2,4,6,8,10,12,14,-1,-1,-1,-1,-1,-1,-1,-1],"split_conditions":[-2.1198737E-2,1.666458E-3,-3.3606112E-2,6.5154512E-3,-5.8393046E-2,-1.5723542E-3,-2.238545E-2,1.5557929E-3,1.6824482E-2,-1.04485275E-2,3.2628027E-3,1.5538675E-3,-7.296762E-3,-5.3215693E-3,6.2777725E-4],"split_indices":[13,3,20,5,17,9,7,0,0,0,0,0,0,0,0],"split_type":[0,0,0,0,0,0,0,0,0,0,0,0,0,0,0],"sum_hessian":[6.3455406E4,1.9176309E4,4.4279098E4,1.3967871E4,5.2084375E3,7.554335E3,3.672476E4,1.3066013E4,9.018586E2,2.0816807E3,3.126757E3,2.7524858E3,4.801849E3,2.7311362E3,3.3993625E4],"tree_param":{"num_deleted":"0","num_feature":"31","num_nodes":"15","size_leaf_vector":"1"}},{"base_weights":[-2.2672289E-7,3.3246838E-2,-1.746744E-3,8.074903E-2,-5.9190366E-2,-4.4505667E-2,1.7853798E-3,4.1841376E-3,1.9389378E-2,3.4673517E-3,-1.8535404E-2,-2.1008288E-3,-1.467692E-2,9.57713E-4,-1.064667E-3],"categories":[],"categories_nodes":[],"categories_segments":[],"categories_sizes":[],"default_left":[0,0,0,0,0,0,0,0,0,0,0,0,0,0,0],"id":35,"left_children":[1,3,5,7,9,11,13,-1,-1,-1,-1,-1,-1,-1,-1],"loss_changes":[3.6845722E0,1.3906112E1,9.105178E0,9.209193E0,1.2730683E1,1.1053631E1,5.394277E0,0E0,0E0,0E0,0E0,0E0,0E0,0E0,0E0],"parents":[2147483647,0,0,1,1,2,2,3,3,4,4,5,5,6,6],"right_children":[2,4,6,8,10,12,14,-1,-1,-1,-1,-1,-1,-1,-1],"split_conditions":[-1.10657066E-1,-1.5726494E-2,-4.5902573E-2,-8.1792645E-2,-1.6890283E-1,-2.1198737E-2,7.8795336E-2,4.1841376E-3,1.9389378E-2,3.4673517E-3,-1.8535404E-2,-2.1008288E-3,-1.467692E-2,9.57713E-4,-1.064667E-3],"split_indices":[17,3,5,28,29,13,23,0,0,0,0,0,0,0,0],"split_type":[0,0,0,0,0,0,0,0,0,0,0,0,0,0,0],"sum_hessian":[6.345427E4,3.16698E3,6.028729E4,2.091954E3,1.075026E3,4.6000723E3,5.5687215E4,1.5566582E3,5.3529584E2,6.1641925E2,4.5860672E2,3.740587E3,8.5948535E2,3.4232254E4,2.1454963E4],"tree_param":{"num_deleted":"0","num_feature":"31","num_nodes":"15","size_leaf_vector":"1"}},{"base_weights":[-2.2085405E-7,-8.44917E-3,8.560043E-3,-6.2174196E-3,-4.0595052E-1,-2.8557822E-2,1.951176E-2,1.0553537E-3,-2.1038565E-3,1.8515399E-2,-7.0521995E-2,7.5059147E-3,-5.6336448E-3,4.9828314E-3,-5.6294963E-4],"categories":[],"categories_nodes":[],"categories_segments":[],"categories_sizes":[],"default_left":[0,0,0,0,0,0,0,0,0,0,0,0,0,0,0],"id":36,"left_children":[1,3,5,7,9,11,13,-1,-1,-1,-1,-1,-1,-1,-1],"loss_changes":[4.5892835E0,2.8329708E1,1.2812643E1,7.8934345E0,3.1539877E1,2.0669361E1,1.8550385E1,0E0,0E0,0E0,0E0,0E0,0E0,0E0,0E0],"parents":[2147483647,0,0,1,1,2,2,3,3,4,4,5,5,6,6],"right_children":[2,4,6,8,10,12,14,-1,-1,-1,-1,-1,-1,-1,-1],"split_conditions":[2.7770617E-3,5.397538E-2,-3.6165554E-2,-2.2084394E-2,-1.3277929E-1,5.4725246E-3,6.837446E-2,1.0553537E-3,-2.1038565E-3,1.8515399E-2,-7.0521995E-2,7.5059147E-3,-5.6336448E-3,4.9828314E-3,-5.6294963E-4],"split_indices":[5,3,21,14,21,4,22,0,0,0,0,0,0,0,0],"split_type":[0,0,0,0,0,0,0,0,0,0,0,0,0,0,0],"sum_hessian":[6.3453426E4,3.1934344E4,3.151908E4,3.1756053E4,1.7829263E2,7.181008E3,2.4338072E4,1.4898061E4,1.6857992E4,5.9927105E1,1.18365524E2,1.5181523E3,5.6628555E3,1.1033428E4,1.3304645E4],"tree_param":{"num_deleted":"0","num_feature":"31","num_nodes":"15","size_leaf_vector":"1"}},{"base_weights":[-3.6076864E-7,1.7498092E-3,-3.323156E-2,3.2417756E-4,7.006787E-2,3.0277306E-2,-9.246307E-2,-9.081349E-4,9.710886E-4,2.207236E-2,1.1445006E-3,8.493146E-3,-7.4911565E-3,-2.030647E-2,-3.191898E-3],"categories":[],"categories_nodes":[],"categories_segments":[],"categories_sizes":[],"default_left":[0,0,0,0,0,0,0,0,0,0,0,0,0,0,0],"id":37,"left_children":[1,3,5,7,9,11,13,-1,-1,-1,-1,-1,-1,-1,-1],"loss_changes":[3.690418E0,5.8708553E0,1.1942078E1,5.212973E0,1.088212E1,8.807466E0,1.0999497E1,0E0,0E0,0E0,0E0,0E0,0E0,0E0,0E0],"parents":[2147483647,0,0,1,1,2,2,3,3,4,4,5,5,6,6],"right_children":[2,4,6,8,10,12,14,-1,-1,-1,-1,-1,-1,-1,-1],"split_conditions":[1.0342701E-1,9.1383554E-2,4.990552E-3,5.618124E-2,-1.6933393E-1,4.298569E-2,2.9752541E-2,-9.081349E-4,9.710886E-4,2.207236E-2,1.1445006E-3,8.493146E-3,-7.4911565E-3,-2.030647E-2,-3.191898E-3],"split_indices":[13,10,0,28,30,4,3,0,0,0,0,0,0,0,0],"split_type":[0,0,0,0,0,0,0,0,0,0,0,0,0,0,0],"sum_hessian":[6.345258E4,6.0277953E4,3.174627E3,5.904581E4,1.2321425E3,1.5319974E3,1.6426295E3,2.949334E4,2.9552469E4,3.4514624E2,8.8699615E2,1.00817084E3,5.2382654E2,5.810926E2,1.061537E3],"tree_param":{"num_deleted":"0","num_feature":"31","num_nodes":"15","size_leaf_vector":"1"}},{"base_weights":[-4.950484E-7,8.02353E-3,-6.6436697E-3,-8.170558E-3,2.731781E-2,1.5195628E-1,-9.176579E-3,-1.1319643E-3,1.9405484E-2,2.92794E-2,2.4620364E-3,-1.7668164E-3,2.319134E-2,-7.980815E-3,-4.7229673E-4],"categories":[],"categories_nodes":[],"categories_segments":[],"categories_sizes":[],"default_left":[0,0,0,0,0,0,0,0,0,0,0,0,0,0,0],"id":38,"left_children":[1,3,5,7,9,11,13,-1,-1,-1,-1,-1,-1,-1,-1],"loss_changes":[3.3822465E0,8.979473E0,1.3944567E1,9.950117E0,9.391065E0,7.400543E0,1.0747626E1,0E0,0E0,0E0,0E0,0E0,0E0,0E0,0E0],"parents":[2147483647,0,0,1,1,2,2,3,3,4,4,5,5,6,6],"right_children":[2,4,6,8,10,12,14,-1,-1,-1,-1,-1,-1,-1,-1],"split_conditions":[-8.1717107E-4,3.6960788E-2,-4.6975438E-2,2.0687696E-1,-7.3623866E-2,-3.825086E-2,-2.766429E-2,-1.1319643E-3,1.9405484E-2,2.92794E-2,2.4620364E-3,-1.7668164E-3,2.319134E-2,-7.980815E-3,-4.7229673E-4],"split_indices":[0,24,2,21,25,1,3,0,0,0,0,0,0,0,0],"split_type":[0,0,0,0,0,0,0,0,0,0,0,0,0,0,0],"sum_hessian":[6.3450824E4,2.8738607E4,3.4712215E4,1.5624576E4,1.311403E4,5.456547E2,3.4166562E4,1.5384999E4,2.395775E2,1.3190863E2,1.2982122E4,1.7480852E2,3.708462E2,2.0265598E3,3.2140002E4],"tree_param":{"num_deleted":"0","num_feature":"31","num_nodes":"15","size_leaf_vector":"1"}},{"base_weights":[-4.000217E-7,1.6496811E-3,-3.145137E-2,1.4824395E-4,6.5898165E-2,-1.4849435E-1,-1.5615468E-2,7.481153E-4,-1.4113266E-3,-5.85139E-2,8.209806E-3,-1.9283118E-3,-3.3882596E-2,-1.9118518E-2,-1.9811925E-4],"categories":[],"categories_nodes":[],"categories_segments":[],"categories_sizes":[],"default_left":[0,0,0,0,0,0,0,0,0,0,0,0,0,0,0],"id":39,"left_children":[1,3,5,7,9,11,13,-1,-1,-1,-1,-1,-1,-1,-1],"loss_changes":[3.2928128E0,5.8155394E0,5.8624525E0,6.160691E0,1.4519438E1,9.270203E0,6.669024E0,0E0,0E0,0E0,0E0,0E0,0E0,0E0,0E0],"parents":[2147483647,0,0,1,1,2,2,3,3,4,4,5,5,6,6],"right_children":[2,4,6,8,10,12,14,-1,-1,-1,-1,-1,-1,-1,-1],"split_conditions":[3.5646334E-1,3.9096454E-1,-1.3696526E-2,2.4539879E-2,-3.825086E-2,-9.910174E-4,-3.824199E-2,7.481153E-4,-1.4113266E-3,-5.85139E-2,8.209806E-3,-1.9283118E-3,-3.3882596E-2,-1.9118518E-2,-1.9811925E-4],"split_indices":[26,28,0,15,1,7,12,0,0,0,0,0,0,0,0],"split_type":[0,0,0,0,0,0,0,0,0,0,0,0,0,0,0],"sum_hessian":[6.3449426E4,6.0286484E4,3.162942E3,5.890981E4,1.3766765E3,3.7694507E2,2.7859968E3,3.8905555E4,2.0004254E4,3.342442E1,1.3432521E3,2.2452249E2,1.5242256E2,2.007624E2,2.5852344E3],"tree_param":{"num_deleted":"0","num_feature":"31","num_nodes":"15","size_leaf_vector":"1"}},{"base_weights":[-3.1308727E-7,-7.7920826E-3,7.894298E-3,-3.236884E-3,-7.735222E-2,-2.4970762E-2,1.7590635E-2,-3.1404549E-3,5.197027E-4,-4.7736713E-3,-4.0756483E-2,1.0422627E-2,-4.1439515E-3,5.0731874E-3,-5.387918E-4],"categories":[],"categories_nodes":[],"categories_segments":[],"categories_sizes":[],"default_left":[0,0,0,0,0,0,0,0,0,0,0,0,0,0,0],"id":40,"left_children":[1,3,5,7,9,11,13,-1,-1,-1,-1,-1,-1,-1,-1],"loss_changes":[3.902936E0,1.0118132E1,1.0043384E1,7.1197505E0,1.919308E1,1.527717E1,1.8533092E1,0E0,0E0,0E0,0E0,0E0,0E0,0E0,0E0],"parents":[2147483647,0,0,1,1,2,2,3,3,4,4,5,5,6,6],"right_children":[2,4,6,8,10,12,14,-1,-1,-1,-1,-1,-1,-1,-1],"split_conditions":[2.7770617E-3,2.0037118E-2,-3.6165554E-2,-1.19564846E-1,5.397538E-2,-1.3696526E-2,6.1938003E-2,-3.1404549E-3,5.197027E-4,-4.7736713E-3,-4.0756483E-2,1.0422627E-2,-4.1439515E-3,5.0731874E-3,-5.387918E-4],"split_indices":[5,2,21,28,3,0,23,0,0,0,0,0,0,0,0],"split_type":[0,0,0,0,0,0,0,0,0,0,0,0,0,0,0],"sum_hessian":[6.3448973E4,3.1932475E4,3.1516496E4,2.9969875E4,1.9626001E3,7.180087E3,2.4336408E4,6.9058027E3,2.3064072E4,1.8010691E3,1.6153102E2,8.1176984E2,6.3683174E3,9.964675E3,1.4371734E4],"tree_param":{"num_deleted":"0","num_feature":"31","num_nodes":"15","size_leaf_vector":"1"}},{"base_weights":[-4.1259304E-7,3.3690013E-2,-1.768283E-3,2.51342E-2,3.7928602E-1,-5.0338376E-2,1.1318828E-3,1.4801383E-3,1.652425E-2,6.994391E-2,9.203381E-3,-2.7635524E-3,-1.949049E-2,2.0829982E-3,-4.5442703E-4],"categories":[],"categories_nodes":[],"categories_segments":[],"categories_sizes":[],"default_left":[0,0,0,0,0,0,0,0,0,0,0,0,0,0,0],"id":41,"left_children":[1,3,5,7,9,11,13,-1,-1,-1,-1,-1,-1,-1,-1],"loss_changes":[3.7789662E0,9.353597E0,8.491735E0,4.469001E0,7.028158E0,1.1148574E1,6.3605647E0,0E0,0E0,0E0,0E0,0E0,0E0,0E0,0E0],"parents":[2147483647,0,0,1,1,2,2,3,3,4,4,5,5,6,6],"right_children":[2,4,6,8,10,12,14,-1,-1,-1,-1,-1,-1,-1,-1],"split_conditions":[-9.938206E-2,1.8997873E-1,-7.589243E-2,1.4806971E-1,1.7707184E-1,2.3614887E-2,-2.2084394E-2,1.4801383E-3,1.652425E-2,6.994391E-2,9.203381E-3,-2.7635524E-3,-1.949049E-2,2.0829982E-3,-4.5442703E-4],"split_indices":[13,24,16,30,30,3,14,0,0,0,0,0,0,0,0],"split_type":[0,0,0,0,0,0,0,0,0,0,0,0,0,0,0],"sum_hessian":[6.344773E4,3.1633604E3,6.028437E4,3.086938E3,7.642236E1,3.3968096E3,5.688756E4,2.8749163E3,2.1202159E2,3.6141426E1,4.0280937E1,2.9357732E3,4.610364E2,1.2725597E4,4.4161965E4],"tree_param":{"num_deleted":"0","num_feature":"31","num_nodes":"15","size_leaf_vector":"1"}},{"base_weights":[-3.1516862E-7,2.5223218E-2,-2.8259675E-3,-2.1399722E-4,5.3656343E-2,-5.701141E-2,6.0066814E-4,-1.663553E-3,1.57575E-2,1.3999498E-2,-2.4070614E-4,-6.3190623E-3,4.556963E-2,-3.2250024E-3,4.1749026E-4],"categories":[],"categories_nodes":[],"categories_segments":[],"categories_sizes":[],"default_left":[0,0,0,0,0,0,0,0,0,0,0,0,0,0,0],"id":42,"left_children":[1,3,5,7,9,11,13,-1,-1,-1,-1,-1,-1,-1,-1],"loss_changes":[4.522018E0,4.6227493E0,1.0593608E1,8.741206E0,1.4608671E1,1.0751052E1,6.300717E0,0E0,0E0,0E0,0E0,0E0,0E0,0E0,0E0],"parents":[2147483647,0,0,1,1,2,2,3,3,4,4,5,5,6,6],"right_children":[2,4,6,8,10,12,14,-1,-1,-1,-1,-1,-1,-1,-1],"split_conditions":[-2.1435975E-1,-1.8906955E-2,-1.6587204E-1,2.6220474E-2,5.4725246E-3,3.0479524E-1,-9.878261E-2,-1.663553E-3,1.57575E-2,1.3999498E-2,-2.4070614E-4,-6.3190623E-3,4.556963E-2,-3.2250024E-3,4.1749026E-4],"split_indices":[27,10,28,0,4,24,24,0,0,0,0,0,0,0,0],"split_type":[0,0,0,0,0,0,0,0,0,0,0,0,0,0,0],"sum_hessian":[6.34465E4,6.3915493E3,5.705495E4,3.3735024E3,3.0180469E3,3.393499E3,5.366145E4,3.0555073E3,3.179951E2,1.1881991E3,1.8298479E3,3.3530872E3,4.0411823E1,5.265587E3,4.8395863E4],"tree_param":{"num_deleted":"0","num_feature":"31","num_nodes":"15","size_leaf_vector":"1"}},{"base_weights":[-3.4035878E-7,1.0972399E-2,-4.7518644E-3,7.933969E-3,1.228614E-1,-8.564852E-2,-2.670352E-3,1.2964009E-3,-6.5794215E-3,8.879614E-3,6.3757025E-2,-1.6516695E-2,1.2680607E-2,-3.650012E-3,2.1673241E-4],"categories":[],"categories_nodes":[],"categories_segments":[],"categories_sizes":[],"default_left":[0,0,0,0,0,0,0,0,0,0,0,0,0,0,0],"id":43,"left_children":[1,3,5,7,9,11,13,-1,-1,-1,-1,-1,-1,-1,-1],"loss_changes":[3.3078856E0,6.5178123E0,7.4551573E0,6.922035E0,8.887181E0,1.8762741E1,7.0639853E0,0E0,0E0,0E0,0E0,0E0,0E0,0E0,0E0],"parents":[2147483647,0,0,1,1,2,2,3,3,4,4,5,5,6,6],"right_children":[2,4,6,8,10,12,14,-1,-1,-1,-1,-1,-1,-1,-1],"split_conditions":[-2.1198737E-2,3.1820457E-2,-4.1557197E-2,3.9636823E-3,2.7270207E-1,3.580878E-2,-4.797985E-2,1.2964009E-3,-6.5794215E-3,8.879614E-3,6.3757025E-2,-1.6516695E-2,1.2680607E-2,-3.650012E-3,2.1673241E-4],"split_indices":[13,9,4,9,26,18,20,0,0,0,0,0,0,0,0],"split_type":[0,0,0,0,0,0,0,0,0,0,0,0,0,0,0],"sum_hessian":[6.3445746E4,1.9171898E4,4.4273848E4,1.8665035E4,5.0686316E2,1.1106122E3,4.3163234E4,1.7472959E4,1.1920771E3,4.7539954E2,3.1463634E1,8.0813855E2,3.024736E2,5.4001436E3,3.776309E4],"tree_param":{"num_deleted":"0","num_feature":"31","num_nodes":"15","size_leaf_vector":"1"}},{"base_weights":[-3.625406E-7,-7.4285255E-3,7.525486E-3,-5.634403E-3,-3.2817042E-1,5.679007E-2,-4.7827038E-4,2.619935E-3,-1.3375566E-3,1.2053345E-2,-6.35884E-2,-1.507844E-2,7.3710606E-3,1.0111846E-1,-8.880768E-5],"categories":[],"categories_nodes":[],"categories_segments":[],"categories_sizes":[],"default_left":[0,0,0,0,0,0,0,0,0,0,0,0,0,0,0],"id":44,"left_children":[1,3,5,7,9,11,13,-1,-1,-1,-1,-1,-1,-1,-1],"loss_changes":[3.5467687E0,1.8373907E1,1.2426487E1,7.824657E0,2.452303E1,1.5469885E1,1.1239694E1,0E0,0E0,0E0,0E0,0E0,0E0,0E0,0E0],"parents":[2147483647,0,0,1,1,2,2,3,3,4,4,5,5,6,6],"right_children":[2,4,6,8,10,12,14,-1,-1,-1,-1,-1,-1,-1,-1],"split_conditions":[2.7770617E-3,5.397538E-2,-6.258521E-3,-9.908755E-2,-8.479468E-2,-1.6306664E-1,-3.6953453E-2,2.619935E-3,-1.3375566E-3,1.2053345E-2,-6.35884E-2,-1.507844E-2,7.3710606E-3,1.0111846E-1,-8.880768E-5],"split_indices":[5,3,9,21,20,20,6,0,0,0,0,0,0,0,0],"split_type":[0,0,0,0,0,0,0,0,0,0,0,0,0,0,0],"sum_hessian":[6.3444797E4,3.1929621E4,3.1515174E4,3.1752012E4,1.7761009E2,4.404524E3,2.711065E4,6.2109424E3,2.5541068E4,7.225248E1,1.05357605E2,3.3197583E2,4.072548E3,1.0977592E1,2.7099672E4],"tree_param":{"num_deleted":"0","num_feature":"31","num_nodes":"15","size_leaf_vector":"1"}},{"base_weights":[-5.7275804E-7,2.214153E-2,-2.481069E-3,-2.7825778E-2,3.5310447E-2,-2.6929153E-2,2.4997345E-3,2.8918134E-3,-1.3840795E-2,1.2189299E-2,2.0724228E-3,1.7358754E-3,-4.299294E-3,8.270619E-3,8.695004E-5],"categories":[],"categories_nodes":[],"categories_segments":[],"categories_sizes":[],"default_left":[0,0,0,0,0,0,0,0,0,0,0,0,0,0,0],"id":45,"left_children":[1,3,5,7,9,11,13,-1,-1,-1,-1,-1,-1,-1,-1],"loss_changes":[3.484569E0,4.2056427E0,6.9473767E0,8.365122E0,6.3881745E0,6.869662E0,6.197363E0,0E0,0E0,0E0,0E0,0E0,0E0,0E0,0E0],"parents":[2147483647,0,0,1,1,2,2,3,3,4,4,5,5,6,6],"right_children":[2,4,6,8,10,12,14,-1,-1,-1,-1,-1,-1,-1,-1],"split_conditions":[-2.1435975E-1,-7.7265136E-2,-8.077782E-2,-1.0427027E-1,-5.6497164E-2,-1.1043587E-1,-1.0427027E-1,2.8918134E-3,-1.3840795E-2,1.2189299E-2,2.0724228E-3,1.7358754E-3,-4.299294E-3,8.270619E-3,8.695004E-5],"split_indices":[27,7,29,15,8,22,15,0,0,0,0,0,0,0,0],"split_type":[0,0,0,0,0,0,0,0,0,0,0,0,0,0,0],"sum_hessian":[6.344416E4,6.391405E3,5.7052754E4,1.3331158E3,5.058289E3,9.656109E3,4.7396645E4,8.810272E2,4.5208856E2,7.2928955E2,4.3289995E3,2.570163E3,7.085946E3,9.441685E2,4.6452477E4],"tree_param":{"num_deleted":"0","num_feature":"31","num_nodes":"15","size_leaf_vector":"1"}},{"base_weights":[-5.471197E-7,-1.4491756E-2,3.6482909E-3,3.154823E-2,-4.5063756E-2,3.0983837E-2,-3.856316E-3,3.605383E-3,-3.861141E-2,-4.151777E-3,-8.3512664E-2,3.673248E-3,-1.24765E-2,8.067695E-2,-4.1820822E-4],"categories":[],"categories_nodes":[],"categories_segments":[],"categories_sizes":[],"default_left":[0,0,0,0,0,0,0,0,0,0,0,0,0,0,0],"id":46,"left_children":[1,3,5,7,9,11,13,-1,-1,-1,-1,-1,-1,-1,-1],"loss_changes":[3.3546393E0,1.7962297E1,1.0397012E1,9.58313E0,2.1485237E1,9.774416E0,1.0500913E1,0E0,0E0,0E0,0E0,0E0,0E0,0E0,0E0],"parents":[2147483647,0,0,1,1,2,2,3,3,4,4,5,5,6,6],"right_children":[2,4,6,8,10,12,14,-1,-1,-1,-1,-1,-1,-1,-1],"split_conditions":[-2.5533345E-2,-7.421455E-2,-1.1229798E-2,2.127229E-2,5.397538E-2,3.5646334E-1,-4.960316E-2,3.605383E-3,-3.861141E-2,-4.151777E-3,-8.3512664E-2,3.673248E-3,-1.24765E-2,8.067695E-2,-4.1820822E-4],"split_indices":[5,21,8,4,3,26,6,0,0,0,0,0,0,0,0],"split_type":[0,0,0,0,0,0,0,0,0,0,0,0,0,0,0],"sum_hessian":[6.344343E4,1.2761531E4,5.06819E4,5.092487E3,7.6690444E3,1.0916936E4,3.976496E4,5.038137E3,5.4349667E1,7.634778E3,3.4266674E1,1.0528338E4,3.8859775E2,1.5973928E1,3.974899E4],"tree_param":{"num_deleted":"0","num_feature":"31","num_nodes":"15","size_leaf_vector":"1"}},{"base_weights":[-7.199437E-7,-2.086781E-2,2.3340017E-3,6.476614E-2,-3.8449764E-2,7.389211E-2,6.350535E-4,4.2325095E-3,6.0389098E-2,-5.285332E-3,9.1146175E-3,3.474659E-3,2.0742787E-2,-3.3969749E-3,5.079769E-4],"categories":[],"categories_nodes":[],"categories_segments":[],"categories_sizes":[],"default_left":[0,0,0,0,0,0,0,0,0,0,0,0,0,0,0],"id":47,"left_children":[1,3,5,7,9,11,13,-1,-1,-1,-1,-1,-1,-1,-1],"loss_changes":[3.090844E0,9.61184E0,6.936798E0,1.3156681E1,9.886755E0,6.917202E0,8.572546E0,0E0,0E0,0E0,0E0,0E0,0E0,0E0,0E0],"parents":[2147483647,0,0,1,1,2,2,3,3,4,4,5,5,6,6],"right_children":[2,4,6,8,10,12,14,-1,-1,-1,-1,-1,-1,-1,-1],"split_conditions":[-1.8356718E-2,-1.10657066E-1,-4.6975438E-2,2.3735058E-2,1.06075585E-1,8.841052E-3,-5.8393046E-2,4.2325095E-3,6.0389098E-2,-5.285332E-3,9.1146175E-3,3.474659E-3,2.0742787E-2,-3.3969749E-3,5.079769E-4],"split_indices":[0,17,2,5,20,0,17,0,0,0,0,0,0,0,0],"split_type":[0,0,0,0,0,0,0,0,0,0,0,0,0,0,0],"sum_hessian":[6.3442473E4,6.3840063E3,5.7058465E4,1.0874615E3,5.296545E3,1.323277E3,5.5735188E4,1.0440049E3,4.3456657E1,4.766758E3,5.2978705E2,1.02330023E3,2.999767E2,6.343921E3,4.939127E4],"tree_param":{"num_deleted":"0","num_feature":"31","num_nodes":"15","size_leaf_vector":"1"}},{"base_weights":[-5.926634E-7,-6.5880595E-3,6.6733356E-3,9.864866E-3,-1.9049307E-2,5.4819055E-2,1.8116637E-4,4.4193777E-4,1.8164096E-2,-9.510902E-4,-1.3198078E-2,2.4779042E-2,3.990793E-3,-1.0341408E-2,4.900193E-4],"categories":[],"categories_nodes":[],"categories_segments":[],"categories_sizes":[],"default_left":[0,0,0,0,0,0,0,0,0,0,0,0,0,0,0],"id":48,"left_children":[1,3,5,7,9,11,13,-1,-1,-1,-1,-1,-1,-1,-1],"loss_changes":[2.7891898E0,6.5459857E0,9.850422E0,1.2871249E1,1.9570122E1,1.0774731E1,1.3575733E1,0E0,0E0,0E0,0E0,0E0,0E0,0E0,0E0],"parents":[2147483647,0,0,1,1,2,2,3,3,4,4,5,5,6,6],"right_children":[2,4,6,8,10,12,14,-1,-1,-1,-1,-1,-1,-1,-1],"split_conditions":[2.7770617E-3,-1.9940536E-2,-5.964397E-3,7.168079E-2,1.5840543E-2,-1.8356718E-2,-1.1324027E-1,4.4193777E-4,1.8164096E-2,-9.510902E-4,-1.3198078E-2,2.4779042E-2,3.990793E-3,-1.0341408E-2,4.900193E-4],"split_indices":[5,21,8,19,2,0,20,0,0,0,0,0,0,0,0],"split_type":[0,0,0,0,0,0,0,0,0,0,0,0,0,0,0],"sum_hessian":[6.3442184E4,3.1927906E4,3.1514277E4,1.3760087E4,1.816782E4,3.7445813E3,2.7769695E4,1.3337281E4,4.228063E2,1.6752842E4,1.4149767E3,2.685936E2,3.4759878E3,1.2098676E3,2.6559828E4],"tree_param":{"num_deleted":"0","num_feature":"31","num_nodes":"15","size_leaf_vector":"1"}},{"base_weights":[-5.566564E-7,1.5409502E-3,-2.928041E-2,-9.88501E-4,3.1032749E-2,2.6551925E-2,-8.139778E-2,-4.3770662E-4,1.863572E-3,-5.22067E-3,4.9396115E-3,-1.967526E-2,6.7979055E-3,-1.484293E-2,4.0326025E-3],"categories":[],"categories_nodes":[],"categories_segments":[],"categories_sizes":[],"default_left":[0,0,0,0,0,0,0,0,0,0,0,0,0,0,0],"id":49,"left_children":[1,3,5,7,9,11,13,-1,-1,-1,-1,-1,-1,-1,-1],"loss_changes":[2.8634455E0,4.4959273E0,9.232868E0,3.6911614E0,7.2771497E0,1.4171367E1,1.3390204E1,0E0,0E0,0E0,0E0,0E0,0E0,0E0,0E0],"parents":[2147483647,0,0,1,1,2,2,3,3,4,4,5,5,6,6],"right_children":[2,4,6,8,10,12,14,-1,-1,-1,-1,-1,-1,-1,-1],"split_conditions":[1.0342701E-1,4.7499523E-2,4.990552E-3,2.861595E-1,-1.5253691E-2,-9.150258E-3,4.6458542E-2,-4.3770662E-4,1.863572E-3,-5.22067E-3,4.9396115E-3,-1.967526E-2,6.7979055E-3,-1.484293E-2,4.0326025E-3],"split_indices":[13,5,0,30,16,20,2,0,0,0,0,0,0,0,0],"split_type":[0,0,0,0,0,0,0,0,0,0,0,0,0,0,0],"sum_hessian":[6.3441676E4,6.026869E4,3.1729873E3,5.550789E4,4.7607983E3,1.5318964E3,1.641091E3,4.733452E4,8.173374E3,8.6045154E2,3.900347E3,2.3972224E2,1.2921741E3,1.0583004E3,5.827905E2],"tree_param":{"num_deleted":"0","num_feature":"31","num_nodes":"15","size_leaf_vector":"1"}},{"base_weights":[-7.175581E-7,2.2482614E-3,-2.0172082E-2,-1.0104773E-3,5.334139E-2,3.4450993E-2,-5.140996E-2,5.4839977E-5,-4.8594857E-3,6.2238257E-2,4.568252E-3,8.9914445E-3,-4.0008887E-3,4.1499253E-2,-5.7117795E-3],"categories":[],"categories_nodes":[],"categories_segments":[],"categories_sizes":[],"default_left":[0,0,0,0,0,0,0,0,0,0,0,0,0,0,0],"id":50,"left_children":[1,3,5,7,9,11,13,-1,-1,-1,-1,-1,-1,-1,-1],"loss_changes":[2.8779688E0,9.503214E0,1.085841E1,3.9799972E0,1.49142685E1,9.561445E0,1.0777579E1,0E0,0E0,0E0,0E0,0E0,0E0,0E0,0E0],"parents":[2147483647,0,0,1,1,2,2,3,3,4,4,5,5,6,6],"right_children":[2,4,6,8,10,12,14,-1,-1,-1,-1,-1,-1,-1,-1],"split_conditions":[9.072693E-2,6.598298E-2,2.8215846E-2,4.6458542E-2,-2.0548167E-2,1.0673739E-1,1.0136844E-2,5.4839977E-5,-4.8594857E-3,6.2238257E-2,4.568252E-3,8.9914445E-3,-4.0008887E-3,4.1499253E-2,-5.7117795E-3],"split_indices":[19,10,7,2,12,21,13,0,0,0,0,0,0,0,0],"split_type":[0,0,0,0,0,0,0,0,0,0,0,0,0,0,0],"sum_hessian":[6.344033E4,5.707665E4,6.363683E3,5.365454E4,3.4221064E3,2.315231E3,4.048452E3,5.195256E4,1.70198E3,4.5447327E1,3.3766592E3,1.3268735E3,9.883574E2,4.8945976E1,3.999506E3],"tree_param":{"num_deleted":"0","num_feature":"31","num_nodes":"15","size_leaf_vector":"1"}},{"base_weights":[-6.040748E-7,1.9193463E-2,-2.150714E-3,-1.734237E-3,5.0517328E-2,-2.3918817E-2,2.2836241E-3,-1.5092132E-3,1.2069946E-2,1.3354778E-2,-1.5181161E-3,-5.181908E-3,7.244635E-5,-3.9280267E-3,5.630463E-4],"categories":[],"categories_nodes":[],"categories_segments":[],"categories_sizes":[],"default_left":[0,0,0,0,0,0,0,0,0,0,0,0,0,0,0],"id":51,"left_children":[1,3,5,7,9,11,13,-1,-1,-1,-1,-1,-1,-1,-1],"loss_changes":[2.6180956E0,4.189246E0,5.5067425E0,6.265476E0,1.3962206E1,6.63803E0,6.592881E0,0E0,0E0,0E0,0E0,0E0,0E0,0E0,0E0],"parents":[2147483647,0,0,1,1,2,2,3,3,4,4,5,5,6,6],"right_children":[2,4,6,8,10,12,14,-1,-1,-1,-1,-1,-1,-1,-1],"split_conditions":[-2.1435975E-1,-6.673932E-3,-8.077782E-2,2.6220474E-2,2.9001704E-3,-3.535682E-3,-1.8356718E-2,-1.5092132E-3,1.2069946E-2,1.3354778E-2,-1.5181161E-3,-5.181908E-3,7.244635E-5,-3.9280267E-3,5.630463E-4],"split_indices":[27,11,29,0,1,2,0,0,0,0,0,0,0,0,0],"split_type":[0,0,0,0,0,0,0,0,0,0,0,0,0,0,0],"sum_hessian":[6.343922E4,6.390562E3,5.7048656E4,3.8310261E3,2.5595361E3,9.65456E3,4.7394098E4,3.4541658E3,3.7686017E2,1.1306317E3,1.4289044E3,4.5280547E3,5.1265054E3,3.5319043E3,4.386219E4],"tree_param":{"num_deleted":"0","num_feature":"31","num_nodes":"15","size_leaf_vector":"1"}},{"base_weights":[-5.575548E-7,7.5697736E-3,-6.268104E-3,-5.8019026E-3,2.6552312E-2,1.1046515E-3,-4.1919403E-2,-9.4873924E-4,2.2342429E-2,6.5716244E-3,-2.0672858E-4,-1.944672E-3,1.5003006E-3,1.8658418E-2,-5.1081176E-3],"categories":[],"categories_nodes":[],"categories_segments":[],"categories_sizes":[],"default_left":[0,0,0,0,0,0,0,0,0,0,0,0,0,0,0],"id":52,"left_children":[1,3,5,7,9,11,13,-1,-1,-1,-1,-1,-1,-1,-1],"loss_changes":[3.0100045E0,7.2932806E0,9.12232E0,1.4241824E1,1.3310291E1,8.214258E0,1.24506235E1,0E0,0E0,0E0,0E0,0E0,0E0,0E0,0E0],"parents":[2147483647,0,0,1,1,2,2,3,3,4,4,5,5,6,6],"right_children":[2,4,6,8,10,12,14,-1,-1,-1,-1,-1,-1,-1,-1],"split_conditions":[-8.1717107E-4,5.3657487E-2,1.06075585E-1,2.0687696E-1,-7.504109E-3,3.7924428E-3,-2.8606122E-2,-9.4873924E-4,2.2342429E-2,6.5716244E-3,-2.0672858E-4,-1.944672E-3,1.5003006E-3,1.8658418E-2,-5.1081176E-3],"split_indices":[0,24,20,21,3,2,12,0,0,0,0,0,0,0,0],"split_type":[0,0,0,0,0,0,0,0,0,0,0,0,0,0,0],"sum_hessian":[6.3438766E4,2.873312E4,3.4705645E4,1.6858006E4,1.1875114E4,2.8758361E4,5.9472827E3,1.6591252E4,2.667535E2,5.013917E3,6.8611973E3,1.1602237E4,1.7156123E4,2.2926207E2,5.718021E3],"tree_param":{"num_deleted":"0","num_feature":"31","num_nodes":"15","size_leaf_vector":"1"}},{"base_weights":[-4.794391E-7,1.0073178E-2,-4.36257E-3,6.181617E-3,1.2237768E-1,-1.1849573E-1,-2.06883E-3,1.8176514E-3,-2.6250212E-3,2.2973279E-2,-2.50045E-3,-9.853004E-4,-2.120389E-2,1.4570343E-2,-3.4953337E-4],"categories":[],"categories_nodes":[],"categories_segments":[],"categories_sizes":[],"default_left":[0,0,0,0,0,0,0,0,0,0,0,0,0,0,0],"id":53,"left_children":[1,3,5,7,9,11,13,-1,-1,-1,-1,-1,-1,-1,-1],"loss_changes":[2.7875657E0,8.377602E0,1.1589032E1,7.207296E0,1.0157781E1,8.863288E0,9.147775E0,0E0,0E0,0E0,0E0,0E0,0E0,0E0,0E0],"parents":[2147483647,0,0,1,1,2,2,3,3,4,4,5,5,6,6],"right_children":[2,4,6,8,10,12,14,-1,-1,-1,-1,-1,-1,-1,-1],"split_conditions":[-2.1198737E-2,1.06075585E-1,-4.5902573E-2,1.666458E-3,8.3578445E-2,-8.077782E-2,-4.426961E-2,1.8176514E-3,-2.6250212E-3,2.2973279E-2,-2.50045E-3,-9.853004E-4,-2.120389E-2,1.4570343E-2,-3.4953337E-4],"split_indices":[13,20,5,3,29,29,9,0,0,0,0,0,0,0,0],"split_type":[0,0,0,0,0,0,0,0,0,0,0,0,0,0,0],"sum_hessian":[6.343709E4,1.9168965E4,4.426813E4,1.852697E4,6.419942E2,8.721316E2,4.3395996E4,1.3524821E4,5.002149E3,3.7143564E2,2.7055856E2,4.0349973E2,4.6863184E2,4.1491324E2,4.2981082E4],"tree_param":{"num_deleted":"0","num_feature":"31","num_nodes":"15","size_leaf_vector":"1"}},{"base_weights":[-4.938483E-7,-1.539003E-2,2.728401E-3,-1.2146968E-2,-3.2472414E-1,7.72089E-2,1.3321234E-3,2.239833E-3,-4.6981517E-3,-5.945852E-3,-5.2744474E-2,1.7502237E-2,-1.0099794E-2,8.317045E-3,-1.9789364E-5],"categories":[],"categories_nodes":[],"categories_segments":[],"categories_sizes":[],"default_left":[0,0,0,0,0,0,0,0,0,0,0,0,0,0,0],"id":54,"left_children":[1,3,5,7,9,11,13,-1,-1,-1,-1,-1,-1,-1,-1],"loss_changes":[2.6640973E0,9.584885E0,5.6034703E0,1.1378203E1,5.330657E0,1.7283379E1,6.6226134E0,0E0,0E0,0E0,0E0,0E0,0E0,0E0,0E0],"parents":[2147483647,0,0,1,1,2,2,3,3,4,4,5,5,6,6],"right_children":[2,4,6,8,10,12,14,-1,-1,-1,-1,-1,-1,-1,-1],"split_conditions":[-1.3425678E-1,2.5537068E-2,-1.10657066E-1,-2.28432E-1,-7.7849954E-2,-1.5726494E-2,-1.4857416E-1,2.239833E-3,-4.6981517E-3,-5.945852E-3,-5.2744474E-2,1.7502237E-2,-1.0099794E-2,8.317045E-3,-1.9789364E-5],"split_indices":[24,26,17,29,30,3,22,0,0,0,0,0,0,0,0],"split_type":[0,0,0,0,0,0,0,0,0,0,0,0,0,0,0],"sum_hessian":[6.343629E4,9.554413E3,5.3881875E4,9.455283E3,9.912926E1,9.915295E2,5.2890348E4,4.747352E3,4.7079316E3,4.2940453E1,5.6188805E1,6.4016064E2,3.5136887E2,9.7066986E2,5.1919676E4],"tree_param":{"num_deleted":"0","num_feature":"31","num_nodes":"15","size_leaf_vector":"1"}},{"base_weights":[-4.2510322E-7,1.4242878E-3,-2.7154975E-2,1.1396573E-4,5.7494663E-2,5.0640833E-1,-3.1522214E-2,9.588695E-4,-9.497972E-4,-4.01182E-3,1.41563555E-2,7.898868E-2,2.0638725E-2,-8.813542E-3,-1.2372622E-4],"categories":[],"categories_nodes":[],"categories_segments":[],"categories_sizes":[],"default_left":[0,0,0,0,0,0,0,0,0,0,0,0,0,0,0],"id":55,"left_children":[1,3,5,7,9,11,13,-1,-1,-1,-1,-1,-1,-1,-1],"loss_changes":[2.4541595E0,4.428288E0,7.36889E0,5.3637657E0,1.1294811E1,2.1835437E0,5.3779097E0,0E0,0E0,0E0,0E0,0E0,0E0,0E0,0E0],"parents":[2147483647,0,0,1,1,2,2,3,3,4,4,5,5,6,6],"right_children":[2,4,6,8,10,12,14,-1,-1,-1,-1,-1,-1,-1,-1],"split_conditions":[3.5646334E-1,3.9096454E-1,-1.6890283E-1,2.0834927E-3,2.5476348E-2,6.460561E-3,1.2197626E-2,9.588695E-4,-9.497972E-4,-4.01182E-3,1.41563555E-2,7.898868E-2,2.0638725E-2,-8.813542E-3,-1.2372622E-4],"split_indices":[26,28,29,4,16,2,18,0,0,0,0,0,0,0,0],"split_type":[0,0,0,0,0,0,0,0,0,0,0,0,0,0,0],"sum_hessian":[6.343556E4,6.0273215E4,3.162344E3,5.889684E4,1.3763745E3,2.5673784E1,3.1366702E3,2.9660117E4,2.9236723E4,6.368844E2,7.3949005E2,1.3200826E1,1.2472959E1,1.0931637E3,2.0435066E3],"tree_param":{"num_deleted":"0","num_feature":"31","num_nodes":"15","size_leaf_vector":"1"}},{"base_weights":[-3.4411318E-7,-1.9577064E-2,2.1899114E-3,-3.829298E-2,5.6030396E-2,1.4519832E-2,-4.9341093E-3,6.822182E-4,-9.303448E-3,5.7558894E-2,3.5498694E-3,9.4148767E-4,7.41445E-3,-2.2519214E-2,-3.4364744E-4],"categories":[],"categories_nodes":[],"categories_segments":[],"categories_sizes":[],"default_left":[0,0,0,0,0,0,0,0,0,0,0,0,0,0,0],"id":56,"left_children":[1,3,5,7,9,11,13,-1,-1,-1,-1,-1,-1,-1,-1],"loss_changes":[2.7199798E0,9.032406E0,5.01139E0,1.2636074E1,1.3510734E1,6.3592844E0,1.1927877E1,0E0,0E0,0E0,0E0,0E0,0E0,0E0,0E0],"parents":[2147483647,0,0,1,1,2,2,3,3,4,4,5,5,6,6],"right_children":[2,4,6,8,10,12,14,-1,-1,-1,-1,-1,-1,-1,-1],"split_conditions":[-1.8356718E-2,-1.0596035E-3,-6.258521E-3,-4.2148586E-2,-4.2140737E-2,1.8617902E-2,-4.8338607E-2,6.822182E-4,-9.303448E-3,5.7558894E-2,3.5498694E-3,9.4148767E-4,7.41445E-3,-2.2519214E-2,-3.4364744E-4],"split_indices":[0,6,9,15,8,5,11,0,0,0,0,0,0,0,0],"split_type":[0,0,0,0,0,0,0,0,0,0,0,0,0,0,0],"sum_hessian":[6.3435293E4,6.3830415E3,5.705225E4,5.1165E3,1.2665416E3,2.0892498E4,3.6159754E4,2.804869E3,2.3116309E3,4.8147984E1,1.2183937E3,1.9244795E4,1.647704E3,2.4420622E2,3.5915547E4],"tree_param":{"num_deleted":"0","num_feature":"31","num_nodes":"15","size_leaf_vector":"1"}},{"base_weights":[-2.5928426E-7,-6.4559346E-3,6.540297E-3,-4.9789925E-3,-2.721389E-1,5.9288803E-2,1.6291562E-3,-2.3498676E-4,-7.005594E-3,2.5878659E-2,-4.9051628E-2,5.00044E-3,5.7374742E-2,-3.566427E-3,1.0679979E-3],"categories":[],"categories_nodes":[],"categories_segments":[],"categories_sizes":[],"default_left":[0,0,0,0,0,0,0,0,0,0,0,0,0,0,0],"id":57,"left_children":[1,3,5,7,9,11,13,-1,-1,-1,-1,-1,-1,-1,-1],"loss_changes":[2.6784458E0,1.2527111E1,8.162878E0,5.4319344E0,2.0462427E1,1.281933E1,9.729918E0,0E0,0E0,0E0,0E0,0E0,0E0,0E0,0E0],"parents":[2147483647,0,0,1,1,2,2,3,3,4,4,5,5,6,6],"right_children":[2,4,6,8,10,12,14,-1,-1,-1,-1,-1,-1,-1,-1],"split_conditions":[2.7770617E-3,5.397538E-2,-2.8606122E-2,3.9722856E-2,-6.713552E-2,5.19381E-2,-3.6165554E-2,-2.3498676E-4,-7.005594E-3,2.5878659E-2,-4.9051628E-2,5.00044E-3,5.7374742E-2,-3.566427E-3,1.0679979E-3],"split_indices":[5,3,12,9,12,10,21,0,0,0,0,0,0,0,0],"split_type":[0,0,0,0,0,0,0,0,0,0,0,0,0,0,0],"sum_hessian":[6.3434637E4,3.192447E4,3.1510168E4,3.1747982E4,1.7648833E2,2.683868E3,2.8826299E4,3.0515162E4,1.2328202E3,5.143589E1,1.2505244E2,2.636291E3,4.7576965E1,5.6296465E3,2.3196652E4],"tree_param":{"num_deleted":"0","num_feature":"31","num_nodes":"15","size_leaf_vector":"1"}},{"base_weights":[-4.2085352E-7,-1.2466304E-2,3.138165E-3,2.0684475E-2,-4.7401715E-2,2.603511E-2,-3.1474712E-3,1.4189233E-4,1.4917928E-2,-3.3883534E-3,-2.1560311E-2,1.775264E-3,1.3064128E-2,-3.1808582E-3,3.3192904E-4],"categories":[],"categories_nodes":[],"categories_segments":[],"categories_sizes":[],"default_left":[0,0,0,0,0,0,0,0,0,0,0,0,0,0,0],"id":58,"left_children":[1,3,5,7,9,11,13,-1,-1,-1,-1,-1,-1,-1,-1],"loss_changes":[2.481842E0,1.4776167E1,7.2931967E0,1.6206005E1,1.4124876E1,9.456575E0,7.369276E0,0E0,0E0,0E0,0E0,0E0,0E0,0E0,0E0],"parents":[2147483647,0,0,1,1,2,2,3,3,4,4,5,5,6,6],"right_children":[2,4,6,8,10,12,14,-1,-1,-1,-1,-1,-1,-1,-1],"split_conditions":[-2.5533345E-2,-4.797985E-2,-1.1229798E-2,1.1061363E-1,1.5986752E-2,3.366352E-3,-3.3606112E-2,1.4189233E-4,1.4917928E-2,-3.3883534E-3,-2.1560311E-2,1.775264E-3,1.3064128E-2,-3.1808582E-3,3.3192904E-4],"split_indices":[5,20,8,29,1,7,20,0,0,0,0,0,0,0,0],"split_type":[0,0,0,0,0,0,0,0,0,0,0,0,0,0,0],"sum_hessian":[6.3433273E4,1.2758574E4,5.06747E4,6.546497E3,6.212077E3,1.0914824E4,3.9759875E4,5.69294E3,8.5355695E2,5.7499585E3,4.6211856E2,1.011402E4,8.008041E2,7.3194766E3,3.2440396E4],"tree_param":{"num_deleted":"0","num_feature":"31","num_nodes":"15","size_leaf_vector":"1"}},{"base_weights":[-3.6685046E-7,5.2386746E-3,-7.7904393E-3,-2.618398E-3,3.3788547E-2,1.9660516E-2,-1.8713756E-2,-3.5887815E-3,3.4617563E-4,7.964048E-3,-9.1690215E-4,2.7689512E-3,-2.4931336E-2,-4.5347153E-3,6.829272E-4],"categories":[],"categories_nodes":[],"categories_segments":[],"categories_sizes":[],"default_left":[0,0,0,0,0,0,0,0,0,0,0,0,0,0,0],"id":59,"left_children":[1,3,5,7,9,11,13,-1,-1,-1,-1,-1,-1,-1,-1],"loss_changes":[2.588811E0,8.507432E0,7.648142E0,6.016076E0,1.6121572E1,1.5679401E1,1.2412525E1,0E0,0E0,0E0,0E0,0E0,0E0,0E0,0E0],"parents":[2147483647,0,0,1,1,2,2,3,3,4,4,5,5,6,6],"right_children":[2,4,6,8,10,12,14,-1,-1,-1,-1,-1,-1,-1,-1],"split_conditions":[6.1938003E-2,3.6960788E-2,-5.3887833E-3,-3.174584E-2,9.768843E-2,2.9752541E-2,1.9235454E-2,-3.5887815E-3,3.4617563E-4,7.964048E-3,-9.1690215E-4,2.7689512E-3,-2.4931336E-2,-4.5347153E-3,6.829272E-4],"split_indices":[23,24,1,2,27,3,9,0,0,0,0,0,0,0,0],"split_type":[0,0,0,0,0,0,0,0,0,0,0,0,0,0,0],"sum_hessian":[6.3431793E4,3.79257E4,2.5506092E4,2.9740861E4,8.184839E3,7.260362E3,1.824573E4,4.5954507E3,2.514541E4,3.959045E3,4.225794E3,7.0499185E3,2.1044333E2,8.932218E3,9.313512E3],"tree_param":{"num_deleted":"0","num_feature":"31","num_nodes":"15","size_leaf_vector":"1"}},{"base_weights":[-2.9711185E-7,6.088902E-3,-6.0168006E-3,-1.8871602E-3,3.90496E-2,7.895874E-3,-2.8614234E-2,-1.1928807E-5,-1.5582378E-2,5.2334187E-3,-8.354278E-3,1.8095629E-3,-5.0905417E-3,-1.0747755E-2,-2.0221022E-3],"categories":[],"categories_nodes":[],"categories_segments":[],"categories_sizes":[],"default_left":[0,0,0,0,0,0,0,0,0,0,0,0,0,0,0],"id":60,"left_children":[1,3,5,7,9,11,13,-1,-1,-1,-1,-1,-1,-1,-1],"loss_changes":[2.3238485E0,8.287862E0,1.0030979E1,6.9076986E0,1.0003324E1,1.184394E1,8.047749E0,0E0,0E0,0E0,0E0,0E0,0E0,0E0,0E0],"parents":[2147483647,0,0,1,1,2,2,3,3,4,4,5,5,6,6],"right_children":[2,4,6,8,10,12,14,-1,-1,-1,-1,-1,-1,-1,-1],"split_conditions":[3.889602E-4,3.801027E-2,6.837446E-2,5.397538E-2,6.63768E-2,6.1443757E-2,9.5927494E-4,-1.1928807E-5,-1.5582378E-2,5.2334187E-3,-8.354278E-3,1.8095629E-3,-5.0905417E-3,-1.0747755E-2,-2.0221022E-3],"split_indices":[0,13,22,3,5,14,25,0,0,0,0,0,0,0,0],"split_type":[0,0,0,0,0,0,0,0,0,0,0,0,0,0,0],"sum_hessian":[6.3431277E4,3.1525186E4,3.1906092E4,2.5382861E4,6.142324E3,1.974784E4,1.2158252E4,2.5094664E4,2.8819754E2,5.541794E3,6.0053033E2,1.6828709E4,2.9191318E3,1.1695033E3,1.0988748E4],"tree_param":{"num_deleted":"0","num_feature":"31","num_nodes":"15","size_leaf_vector":"1"}},{"base_weights":[-3.3657517E-7,4.2300085E-3,-7.7722594E-3,1.7938786E-4,7.807937E-2,-1.6452543E-1,-4.6144538E-3,7.1610144E-4,-1.6303537E-3,-3.6029872E-3,1.3307447E-2,-1.00567125E-1,-1.3245746E-2,1.8728866E-3,-2.0680346E-3],"categories":[],"categories_nodes":[],"categories_segments":[],"categories_sizes":[],"default_left":[0,0,0,0,0,0,0,0,0,0,0,0,0,0,0],"id":61,"left_children":[1,3,5,7,9,11,13,-1,-1,-1,-1,-1,-1,-1,-1],"loss_changes":[2.085422E0,1.2286357E1,1.1066335E1,4.480795E0,1.3402439E1,1.1908363E1,8.218786E0,0E0,0E0,0E0,0E0,0E0,0E0,0E0,0E0],"parents":[2147483647,0,0,1,1,2,2,3,3,4,4,5,5,6,6],"right_children":[2,4,6,8,10,12,14,-1,-1,-1,-1,-1,-1,-1,-1],"split_conditions":[2.4539879E-2,3.0049166E-2,-1.3264093E-2,-1.5443617E-3,-3.6165554E-2,-8.169007E-2,4.5155913E-2,7.1610144E-4,-1.6303537E-3,-3.6029872E-3,1.3307447E-2,-1.00567125E-1,-1.3245746E-2,1.8728866E-3,-2.0680346E-3],"split_indices":[15,13,12,12,21,19,23,0,0,0,0,0,0,0,0],"split_type":[0,0,0,0,0,0,0,0,0,0,0,0,0,0,0],"sum_hessian":[6.3429266E4,4.1072848E4,2.2356414E4,3.8937156E4,2.135694E3,4.4147818E2,2.1914938E4,2.735182E4,1.1585334E4,6.945575E2,1.4411365E3,1.6212881E1,4.252653E2,8.934028E3,1.2980908E4],"tree_param":{"num_deleted":"0","num_feature":"31","num_nodes":"15","size_leaf_vector":"1"}},{"base_weights":[-3.7938054E-7,-2.240205E-3,2.0003878E-2,-1.4104757E-4,-6.57178E-2,-7.136155E-2,3.7971403E-2,2.4318653E-4,-2.7520976E-3,-2.9398294E-3,-2.1122862E-2,-1.996774E-3,-4.4336703E-2,1.0918899E-2,2.862699E-4],"categories":[],"categories_nodes":[],"categories_segments":[],"categories_sizes":[],"default_left":[0,0,0,0,0,0,0,0,0,0,0,0,0,0,0],"id":62,"left_children":[1,3,5,7,9,11,13,-1,-1,-1,-1,-1,-1,-1,-1],"loss_changes":[2.8419895E0,7.600799E0,1.0484691E1,3.8897505E0,9.649928E0,2.0067017E1,1.3344997E1,0E0,0E0,0E0,0E0,0E0,0E0,0E0,0E0],"parents":[2147483647,0,0,1,1,2,2,3,3,4,4,5,5,6,6],"right_children":[2,4,6,8,10,12,14,-1,-1,-1,-1,-1,-1,-1,-1],"split_conditions":[4.7499523E-2,4.298569E-2,-9.908755E-2,2.5246346E-2,5.9324834E-2,-4.7116943E-2,1.0408334E-2,2.4318653E-4,-2.7520976E-3,-2.9398294E-3,-2.1122862E-2,-1.996774E-3,-4.4336703E-2,1.0918899E-2,2.862699E-4],"split_indices":[5,4,21,2,8,26,22,0,0,0,0,0,0,0,0],"split_type":[0,0,0,0,0,0,0,0,0,0,0,0,0,0,0],"sum_hessian":[6.3428707E4,5.704187E4,6.3868325E3,5.521592E4,1.8259498E3,1.0495973E3,5.3372354E3,5.047294E4,4.7429814E3,1.4612274E3,3.647225E2,9.221932E2,1.27404106E2,1.762343E3,3.5748923E3],"tree_param":{"num_deleted":"0","num_feature":"31","num_nodes":"15","size_leaf_vector":"1"}},{"base_weights":[-4.8383197E-7,-6.120431E-3,6.199955E-3,3.1440004E-3,-3.216465E-2,-8.511869E-2,8.674845E-3,6.8543234E-4,-9.834289E-3,-3.8352765E-3,2.0281207E-2,7.1317437E-3,-2.095241E-2,5.663405E-3,1.33672E-4],"categories":[],"categories_nodes":[],"categories_segments":[],"categories_sizes":[],"default_left":[0,0,0,0,0,0,0,0,0,0,0,0,0,0,0],"id":63,"left_children":[1,3,5,7,9,11,13,-1,-1,-1,-1,-1,-1,-1,-1],"loss_changes":[2.406866E0,7.702116E0,7.1206656E0,8.866083E0,1.2178697E1,1.6179476E1,1.07956505E1,0E0,0E0,0E0,0E0,0E0,0E0,0E0,0E0],"parents":[2147483647,0,0,1,1,2,2,3,3,4,4,5,5,6,6],"right_children":[2,4,6,8,10,12,14,-1,-1,-1,-1,-1,-1,-1,-1],"split_conditions":[2.7770617E-3,-4.4055562E-3,-1.6306664E-1,3.710549E-1,1.1884505E-1,-3.1621945E-1,-6.258521E-3,6.8543234E-4,-9.834289E-3,-3.8352765E-3,2.0281207E-2,7.1317437E-3,-2.095241E-2,5.663405E-3,1.33672E-4],"split_indices":[5,4,20,27,18,28,9,0,0,0,0,0,0,0,0],"split_type":[0,0,0,0,0,0,0,0,0,0,0,0,0,0,0],"sum_hessian":[6.342812E4,3.1921256E4,3.1506865E4,2.3545623E4,8.375633E3,8.313583E2,3.0675508E4,2.2715166E4,8.30458E2,8.1607197E3,2.1491267E2,3.6826984E2,4.6308847E2,4.070734E3,2.6604773E4],"tree_param":{"num_deleted":"0","num_feature":"31","num_nodes":"15","size_leaf_vector":"1"}},{"base_weights":[-4.694638E-7,-1.9081427E-2,2.1401907E-3,3.5809446E-2,-5.942313E-2,1.5375456E-2,-3.194162E-3,1.1104043E-3,1.90629E-2,-1.25944605E-2,1.3077302E-3,2.085787E-3,-1.1138706E-2,-2.7309058E-3,2.4047952E-4],"categories":[],"categories_nodes":[],"categories_segments":[],"categories_sizes":[],"default_left":[0,0,0,0,0,0,0,0,0,0,0,0,0,0,0],"id":64,"left_children":[1,3,5,7,9,11,13,-1,-1,-1,-1,-1,-1,-1,-1],"loss_changes":[2.5907538E0,1.4167782E1,4.026376E0,1.0366543E1,1.7785437E1,1.1385214E1,5.488102E0,0E0,0E0,0E0,0E0,0E0,0E0,0E0,0E0],"parents":[2147483647,0,0,1,1,2,2,3,3,4,4,5,5,6,6],"right_children":[2,4,6,8,10,12,14,-1,-1,-1,-1,-1,-1,-1,-1],"split_conditions":[-4.1557197E-2,-9.908755E-2,-1.1229798E-2,-3.558102E-2,4.442792E-3,3.8310714E-2,-3.3606112E-2,1.1104043E-3,1.90629E-2,-1.25944605E-2,1.3077302E-3,2.085787E-3,-1.1138706E-2,-2.7309058E-3,2.4047952E-4],"split_indices":[4,21,8,19,26,3,20,0,0,0,0,0,0,0,0],"split_type":[0,0,0,0,0,0,0,0,0,0,0,0,0,0,0],"sum_hessian":[6.3427598E4,6.3980483E3,5.702955E4,2.7102927E3,3.6877554E3,1.6382444E4,4.0647105E4,2.3373147E3,3.7297806E2,1.923178E3,1.7645774E3,1.5703285E4,6.791589E2,7.659101E3,3.2988004E4],"tree_param":{"num_deleted":"0","num_feature":"31","num_nodes":"15","size_leaf_vector":"1"}},{"base_weights":[-5.2577343E-7,-1.7293004E-2,1.934074E-3,-8.351417E-3,-2.4782048E-1,1.4345332E-2,-5.010194E-3,3.053364E-3,-4.426366E-3,-3.58647E-2,-4.951564E-3,3.0480667E-3,-1.2390799E-3,-8.483502E-3,6.791374E-5],"categories":[],"categories_nodes":[],"categories_segments":[],"categories_sizes":[],"default_left":[0,0,0,0,0,0,0,0,0,0,0,0,0,0,0],"id":65,"left_children":[1,3,5,7,9,11,13,-1,-1,-1,-1,-1,-1,-1,-1],"loss_changes":[2.121862E0,1.3154789E1,4.9164877E0,8.579167E0,5.237072E0,8.828984E0,1.6612032E1,0E0,0E0,0E0,0E0,0E0,0E0,0E0,0E0],"parents":[2147483647,0,0,1,1,2,2,3,3,4,4,5,5,6,6],"right_children":[2,4,6,8,10,12,14,-1,-1,-1,-1,-1,-1,-1,-1],"split_conditions":[-1.8356718E-2,4.4311893E-1,-4.4055562E-3,-4.340728E-2,4.196288E-3,1.8420976E-3,-5.8393046E-2,3.053364E-3,-4.426366E-3,-3.58647E-2,-4.951564E-3,3.0480667E-3,-1.2390799E-3,-8.483502E-3,6.791374E-5],"split_indices":[0,30,4,16,10,0,17,0,0,0,0,0,0,0,0],"split_type":[0,0,0,0,0,0,0,0,0,0,0,0,0,0,0],"sum_hessian":[6.342621E4,6.38185E3,5.704436E4,6.1435566E3,2.3829329E2,2.0466059E4,3.65783E4,2.9496904E3,3.1938662E3,1.528629E2,8.54304E1,1.2763343E4,7.702716E3,2.4335864E3,3.4144715E4],"tree_param":{"num_deleted":"0","num_feature":"31","num_nodes":"15","size_leaf_vector":"1"}},{"base_weights":[-4.415349E-7,-2.5750266E-3,1.4491862E-2,1.8885377E-3,-3.3117272E-2,-9.991246E-2,2.2717392E-2,-9.719372E-5,6.114928E-3,2.1976128E-3,-6.2459977E-3,-2.9187433E-3,-2.040842E-2,4.6789246E-3,-2.5614128E-3],"categories":[],"categories_nodes":[],"categories_segments":[],"categories_sizes":[],"default_left":[0,0,0,0,0,0,0,0,0,0,0,0,0,0,0],"id":66,"left_children":[1,3,5,7,9,11,13,-1,-1,-1,-1,-1,-1,-1,-1],"loss_changes":[2.3665075E0,7.342248E0,9.003732E0,7.9654875E0,1.110165E1,4.7283196E0,1.03849E1,0E0,0E0,0E0,0E0,0E0,0E0,0E0,0E0],"parents":[2147483647,0,0,1,1,2,2,3,3,4,4,5,5,6,6],"right_children":[2,4,6,8,10,12,14,-1,-1,-1,-1,-1,-1,-1,-1],"split_conditions":[2.861595E-1,1.9514824E-1,-1.8356718E-2,2.0826171E-1,-3.0546957E-3,4.876148E-3,6.817474E-3,-9.719372E-5,6.114928E-3,2.1976128E-3,-6.2459977E-3,-2.9187433E-3,-2.040842E-2,4.6789246E-3,-2.5614128E-3],"split_indices":[30,29,0,30,1,17,0,0,0,0,0,0,0,0,0],"split_type":[0,0,0,0,0,0,0,0,0,0,0,0,0,0,0],"sum_hessian":[6.34254E4,5.385751E4,9.567889E3,4.699018E4,6.86733E3,6.417766E2,8.926112E3,4.4826438E4,2.163741E3,2.3864912E3,4.480839E3,3.82254E2,2.595226E2,5.95846E3,2.9676528E3],"tree_param":{"num_deleted":"0","num_feature":"31","num_nodes":"15","size_leaf_vector":"1"}},{"base_weights":[-3.7391678E-7,1.8673336E-2,-2.0849304E-3,2.3143897E-3,1.489585E-1,-1.9667767E-2,1.8824929E-3,-5.661664E-3,2.1877594E-3,1.6065598E-2,-5.8122218E-2,-2.978474E-3,4.553984E-3,9.987567E-3,7.097838E-5],"categories":[],"categories_nodes":[],"categories_segments":[],"categories_sizes":[],"default_left":[0,0,0,0,0,0,0,0,0,0,0,0,0,0,0],"id":67,"left_children":[1,3,5,7,9,11,13,-1,-1,-1,-1,-1,-1,-1,-1],"loss_changes":[2.4688826E0,1.3574665E1,3.9800925E0,6.5236874E0,6.0686436E0,6.929478E0,5.3495617E0,0E0,0E0,0E0,0E0,0E0,0E0,0E0,0E0],"parents":[2147483647,0,0,1,1,2,2,3,3,4,4,5,5,6,6],"right_children":[2,4,6,8,10,12,14,-1,-1,-1,-1,-1,-1,-1,-1],"split_conditions":[-1.6260327E-1,3.761197E-2,-8.077782E-2,-8.555233E-2,4.442792E-3,6.598298E-2,-1.4857416E-1,-5.661664E-3,2.1877594E-3,1.6065598E-2,-5.8122218E-2,-2.978474E-3,4.553984E-3,9.987567E-3,7.097838E-5],"split_indices":[23,1,29,9,26,10,22,0,0,0,0,0,0,0,0],"split_type":[0,0,0,0,0,0,0,0,0,0,0,0,0,0,0],"sum_hessian":[6.342437E4,6.369111E3,5.705526E4,5.658602E3,7.105088E2,1.0503929E4,4.6551332E4,1.4102994E3,4.2483022E3,6.9930597E2,1.1202855E1,9.093128E3,1.4108005E3,5.505036E2,4.600083E4],"tree_param":{"num_deleted":"0","num_feature":"31","num_nodes":"15","size_leaf_vector":"1"}},{"base_weights":[-4.1176474E-7,1.4387051E-2,-2.555515E-3,2.1256646E-3,6.602594E-2,4.4789625E-4,-3.1152423E-2,-8.648519E-5,2.5030915E-2,1.2275997E-2,-1.3794713E-3,-1.500143E-4,7.654459E-3,-8.9117875E-3,9.128586E-5],"categories":[],"categories_nodes":[],"categories_segments":[],"categories_sizes":[],"default_left":[0,0,0,0,0,0,0,0,0,0,0,0,0,0,0],"id":68,"left_children":[1,3,5,7,9,11,13,-1,-1,-1,-1,-1,-1,-1,-1],"loss_changes":[2.3315725E0,6.056226E0,4.625889E0,5.73692E0,8.311533E0,7.2252417E0,9.514564E0,0E0,0E0,0E0,0E0,0E0,0E0,0E0,0E0],"parents":[2147483647,0,0,1,1,2,2,3,3,4,4,5,5,6,6],"right_children":[2,4,6,8,10,12,14,-1,-1,-1,-1,-1,-1,-1,-1],"split_conditions":[-1.6933393E-1,4.935141E-2,9.072693E-2,2.1031956E-1,7.228263E-2,8.541045E-2,7.297678E-2,-8.648519E-5,2.5030915E-2,1.2275997E-2,-1.3794713E-3,-1.500143E-4,7.654459E-3,-8.9117875E-3,9.128586E-5],"split_indices":[30,9,19,25,6,17,24,0,0,0,0,0,0,0,0],"split_type":[0,0,0,0,0,0,0,0,0,0,0,0,0,0,0],"sum_hessian":[6.3424383E4,9.565012E3,5.385937E4,7.7296475E3,1.8353645E3,4.8740375E4,5.1189937E3,7.637617E3,9.203038E1,1.0728303E3,7.625341E2,4.752379E4,1.2165864E3,1.8231771E3,3.2958164E3],"tree_param":{"num_deleted":"0","num_feature":"31","num_nodes":"15","size_leaf_vector":"1"}},{"base_weights":[-4.4112915E-7,-1.3593591E-2,2.409852E-3,1.19921025E-2,-5.426709E-2,4.541853E-4,4.403913E-2,-3.9118432E-4,1.3713527E-2,9.837239E-4,-8.301435E-3,8.744386E-3,-1.3550279E-4,1.3079769E-2,-1.2659439E-3],"categories":[],"categories_nodes":[],"categories_segments":[],"categories_sizes":[],"default_left":[0,0,0,0,0,0,0,0,0,0,0,0,0,0,0],"id":69,"left_children":[1,3,5,7,9,11,13,-1,-1,-1,-1,-1,-1,-1,-1],"loss_changes":[2.078E0,9.940787E0,4.385873E0,1.16705E1,6.7974625E0,8.098081E0,1.1890632E1,0E0,0E0,0E0,0E0,0E0,0E0,0E0,0E0],"parents":[2147483647,0,0,1,1,2,2,3,3,4,4,5,5,6,6],"right_children":[2,4,6,8,10,12,14,-1,-1,-1,-1,-1,-1,-1,-1],"split_conditions":[-1.3425678E-1,-1.6260327E-1,7.228263E-2,3.761197E-2,-2.3284097E-1,-1.4857416E-1,7.483602E-2,-3.9118432E-4,1.3713527E-2,9.837239E-4,-8.301435E-3,8.744386E-3,-1.3550279E-4,1.3079769E-2,-1.2659439E-3],"split_indices":[24,23,6,1,30,22,13,0,0,0,0,0,0,0,0],"split_type":[0,0,0,0,0,0,0,0,0,0,0,0,0,0,0],"sum_hessian":[6.3424285E4,9.55239E3,5.3871895E4,5.863777E3,3.6886128E3,5.1454652E4,2.4172446E3,5.202599E3,6.6117755E2,1.1420106E3,2.5466023E3,1.0483513E3,5.04063E4,9.553678E2,1.461877E3],"tree_param":{"num_deleted":"0","num_feature":"31","num_nodes":"15","size_leaf_vector":"1"}},{"base_weights":[-4.5518024E-7,-1.0311933E-2,3.4619884E-3,2.1845302E-2,-3.1521242E-2,3.1663857E-2,-2.8934784E-3,2.5182348E-3,-4.1631635E-2,-1.946271E-3,-1.2061091E-2,5.6612412E-3,-2.009671E-3,-1.4587894E-2,-1.83177E-4],"categories":[],"categories_nodes":[],"categories_segments":[],"categories_sizes":[],"default_left":[0,0,0,0,0,0,0,0,0,0,0,0,0,0,0],"id":70,"left_children":[1,3,5,7,9,11,13,-1,-1,-1,-1,-1,-1,-1,-1],"loss_changes":[2.2644174E0,1.0873847E1,8.510236E0,9.264709E0,1.03207035E1,1.1276328E1,5.8823504E0,0E0,0E0,0E0,0E0,0E0,0E0,0E0,0E0],"parents":[2147483647,0,0,1,1,2,2,3,3,4,4,5,5,6,6],"right_children":[2,4,6,8,10,12,14,-1,-1,-1,-1,-1,-1,-1,-1],"split_conditions":[-1.9111698E-2,-6.439539E-2,-1.1229798E-2,7.165969E-2,9.86787E-3,6.460561E-3,-3.0854648E-2,2.5182348E-3,-4.1631635E-2,-1.946271E-3,-1.2061091E-2,5.6612412E-3,-2.009671E-3,-1.4587894E-2,-1.83177E-4],"split_indices":[5,20,8,12,1,2,4,0,0,0,0,0,0,0,0],"split_type":[0,0,0,0,0,0,0,0,0,0,0,0,0,0,0],"sum_hessian":[6.3423887E4,1.594329E4,4.7480598E4,6.3362954E3,9.606995E3,8.732193E3,3.8748402E4,6.288403E3,4.7892563E1,8.461683E3,1.1453121E3,5.892172E3,2.8400222E3,2.8559744E2,3.8462805E4],"tree_param":{"num_deleted":"0","num_feature":"31","num_nodes":"15","size_leaf_vector":"1"}},{"base_weights":[-4.2870684E-7,-5.6929435E-3,5.7666623E-3,-4.483057E-3,-2.247809E-1,1.2234938E-2,-2.8041074E-2,-1.7492831E-4,-6.957856E-3,1.5039709E-2,-5.005857E-2,-1.7906007E-3,2.1988328E-3,3.9017387E-3,-4.972533E-3],"categories":[],"categories_nodes":[],"categories_segments":[],"categories_sizes":[],"default_left":[0,0,0,0,0,0,0,0,0,0,0,0,0,0,0],"id":71,"left_children":[1,3,5,7,9,11,13,-1,-1,-1,-1,-1,-1,-1,-1],"loss_changes":[2.0821185E0,8.460474E0,6.889436E0,5.6487646E0,1.8138657E1,7.774296E0,7.3573103E0,0E0,0E0,0E0,0E0,0E0,0E0,0E0,0E0],"parents":[2147483647,0,0,1,1,2,2,3,3,4,4,5,5,6,6],"right_children":[2,4,6,8,10,12,14,-1,-1,-1,-1,-1,-1,-1,-1],"split_conditions":[2.7770617E-3,5.397538E-2,9.072693E-2,3.710549E-1,-9.908755E-2,-3.6165554E-2,2.8215846E-2,-1.7492831E-4,-6.957856E-3,1.5039709E-2,-5.005857E-2,-1.7906007E-3,2.1988328E-3,3.9017387E-3,-4.972533E-3],"split_indices":[5,3,19,27,21,21,7,0,0,0,0,0,0,0,0],"split_type":[0,0,0,0,0,0,0,0,0,0,0,0,0,0,0],"sum_hessian":[6.3422668E4,3.1917703E4,3.1504965E4,3.1742408E4,1.7529356E2,2.6445307E4,5.0596567E3,3.046307E4,1.2793383E3,7.42674E1,1.0102615E2,6.465364E3,1.9979943E4,1.2363254E3,3.8233313E3],"tree_param":{"num_deleted":"0","num_feature":"31","num_nodes":"15","size_leaf_vector":"1"}},{"base_weights":[-7.461498E-7,-1.9280693E-3,1.7212361E-2,9.428731E-4,-3.8590066E-2,5.1282907E-1,1.3091199E-2,-2.2036415E-5,8.955668E-3,-2.4548903E-4,-1.1634922E-2,3.19308E-2,1.0620773E-1,-7.854709E-3,3.0739084E-3],"categories":[],"categories_nodes":[],"categories_segments":[],"categories_sizes":[],"default_left":[0,0,0,0,0,0,0,0,0,0,0,0,0,0,0],"id":72,"left_children":[1,3,5,7,9,11,13,-1,-1,-1,-1,-1,-1,-1,-1],"loss_changes":[2.104E0,6.0031633E0,1.3043687E1,5.4521294E0,1.1638216E1,5.5976944E0,1.024255E1,0E0,0E0,0E0,0E0,0E0,0E0,0E0,0E0],"parents":[2147483647,0,0,1,1,2,2,3,3,4,4,5,5,6,6],"right_children":[2,4,6,8,10,12,14,-1,-1,-1,-1,-1,-1,-1,-1],"split_conditions":[4.7499523E-2,3.3594433E-2,-1.0596035E-3,8.2351804E-2,5.4270174E-2,-9.671332E-4,-9.908755E-2,-2.2036415E-5,8.955668E-3,-2.4548903E-4,-1.1634922E-2,3.19308E-2,1.0620773E-1,-7.854709E-3,3.0739084E-3],"split_indices":[5,4,6,8,17,8,21,0,0,0,0,0,0,0,0],"split_type":[0,0,0,0,0,0,0,0,0,0,0,0,0,0,0],"sum_hessian":[6.3420832E4,5.7034746E4,6.3860864E3,5.2892797E4,4.14195E3,5.26638E1,6.3334224E3,5.2207465E4,6.853297E2,2.8278364E3,1.3141139E3,3.8942772E1,1.37210245E1,1.0227415E3,5.3106807E3],"tree_param":{"num_deleted":"0","num_feature":"31","num_nodes":"15","size_leaf_vector":"1"}},{"base_weights":[-7.323665E-7,-1.629491E-2,1.8271649E-3,-2.5107678E-2,1.5452006E-1,1.4033702E-2,-2.9116508E-3,2.8979136E-3,-6.6466713E-3,6.4600505E-2,1.1529646E-2,2.7099552E-3,-3.2962025E-3,8.69562E-3,-4.4413452E-4],"categories":[],"categories_nodes":[],"categories_segments":[],"categories_sizes":[],"default_left":[0,0,0,0,0,0,0,0,0,0,0,0,0,0,0],"id":73,"left_children":[1,3,5,7,9,11,13,-1,-1,-1,-1,-1,-1,-1,-1],"loss_changes":[1.8889174E0,9.629657E0,3.2984931E0,1.360777E1,6.0501957E0,9.791934E0,5.6468215E0,0E0,0E0,0E0,0E0,0E0,0E0,0E0,0E0],"parents":[2147483647,0,0,1,1,2,2,3,3,4,4,5,5,6,6],"right_children":[2,4,6,8,10,12,14,-1,-1,-1,-1,-1,-1,-1,-1],"split_conditions":[-4.1557197E-2,4.5262825E-2,-8.1449915E-3,-9.908755E-2,2.8251935E-2,1.7133586E-1,-5.3394686E-2,2.8979136E-3,-6.6466713E-3,6.4600505E-2,1.1529646E-2,2.7099552E-3,-3.2962025E-3,8.69562E-3,-4.4413452E-4],"split_indices":[4,18,4,21,19,27,7,0,0,0,0,0,0,0,0],"split_type":[0,0,0,0,0,0,0,0,0,0,0,0,0,0,0],"sum_hessian":[6.342036E4,6.3969443E3,5.7023418E4,6.083102E3,3.138423E2,1.5946759E4,4.1076656E4,2.6359578E3,3.447144E3,2.3195457E1,2.9064682E2,1.2477687E4,3.4690725E3,6.8748816E2,4.0389168E4],"tree_param":{"num_deleted":"0","num_feature":"31","num_nodes":"15","size_leaf_vector":"1"}},{"base_weights":[-6.8551947E-7,-2.5346838E-3,1.4263489E-2,1.4229226E-3,-2.961498E-2,2.4703378E-2,-7.1416214E-2,-1.937427E-3,5.7696615E-4,1.3157013E-2,-4.0446664E-3,-8.079578E-3,3.299446E-3,1.7925778E-2,-9.70843E-3],"categories":[],"categories_nodes":[],"categories_segments":[],"categories_sizes":[],"default_left":[0,0,0,0,0,0,0,0,0,0,0,0,0,0,0],"id":74,"left_children":[1,3,5,7,9,11,13,-1,-1,-1,-1,-1,-1,-1,-1],"loss_changes":[2.2923481E0,5.771626E0,8.557475E0,4.247579E0,1.1988732E1,7.459301E0,6.685878E0,0E0,0E0,0E0,0E0,0E0,0E0,0E0,0E0],"parents":[2147483647,0,0,1,1,2,2,3,3,4,4,5,5,6,6],"right_children":[2,4,6,8,10,12,14,-1,-1,-1,-1,-1,-1,-1,-1],"split_conditions":[2.861595E-1,1.9514824E-1,3.8310714E-2,-2.766429E-2,-5.227139E-2,-1.8356718E-2,1.5840543E-2,-1.937427E-3,5.7696615E-4,1.3157013E-2,-4.0446664E-3,-8.079578E-3,3.299446E-3,1.7925778E-2,-9.70843E-3],"split_indices":[30,29,3,3,13,0,2,0,0,0,0,0,0,0,0],"split_type":[0,0,0,0,0,0,0,0,0,0,0,0,0,0,0],"sum_hessian":[6.3420195E4,5.385328E4,9.566913E3,4.6986516E4,6.8667686E3,8.527817E3,1.0390962E3,8.1227593E3,3.8863754E4,4.3239185E2,6.434377E3,6.2136127E2,7.906456E3,9.651663E1,9.425796E2],"tree_param":{"num_deleted":"0","num_feature":"31","num_nodes":"15","size_leaf_vector":"1"}},{"base_weights":[-6.079243E-7,-4.0510786E-3,7.4387332E-3,-3.2007114E-3,-2.62072E-1,1.946548E-1,4.910559E-3,-4.8564405E-5,-7.34761E-3,-5.3721495E-2,-1.4948162E-2,3.5209816E-2,7.9236145E-4,-3.3026026E-3,1.5635568E-3],"categories":[],"categories_nodes":[],"categories_segments":[],"categories_sizes":[],"default_left":[0,0,0,0,0,0,0,0,0,0,0,0,0,0,0],"id":75,"left_children":[1,3,5,7,9,11,13,-1,-1,-1,-1,-1,-1,-1,-1],"loss_changes":[1.9110107E0,9.009614E0,1.0581954E1,7.809075E0,4.178563E0,8.757806E0,8.975242E0,0E0,0E0,0E0,0E0,0E0,0E0,0E0,0E0],"parents":[2147483647,0,0,1,1,2,2,3,3,4,4,5,5,6,6],"right_children":[2,4,6,8,10,12,14,-1,-1,-1,-1,-1,-1,-1,-1],"split_conditions":[1.55739365E-2,5.581106E-2,-3.188282E-2,3.2706637E-2,2.7343718E-2,6.460561E-3,-3.6165554E-2,-4.8564405E-5,-7.34761E-3,-5.3721495E-2,-1.4948162E-2,3.5209816E-2,7.9236145E-4,-3.3026026E-3,1.5635568E-3],"split_indices":[6,7,8,2,18,2,21,0,0,0,0,0,0,0,0],"split_type":[0,0,0,0,0,0,0,0,0,0,0,0,0,0,0],"sum_hessian":[6.3419547E4,4.1062434E4,2.2357113E4,4.0927547E4,1.3488615E2,2.9788873E2,2.2059225E4,3.940514E4,1.5224052E3,3.916837E1,9.571779E1,1.6161893E2,1.3626982E2,4.86185E3,1.7197373E4],"tree_param":{"num_deleted":"0","num_feature":"31","num_nodes":"15","size_leaf_vector":"1"}},{"base_weights":[-5.155549E-7,3.9719422E-3,-7.29824E-3,2.6942529E-3,1.0863485E-1,-2.4424419E-2,1.7509542E-2,3.3297075E-4,-3.2564353E-2,-2.7409447E-3,1.734191E-2,-3.430682E-4,-9.261706E-3,3.064471E-2,1.3742232E-3],"categories":[],"categories_nodes":[],"categories_segments":[],"categories_sizes":[],"default_left":[0,0,0,0,0,0,0,0,0,0,0,0,0,0,0],"id":76,"left_children":[1,3,5,7,9,11,13,-1,-1,-1,-1,-1,-1,-1,-1],"loss_changes":[1.8385041E0,5.4915185E0,9.497178E0,8.464673E0,4.365027E0,1.8931955E1,9.937478E0,0E0,0E0,0E0,0E0,0E0,0E0,0E0,0E0],"parents":[2147483647,0,0,1,1,2,2,3,3,4,4,5,5,6,6],"right_children":[2,4,6,8,10,12,14,-1,-1,-1,-1,-1,-1,-1,-1],"split_conditions":[2.4539879E-2,6.88475E-2,1.2677468E-1,7.483602E-2,1.10609075E-2,7.8795336E-2,-1.19564846E-1,3.3297075E-4,-3.2564353E-2,-2.7409447E-3,1.734191E-2,-3.430682E-4,-9.261706E-3,3.064471E-2,1.3742232E-3],"split_indices":[15,11,25,13,3,23,28,0,0,0,0,0,0,0,0],"split_type":[0,0,0,0,0,0,0,0,0,0,0,0,0,0,0],"sum_hessian":[6.3418773E4,4.106524E4,2.2353533E4,4.0569977E4,4.9526453E2,1.3224165E4,9.129369E3,4.049161E4,7.836618E1,1.5976482E2,3.354997E2,1.0111306E4,3.1128591E3,1.175012E2,9.011868E3],"tree_param":{"num_deleted":"0","num_feature":"31","num_nodes":"15","size_leaf_vector":"1"}},{"base_weights":[-5.121804E-7,-1.7898446E-3,1.5980724E-2,-2.0196503E-4,-6.2677175E-2,-1.0556022E-1,2.4147272E-2,6.321494E-5,-5.8978964E-3,-8.565496E-5,-1.6662529E-2,-3.5781916E-2,-2.7994113E-3,4.9772393E-3,-2.463245E-3],"categories":[],"categories_nodes":[],"categories_segments":[],"categories_sizes":[],"default_left":[0,0,0,0,0,0,0,0,0,0,0,0,0,0,0],"id":77,"left_children":[1,3,5,7,9,11,13,-1,-1,-1,-1,-1,-1,-1,-1],"loss_changes":[1.8134936E0,5.5140176E0,6.3381925E0,2.725059E0,9.315013E0,7.866767E0,7.479407E0,0E0,0E0,0E0,0E0,0E0,0E0,0E0,0E0],"parents":[2147483647,0,0,1,1,2,2,3,3,4,4,5,5,6,6],"right_children":[2,4,6,8,10,12,14,-1,-1,-1,-1,-1,-1,-1,-1],"split_conditions":[4.7499523E-2,9.964149E-2,2.127229E-2,5.397538E-2,6.817474E-3,-9.738438E-3,8.541045E-2,6.321494E-5,-5.8978964E-3,-8.565496E-5,-1.6662529E-2,-3.5781916E-2,-2.7994113E-3,4.9772393E-3,-2.463245E-3],"split_indices":[5,12,4,3,0,2,17,0,0,0,0,0,0,0,0],"split_type":[0,0,0,0,0,0,0,0,0,0,0,0,0,0,0],"sum_hessian":[6.34183E4,5.7032664E4,6.385638E3,5.5583113E4,1.449551E3,4.0204782E2,5.9835903E3,5.480536E4,7.777522E2,9.089657E2,5.405854E2,9.4550995E1,3.0749683E2,3.9228342E3,2.060756E3],"tree_param":{"num_deleted":"0","num_feature":"31","num_nodes":"15","size_leaf_vector":"1"}},{"base_weights":[-5.8557913E-7,1.5959471E-2,-1.7884169E-3,-1.0999239E-2,3.9271943E-2,-4.531717E-2,9.6323795E-4,-2.911011E-3,1.452146E-2,1.1770848E-2,-5.466884E-4,-9.396109E-3,-8.7786475E-6,1.9448973E-3,-2.657184E-4],"categories":[],"categories_nodes":[],"categories_segments":[],"categories_sizes":[],"default_left":[0,0,0,0,0,0,0,0,0,0,0,0,0,0,0],"id":78,"left_children":[1,3,5,7,9,11,13,-1,-1,-1,-1,-1,-1,-1,-1],"loss_changes":[1.8095361E0,4.014889E0,6.8306847E0,8.381353E0,1.2021791E1,7.4600205E0,3.5897896E0,0E0,0E0,0E0,0E0,0E0,0E0,0E0,0E0],"parents":[2147483647,0,0,1,1,2,2,3,3,4,4,5,5,6,6],"right_children":[2,4,6,8,10,12,14,-1,-1,-1,-1,-1,-1,-1,-1],"split_conditions":[-2.1435975E-1,-2.1069555E-2,-1.6587204E-1,7.800928E-3,5.4725246E-3,-3.0546957E-3,-3.344272E-2,-2.911011E-3,1.452146E-2,1.1770848E-2,-5.466884E-4,-9.396109E-3,-8.7786475E-6,1.9448973E-3,-2.657184E-4],"split_indices":[27,6,28,3,4,1,9,0,0,0,0,0,0,0,0],"split_type":[0,0,0,0,0,0,0,0,0,0,0,0,0,0,0],"sum_hessian":[6.3417086E4,6.388312E3,5.7028773E4,2.9624795E3,3.4258325E3,3.3907112E3,5.3638062E4,2.654703E3,3.0777667E2,1.244305E3,2.1815276E3,1.633689E3,1.7570222E3,8.78454E3,4.4853523E4],