{"learner":{"attributes":{"scikit_learn":"{\"_estimator_type\": \"classifier\"}"},"feature_names":["R1","R2","R3","R4","R5","R6","R7","R8","R9","R10","R11","R12","R13","R14","R15","R16","R17","R18","R19","R20","R40","R60","R80","R100","R120","R140","R160","R180","R200","R220","R240"],"feature_types":["float","float","float","float","float","float","float","float","float","float","float","float","float","float","float","float","float","float","float","float","float","float","float","float","float","float","float","float","float","float","float"],"gradient_booster":{"model":{"cats":{"enc":[],"feature_segments":[],"sorted_idx":[]},"gbtree_model_param":{"num_parallel_tree":"1","num_trees":"100"},"iteration_indptr":[0,1,2,3,4,5,6,7,8,9,10,11,12,13,14,15,16,17,18,19,20,21,22,23,24,25,26,27,28,29,30,31,32,33,34,35,36,37,38,39,40,41,42,43,44,45,46,47,48,49,50,51,52,53,54,55,56,57,58,59,60,61,62,63,64,65,66,67,68,69,70,71,72,73,74,75,76,77,78,79,80,81,82,83,84,85,86,87,88,89,90,91,92,93,94,95,96,97,98,99,100],"tree_info":[0,0,0,0,0,0,0,0,0,0,0,0,0,0,0,0,0,0,0,0,0,0,0,0,0,0,0,0,0,0,0,0,0,0,0,0,0,0,0,0,0,0,0,0,0,0,0,0,0,0,0,0,0,0,0,0,0,0,0,0,0,0,0,0,0,0,0,0,0,0,0,0,0,0,0,0,0,0,0,0,0,0,0,0,0,0,0,0,0,0,0,0,0,0,0,0,0,0,0,0],"trees":[{"base_weights":[-4.5335437E-8,1.1739438E-2,-6.615682E-2,-4.0531997E-3,4.4438053E-2,-1.0768117E-1,-3.6932386E-2,-5.126168E-3,5.66301E-4,9.33976E-3,1.3734077E-3,-7.617852E-3,-2.2331389E-2,4.0924236E-2,-3.9168205E-3],"categories":[],"categories_nodes":[],"categories_segments":[],"categories_sizes":[],"default_left":[0,0,0,0,0,0,0,0,0,0,0,0,0,0,0],"id":0,"left_children":[1,3,5,7,9,11,13,-1,-1,-1,-1,-1,-1,-1,-1],"loss_changes":[4.9746666E1,2.8091982E1,1.1714451E1,1.6826012E1,2.6633095E1,1.4525398E1,5.6519556E0,0E0,0E0,0E0,0E0,0E0,0E0,0E0,0E0],"parents":[2147483647,0,0,1,1,2,2,3,3,4,4,5,5,6,6],"right_children":[2,4,6,8,10,12,14,-1,-1,-1,-1,-1,-1,-1,-1],"split_conditions":[5.1062737E-2,1.5674126E-1,8.8098414E-2,-1.0978849E-2,-2.4227453E-3,5.279145E-2,-2.4548946E-2,-5.126168E-3,5.66301E-4,9.33976E-3,1.3734077E-3,-7.617852E-3,-2.2331389E-2,4.0924236E-2,-3.9168205E-3],"split_indices":[11,26,23,0,9,4,8,0,0,0,0,0,0,0,0],"split_type":[0,0,0,0,0,0,0,0,0,0,0,0,0,0,0],"sum_hessian":[6.405317E4,5.4399934E4,9.653238E3,3.6682957E4,1.7716979E4,3.9874954E3,5.665743E3,6.2612427E3,3.0421713E4,6.8284917E3,1.0888487E4,3.1337463E3,8.5374896E2,2.8249966E1,5.637493E3],"tree_param":{"num_deleted":"0","num_feature":"31","num_nodes":"15","size_leaf_vector":"1"}},{"base_weights":[-4.7704902E-9,1.0565572E-2,-5.9542764E-2,-4.0012565E-3,4.0467672E-2,-9.553624E-2,-2.6374929E-2,-6.023006E-4,1.6626712E-2,8.995047E-3,2.2020538E-3,-7.530395E-3,-1.8843157E-2,-8.573304E-3,-3.6407672E-4],"categories":[],"categories_nodes":[],"categories_segments":[],"categories_sizes":[],"default_left":[0,0,0,0,0,0,0,0,0,0,0,0,0,0,0],"id":1,"left_children":[1,3,5,7,9,11,13,-1,-1,-1,-1,-1,-1,-1,-1],"loss_changes":[4.0295845E1,2.36954E1,1.1523979E1,1.259226E1,1.62663E1,8.7007065E0,6.7792416E0,0E0,0E0,0E0,0E0,0E0,0E0,0E0,0E0],"parents":[2147483647,0,0,1,1,2,2,3,3,4,4,5,5,6,6],"right_children":[2,4,6,8,10,12,14,-1,-1,-1,-1,-1,-1,-1,-1],"split_conditions":[5.1062737E-2,1.7859638E-1,1.21885106E-1,6.926911E-2,-1.2845477E-2,3.9926074E-2,6.255839E-2,-6.023006E-4,1.6626712E-2,8.995047E-3,2.2020538E-3,-7.530395E-3,-1.8843157E-2,-8.573304E-3,-3.6407672E-4],"split_indices":[11,27,24,13,10,2,16,0,0,0,0,0,0,0,0],"split_type":[0,0,0,0,0,0,0,0,0,0,0,0,0,0,0],"sum_hessian":[6.405279E4,5.4399805E4,9.652984E3,3.6579887E4,1.7819918E4,4.6293022E3,5.023682E3,3.6150637E4,4.2924905E2,4.839199E3,1.2980719E4,3.8013757E3,8.2792664E2,1.3912296E3,3.6324526E3],"tree_param":{"num_deleted":"0","num_feature":"31","num_nodes":"15","size_leaf_vector":"1"}},{"base_weights":[-4.8375927E-8,2.313601E-2,-2.3409788E-2,-3.2518085E-2,3.5950366E-2,-6.7026734E-2,-7.1900086E-3,8.324153E-3,-5.645217E-3,2.1177526E-3,9.267875E-3,-4.706854E-3,-1.54818585E-2,1.1620158E-3,-3.8853784E-3],"categories":[],"categories_nodes":[],"categories_segments":[],"categories_sizes":[],"default_left":[0,0,0,0,0,0,0,0,0,0,0,0,0,0,0],"id":2,"left_children":[1,3,5,7,9,11,13,-1,-1,-1,-1,-1,-1,-1,-1],"loss_changes":[3.469117E1,2.2974335E1,2.2523825E1,1.6704334E1,2.1944221E1,1.5121483E1,1.382244E1,0E0,0E0,0E0,0E0,0E0,0E0,0E0,0E0],"parents":[2147483647,0,0,1,1,2,2,3,3,4,4,5,5,6,6],"right_children":[2,4,6,8,10,12,14,-1,-1,-1,-1,-1,-1,-1,-1],"split_conditions":[6.030791E-3,-3.041428E-2,5.5619916E-3,-1.24690376E-1,2.9703903E-1,4.2711634E-2,6.029906E-3,8.324153E-3,-5.645217E-3,2.1177526E-3,9.267875E-3,-4.706854E-3,-1.54818585E-2,1.1620158E-3,-3.8853784E-3],"split_indices":[8,3,23,20,30,5,0,0,0,0,0,0,0,0,0],"split_type":[0,0,0,0,0,0,0,0,0,0,0,0,0,0,0],"sum_hessian":[6.4052047E4,3.221433E4,3.1837719E4,6.029139E3,2.6185191E4,8.630163E3,2.3207555E4,1.0329879E3,4.9961514E3,2.0775078E4,5.410112E3,7.0316255E3,1.5985376E3,1.4558775E4,8.648779E3],"tree_param":{"num_deleted":"0","num_feature":"31","num_nodes":"15","size_leaf_vector":"1"}},{"base_weights":[-4.25288E-8,2.1475174E-2,-2.5964938E-2,3.4581557E-2,-8.519819E-2,-6.411539E-2,-8.031E-3,1.9616003E-3,9.459385E-3,-1.958451E-2,-3.8060218E-3,-8.5977195E-3,3.188247E-4,1.1863619E-3,-5.9210616E-3],"categories":[],"categories_nodes":[],"categories_segments":[],"categories_sizes":[],"default_left":[0,0,0,0,0,0,0,0,0,0,0,0,0,0,0],"id":3,"left_children":[1,3,5,7,9,11,13,-1,-1,-1,-1,-1,-1,-1,-1],"loss_changes":[3.5715073E1,4.9012527E1,1.9837849E1,2.8039726E1,2.0006811E1,1.3641979E1,2.0082119E1,0E0,0E0,0E0,0E0,0E0,0E0,0E0,0E0],"parents":[2147483647,0,0,1,1,2,2,3,3,4,4,5,5,6,6],"right_children":[2,4,6,8,10,12,14,-1,-1,-1,-1,-1,-1,-1,-1],"split_conditions":[1.0457203E-2,1.2271016E-2,5.0589666E-3,2.9703903E-1,-4.0508933E-2,1.9276439E-1,3.8284924E-2,1.9616003E-3,9.459385E-3,-1.958451E-2,-3.8060218E-3,-8.5977195E-3,3.188247E-4,1.1863619E-3,-5.9210616E-3],"split_indices":[9,0,3,30,13,24,4,0,0,0,0,0,0,0,0],"split_type":[0,0,0,0,0,0,0,0,0,0,0,0,0,0,0],"sum_hessian":[6.4051223E4,3.505648E4,2.8994744E4,3.1220574E4,3.835904E3,9.2715625E3,1.9723182E4,2.4988957E4,6.2316167E3,1.14597E3,2.689934E3,6.998338E3,2.273224E3,1.4202401E4,5.52078E3],"tree_param":{"num_deleted":"0","num_feature":"31","num_nodes":"15","size_leaf_vector":"1"}},{"base_weights":[-7.27492E-8,8.714613E-3,-4.915633E-2,1.4384937E-2,-1.4083934E-1,-1.04947746E-1,-2.6634293E-2,5.5908214E-4,5.5285064E-3,-8.940189E-3,-2.8347885E-2,-7.1098246E-2,-9.837783E-3,1.0042803E-2,-4.010978E-3],"categories":[],"categories_nodes":[],"categories_segments":[],"categories_sizes":[],"default_left":[0,0,0,0,0,0,0,0,0,0,0,0,0,0,0],"id":4,"left_children":[1,3,5,7,9,11,13,-1,-1,-1,-1,-1,-1,-1,-1],"loss_changes":[2.7437862E1,4.613641E1,1.2119534E1,1.8853546E1,1.4581619E1,1.104434E1,1.1765304E1,0E0,0E0,0E0,0E0,0E0,0E0,0E0,0E0],"parents":[2147483647,0,0,1,1,2,2,3,3,4,4,5,5,6,6],"right_children":[2,4,6,8,10,12,14,-1,-1,-1,-1,-1,-1,-1,-1],"split_conditions":[4.8457067E-2,2.2110254E-2,6.496714E-2,2.971156E-1,1.8707424E-1,1.21423155E-2,2.673139E-2,5.5908214E-4,5.5285064E-3,-8.940189E-3,-2.8347885E-2,-7.1098246E-2,-9.837783E-3,1.0042803E-2,-4.010978E-3],"split_indices":[10,0,30,28,25,11,26,0,0,0,0,0,0,0,0],"split_type":[0,0,0,0,0,0,0,0,0,0,0,0,0,0,0],"sum_hessian":[6.405009E4,5.44049E4,9.645192E3,5.2417492E4,1.9874044E3,2.773845E3,6.8713477E3,4.314146E4,9.276034E3,1.4606699E3,5.267344E2,2.97483E1,2.7440967E3,6.588601E2,6.212488E3],"tree_param":{"num_deleted":"0","num_feature":"31","num_nodes":"15","size_leaf_vector":"1"}},{"base_weights":[-7.409988E-8,1.8496595E-2,-2.2364052E-2,2.4382016E-2,-1.615116E-1,-4.7534674E-2,-3.511693E-3,9.744025E-4,8.507463E-3,7.3856595E-3,-2.2109924E-2,-2.383309E-2,-4.2609395E-3,-5.1262E-3,1.3139521E-3],"categories":[],"categories_nodes":[],"categories_segments":[],"categories_sizes":[],"default_left":[0,0,0,0,0,0,0,0,0,0,0,0,0,0,0],"id":5,"left_children":[1,3,5,7,9,11,13,-1,-1,-1,-1,-1,-1,-1,-1],"loss_changes":[2.6494432E1,3.7138603E1,1.375815E1,3.0157888E1,1.5565847E1,1.1667757E1,1.3180654E1,0E0,0E0,0E0,0E0,0E0,0E0,0E0,0E0],"parents":[2147483647,0,0,1,1,2,2,3,3,4,4,5,5,6,6],"right_children":[2,4,6,8,10,12,14,-1,-1,-1,-1,-1,-1,-1,-1],"split_conditions":[1.0457203E-2,2.2110254E-2,1.4682414E-1,2.0960192E-1,-1.22764975E-1,-5.9906032E-2,1.1719714E-2,9.744025E-4,8.507463E-3,7.3856595E-3,-2.2109924E-2,-2.383309E-2,-4.2609395E-3,-5.1262E-3,1.3139521E-3],"split_indices":[9,0,30,26,28,16,6,0,0,0,0,0,0,0,0],"split_type":[0,0,0,0,0,0,0,0,0,0,0,0,0,0,0],"sum_hessian":[6.4048953E4,3.5055473E4,2.8993479E4,3.3945613E4,1.1098616E3,1.2416139E4,1.657734E4,2.7349414E4,6.5961978E3,2.2421672E2,8.8564484E2,3.124489E2,1.2103689E4,4.286123E3,1.2291218E4],"tree_param":{"num_deleted":"0","num_feature":"31","num_nodes":"15","size_leaf_vector":"1"}},{"base_weights":[-1.12980395E-7,1.1372158E-2,-4.5014687E-2,2.7248947E-2,-1.5435853E-2,-1.065983E-1,-2.52409E-2,1.2453956E-3,7.45351E-3,-5.300933E-3,1.0695859E-3,1.1598257E-3,-1.5943406E-2,3.1851918E-2,-2.793345E-3],"categories":[],"categories_nodes":[],"categories_segments":[],"categories_sizes":[],"default_left":[0,0,0,0,0,0,0,0,0,0,0,0,0,0,0],"id":6,"left_children":[1,3,5,7,9,11,13,-1,-1,-1,-1,-1,-1,-1,-1],"loss_changes":[3.278698E1,2.1762243E1,1.5729887E1,2.2465513E1,1.8673042E1,1.9606312E1,9.05019E0,0E0,0E0,0E0,0E0,0E0,0E0,0E0,0E0],"parents":[2147483647,0,0,1,1,2,2,3,3,4,4,5,5,6,6],"right_children":[2,4,6,8,10,12,14,-1,-1,-1,-1,-1,-1,-1,-1],"split_conditions":[9.70422E-3,1.7130652E-2,-1.4464444E-2,2.0608582E-1,1.4682414E-1,4.9612583E-3,-3.8118325E-2,1.2453956E-3,7.45351E-3,-5.300933E-3,1.0695859E-3,1.1598257E-3,-1.5943406E-2,3.1851918E-2,-2.793345E-3],"split_indices":[0,11,14,27,30,1,11,0,0,0,0,0,0,0,0],"split_type":[0,0,0,0,0,0,0,0,0,0,0,0,0,0,0],"sum_hessian":[6.4047332E4,5.113007E4,1.2917263E4,3.211203E4,1.9018043E4,3.1395198E3,9.777743E3,2.4459188E4,7.6528423E3,7.8011543E3,1.1216888E4,9.6986865E2,2.1696511E3,7.599034E1,9.701752E3],"tree_param":{"num_deleted":"0","num_feature":"31","num_nodes":"15","size_leaf_vector":"1"}},{"base_weights":[-1.2384993E-7,6.1934595E-3,-5.5385996E-2,1.2848366E-2,-6.387833E-2,-1.6101685E-1,-4.376415E-2,-3.091741E-4,3.368605E-3,-1.955652E-2,-4.2235204E-3,-1.305215E-2,-5.4938626E-2,3.5467758E-4,-6.482955E-3],"categories":[],"categories_nodes":[],"categories_segments":[],"categories_sizes":[],"default_left":[0,0,0,0,0,0,0,0,0,0,0,0,0,0,0],"id":7,"left_children":[1,3,5,7,9,11,13,-1,-1,-1,-1,-1,-1,-1,-1],"loss_changes":[2.1969994E1,2.6861933E1,7.907896E0,1.7473885E1,1.4239998E1,7.561817E0,5.7835464E0,0E0,0E0,0E0,0E0,0E0,0E0,0E0,0E0],"parents":[2147483647,0,0,1,1,2,2,3,3,4,4,5,5,6,6],"right_children":[2,4,6,8,10,12,14,-1,-1,-1,-1,-1,-1,-1,-1],"split_conditions":[6.353536E-2,1.5832722E-2,4.779203E-2,8.276734E-2,-3.158225E-2,8.299412E-2,-5.2646274E-4,-3.091741E-4,3.368605E-3,-1.955652E-2,-4.2235204E-3,-1.305215E-2,-5.4938626E-2,3.5467758E-4,-6.482955E-3],"split_indices":[11,0,14,24,7,18,0,0,0,0,0,0,0,0,0],"split_type":[0,0,0,0,0,0,0,0,0,0,0,0,0,0,0],"sum_hessian":[6.404555E4,5.7603934E4,6.44162E3,5.260764E4,4.9962896E3,6.384801E2,5.80314E3,2.9806613E4,2.280103E4,7.052456E2,4.291044E3,5.9199567E2,4.6484394E1,1.7878331E3,4.015307E3],"tree_param":{"num_deleted":"0","num_feature":"31","num_nodes":"15","size_leaf_vector":"1"}},{"base_weights":[-2.3807165E-7,1.8790906E-2,-1.5561851E-2,4.6046646E-3,8.0317E-2,-4.6772506E-2,-3.2434503E-3,-2.4209118E-3,3.964146E-3,2.9033512E-2,6.6595087E-3,-3.9700167E-3,-1.600325E-2,2.1020805E-3,-2.949342E-3],"categories":[],"categories_nodes":[],"categories_segments":[],"categories_sizes":[],"default_left":[0,0,0,0,0,0,0,0,0,0,0,0,0,0,0],"id":8,"left_children":[1,3,5,7,9,11,13,-1,-1,-1,-1,-1,-1,-1,-1],"loss_changes":[1.8727764E1,2.5321985E1,1.3468739E1,2.380063E1,1.56654625E1,7.941166E0,1.5998861E1,0E0,0E0,0E0,0E0,0E0,0E0,0E0,0E0],"parents":[2147483647,0,0,1,1,2,2,3,3,4,4,5,5,6,6],"right_children":[2,4,6,8,10,12,14,-1,-1,-1,-1,-1,-1,-1,-1],"split_conditions":[2.1928146E-3,2.0960192E-1,1.4466897E-2,-9.520951E-3,1.1703062E-1,4.7492858E-2,4.1919388E-2,-2.4209118E-3,3.964146E-3,2.9033512E-2,6.6595087E-3,-3.9700167E-3,-1.600325E-2,2.1020805E-3,-2.949342E-3],"split_indices":[9,26,14,4,25,19,11,0,0,0,0,0,0,0,0],"split_type":[0,0,0,0,0,0,0,0,0,0,0,0,0,0,0],"sum_hessian":[6.404394E4,2.9011559E4,3.5032383E4,2.3575654E4,5.4359043E3,9.913905E3,2.5118479E4,1.2936694E4,1.063896E4,3.333824E2,5.102522E3,9.331231E3,5.82674E2,1.3052942E4,1.2065537E4],"tree_param":{"num_deleted":"0","num_feature":"31","num_nodes":"15","size_leaf_vector":"1"}},{"base_weights":[-1.3692886E-7,6.211003E-3,-3.5039615E-2,8.688373E-3,-1.1097972E-1,-6.2462404E-2,-5.480264E-3,1.1993344E-3,-9.484048E-3,-1.8290797E-2,-7.0562924E-4,-3.2423441E-3,-1.2023885E-2,-3.6275398E-2,2.7285467E-4],"categories":[],"categories_nodes":[],"categories_segments":[],"categories_sizes":[],"default_left":[0,0,0,0,0,0,0,0,0,0,0,0,0,0,0],"id":9,"left_children":[1,3,5,7,9,11,13,-1,-1,-1,-1,-1,-1,-1,-1],"loss_changes":[1.393786E1,1.5793498E1,7.816538E0,1.8227974E1,8.418209E0,8.6816025E0,1.3610125E1,0E0,0E0,0E0,0E0,0E0,0E0,0E0,0E0],"parents":[2147483647,0,0,1,1,2,2,3,3,4,4,5,5,6,6],"right_children":[2,4,6,8,10,12,14,-1,-1,-1,-1,-1,-1,-1,-1],"split_conditions":[4.8457067E-2,4.7056813E-2,1.2441988E-1,2.2110254E-2,2.956301E-2,7.461512E-2,2.3688396E-2,1.1993344E-3,-9.484048E-3,-1.8290797E-2,-7.0562924E-4,-3.2423441E-3,-1.2023885E-2,-3.6275398E-2,2.7285467E-4],"split_indices":[10,3,23,0,17,20,12,0,0,0,0,0,0,0,0],"split_type":[0,0,0,0,0,0,0,0,0,0,0,0,0,0,0],"sum_hessian":[6.4042336E4,5.439943E4,9.642907E3,5.327325E4,1.1261772E3,5.002236E3,4.6406714E3,5.162521E4,1.6480417E3,6.655393E2,4.606379E2,3.291124E3,1.7111117E3,1.04230415E2,4.536441E3],"tree_param":{"num_deleted":"0","num_feature":"31","num_nodes":"15","size_leaf_vector":"1"}},{"base_weights":[-2.4155662E-7,1.6220776E-2,-1.3433387E-2,2.6418464E-2,-6.709819E-2,-4.8867933E-2,-3.1472694E-3,1.1165863E-3,6.682699E-3,-1.1506242E-2,7.91813E-5,-2.7507287E-3,-1.5504715E-2,-2.6670934E-3,1.6683426E-3],"categories":[],"categories_nodes":[],"categories_segments":[],"categories_sizes":[],"default_left":[0,0,0,0,0,0,0,0,0,0,0,0,0,0,0],"id":10,"left_children":[1,3,5,7,9,11,13,-1,-1,-1,-1,-1,-1,-1,-1],"loss_changes":[1.3954454E1,2.4648743E1,1.2768146E1,1.5930191E1,1.0301136E1,1.7874846E1,1.2665045E1,0E0,0E0,0E0,0E0,0E0,0E0,0E0,0E0],"parents":[2147483647,0,0,1,1,2,2,3,3,4,4,5,5,6,6],"right_children":[2,4,6,8,10,12,14,-1,-1,-1,-1,-1,-1,-1,-1],"split_conditions":[2.1928146E-3,1.2271016E-2,-1.3864868E-2,1.7859638E-1,-1.4919584E-2,4.667443E-2,1.2533995E-2,1.1165863E-3,6.682699E-3,-1.1506242E-2,7.91813E-5,-2.7507287E-3,-1.5504715E-2,-2.6670934E-3,1.6683426E-3],"split_indices":[9,0,23,27,15,6,4,0,0,0,0,0,0,0,0],"split_type":[0,0,0,0,0,0,0,0,0,0,0,0,0,0,0],"sum_hessian":[6.4040848E4,2.9010092E4,3.5030758E4,2.5846635E4,3.1634565E3,7.881129E3,2.7149627E4,1.8763982E4,7.082653E3,1.85377E3,1.3096865E3,6.5611807E3,1.3199484E3,1.2418497E4,1.473113E4],"tree_param":{"num_deleted":"0","num_feature":"31","num_nodes":"15","size_leaf_vector":"1"}},{"base_weights":[-2.7738898E-7,3.7613178E-3,-7.150713E-2,-5.2760416E-3,2.293008E-2,-1.1627519E-1,-1.0752756E-2,8.3878916E-4,-2.6435086E-3,-1.6954348E-3,3.8994707E-3,-6.7579E-3,-1.8804211E-2,-8.45286E-2,2.353889E-4],"categories":[],"categories_nodes":[],"categories_segments":[],"categories_sizes":[],"default_left":[0,0,0,0,0,0,0,0,0,0,0,0,0,0,0],"id":11,"left_children":[1,3,5,7,9,11,13,-1,-1,-1,-1,-1,-1,-1,-1],"loss_changes":[1.7225075E1,1.05393E1,8.70455E0,1.1953596E1,1.2489591E1,6.4395046E0,1.4851117E1,0E0,0E0,0E0,0E0,0E0,0E0,0E0,0E0],"parents":[2147483647,0,0,1,1,2,2,3,3,4,4,5,5,6,6],"right_children":[2,4,6,8,10,12,14,-1,-1,-1,-1,-1,-1,-1,-1],"split_conditions":[4.7056813E-2,8.926398E-3,8.038864E-2,6.6307303E-3,-1.4834212E-3,4.5886207E-2,1.6077265E-2,8.3878916E-4,-2.6435086E-3,-1.6954348E-3,3.8994707E-3,-6.7579E-3,-1.8804211E-2,-8.45286E-2,2.353889E-4],"split_indices":[3,2,17,10,19,13,10,0,0,0,0,0,0,0,0],"split_type":[0,0,0,0,0,0,0,0,0,0,0,0,0,0,0],"sum_hessian":[6.4038535E4,6.0838164E4,3.2003723E3,4.1345363E4,1.9492803E4,1.8426093E3,1.357763E3,2.5122158E4,1.6223203E4,5.59696E3,1.3895844E4,1.0977501E3,7.4485913E2,2.0994432E1,1.3367686E3],"tree_param":{"num_deleted":"0","num_feature":"31","num_nodes":"15","size_leaf_vector":"1"}},{"base_weights":[-3.5227404E-7,5.6184478E-2,-2.959845E-3,3.4946658E-2,2.0547011E-1,-2.0397108E-2,1.2638591E-2,8.925399E-3,-8.610112E-3,1.1137377E-2,3.0858904E-2,-6.0180253E-3,-8.297748E-4,4.312902E-3,-8.676035E-4],"categories":[],"categories_nodes":[],"categories_segments":[],"categories_sizes":[],"default_left":[0,0,0,0,0,0,0,0,0,0,0,0,0,0,0],"id":12,"left_children":[1,3,5,7,9,11,13,-1,-1,-1,-1,-1,-1,-1,-1],"loss_changes":[1.0648107E1,1.0159404E1,1.6546322E1,1.8441208E1,3.8723717E0,1.3826144E1,2.0867874E1,0E0,0E0,0E0,0E0,0E0,0E0,0E0,0E0],"parents":[2147483647,0,0,1,1,2,2,3,3,4,4,5,5,6,6],"right_children":[2,4,6,8,10,12,14,-1,-1,-1,-1,-1,-1,-1,-1],"split_conditions":[-1.24690376E-1,1.4682414E-1,4.4403747E-2,-2.6451878E-3,-6.3409647E-3,-1.1826033E-2,-5.2646274E-4,8.925399E-3,-8.610112E-3,1.1137377E-2,3.0858904E-2,-6.0180253E-3,-8.297748E-4,4.312902E-3,-8.676035E-4],"split_indices":[20,30,22,5,1,1,0,0,0,0,0,0,0,0,0],"split_type":[0,0,0,0,0,0,0,0,0,0,0,0,0,0,0],"sum_hessian":[6.403775E4,3.2043523E3,6.08334E4,2.8052666E3,3.9908557E2,2.872365E4,3.210975E4,1.936478E3,8.687887E2,2.0867183E2,1.9041374E2,6.698555E3,2.2025096E4,1.3211206E4,1.8898543E4],"tree_param":{"num_deleted":"0","num_feature":"31","num_nodes":"15","size_leaf_vector":"1"}},{"base_weights":[-3.0093722E-7,8.139742E-3,-3.22259E-2,1.8857617E-2,-1.47348875E-2,-9.191923E-2,-1.5995983E-2,2.4987618E-4,4.1519105E-3,-4.6812217E-3,1.5607582E-3,1.5486881E-2,-1.3049628E-2,-1.650348E-2,-1.0432053E-3],"categories":[],"categories_nodes":[],"categories_segments":[],"categories_sizes":[],"default_left":[0,0,0,0,0,0,0,0,0,0,0,0,0,0,0],"id":13,"left_children":[1,3,5,7,9,11,13,-1,-1,-1,-1,-1,-1,-1,-1],"loss_changes":[1.679803E1,1.2533793E1,1.2510874E1,1.2905441E1,1.5875784E1,2.6280895E1,8.419333E0,0E0,0E0,0E0,0E0,0E0,0E0,0E0,0E0],"parents":[2147483647,0,0,1,1,2,2,3,3,4,4,5,5,6,6],"right_children":[2,4,6,8,10,12,14,-1,-1,-1,-1,-1,-1,-1,-1],"split_conditions":[9.70422E-3,2.1096153E-2,-2.514509E-2,-2.607871E-3,1.0757368E-2,-2.2115745E-1,-1.829777E-1,2.4987618E-4,4.1519105E-3,-4.6812217E-3,1.5607582E-3,1.5486881E-2,-1.3049628E-2,-1.650348E-2,-1.0432053E-3],"split_indices":[0,10,19,4,3,30,24,0,0,0,0,0,0,0,0],"split_type":[0,0,0,0,0,0,0,0,0,0,0,0,0,0,0],"sum_hessian":[6.403696E4,5.1123414E4,1.2913547E4,3.4812207E4,1.6311208E4,2.7604954E3,1.0153052E4,2.0217566E4,1.4594639E4,7.928932E3,8.382276E3,3.7317725E2,2.387318E3,3.6539377E2,9.787658E3],"tree_param":{"num_deleted":"0","num_feature":"31","num_nodes":"15","size_leaf_vector":"1"}},{"base_weights":[-3.6903182E-7,3.3400976E-3,-6.351488E-2,5.6399792E-2,5.0732575E-4,-3.3514383E-1,-5.1443256E-2,9.4153015E-3,-3.2398158E-3,-5.571612E-3,6.2990596E-4,-6.597595E-2,-2.108613E-2,-9.239903E-3,4.4515386E-4],"categories":[],"categories_nodes":[],"categories_segments":[],"categories_sizes":[],"default_left":[0,0,0,0,0,0,0,0,0,0,0,0,0,0,0],"id":14,"left_children":[1,3,5,7,9,11,13,-1,-1,-1,-1,-1,-1,-1,-1],"loss_changes":[1.3586284E1,9.143997E0,1.0491457E1,1.0336537E1,1.8806038E1,5.4926147E0,7.0128775E0,0E0,0E0,0E0,0E0,0E0,0E0,0E0,0E0],"parents":[2147483647,0,0,1,1,2,2,3,3,4,4,5,5,6,6],"right_children":[2,4,6,8,10,12,14,-1,-1,-1,-1,-1,-1,-1,-1],"split_conditions":[4.7056813E-2,-1.24690376E-1,8.926398E-3,-6.4816163E-3,-3.041428E-2,-3.015551E-3,8.038864E-2,9.4153015E-3,-3.2398158E-3,-5.571612E-3,6.2990596E-4,-6.597595E-2,-2.108613E-2,-9.239903E-3,4.4515386E-4],"split_indices":[3,20,2,6,3,28,17,0,0,0,0,0,0,0,0],"split_type":[0,0,0,0,0,0,0,0,0,0,0,0,0,0,0],"sum_hessian":[6.403547E4,6.083588E4,3.1995872E3,3.0833167E3,5.7752562E4,1.3614432E2,3.0634429E3,2.16349E3,9.1982666E2,5.3936387E3,5.2358926E4,3.7693104E1,9.845122E1,1.7679867E3,1.2954562E3],"tree_param":{"num_deleted":"0","num_feature":"31","num_nodes":"15","size_leaf_vector":"1"}},{"base_weights":[-4.2862376E-7,9.482237E-3,-2.1953506E-2,-2.2430161E-2,2.0177586E-2,1.7670212E-2,-3.4998145E-2,4.3382174E-3,-3.3894554E-3,4.1729687E-3,-1.3974476E-4,7.0752745E-4,2.477509E-2,-1.0419773E-2,-1.7912484E-3],"categories":[],"categories_nodes":[],"categories_segments":[],"categories_sizes":[],"default_left":[0,0,0,0,0,0,0,0,0,0,0,0,0,0,0],"id":15,"left_children":[1,3,5,7,9,11,13,-1,-1,-1,-1,-1,-1,-1,-1],"loss_changes":[1.3330317E1,1.5263031E1,9.984093E0,8.469368E0,1.557393E1,1.1662243E1,1.7181538E1,0E0,0E0,0E0,0E0,0E0,0E0,0E0,0E0],"parents":[2147483647,0,0,1,1,2,2,3,3,4,4,5,5,6,6],"right_children":[2,4,6,8,10,12,14,-1,-1,-1,-1,-1,-1,-1,-1],"split_conditions":[6.029906E-3,4.783907E-3,-2.8982395E-2,-1.24690376E-1,7.3208953E-3,1.851569E-1,-1.4919584E-2,4.3382174E-3,-3.3894554E-3,4.1729687E-3,-1.3974476E-4,7.0752745E-4,2.477509E-2,-1.0419773E-2,-1.7912484E-3],"split_indices":[0,30,25,20,11,29,15,0,0,0,0,0,0,0,0],"split_type":[0,0,0,0,0,0,0,0,0,0,0,0,0,0,0],"sum_hessian":[6.403459E4,4.4718406E4,1.9316184E4,1.1225165E4,3.3493242E4,4.784136E3,1.4532047E4,1.6653098E3,9.559855E3,1.6755527E4,1.6737715E4,4.573531E3,2.1060559E2,2.8775442E3,1.1654503E4],"tree_param":{"num_deleted":"0","num_feature":"31","num_nodes":"15","size_leaf_vector":"1"}},{"base_weights":[-3.988688E-7,-7.962674E-3,1.8472552E-2,-4.135317E-2,-1.4275316E-3,1.513201E-1,1.1240746E-2,-5.8184233E-3,6.396348E-3,1.3503779E-3,-3.0862025E-3,2.1490116E-2,-7.5352206E-3,3.0143386E-2,8.555351E-4],"categories":[],"categories_nodes":[],"categories_segments":[],"categories_sizes":[],"default_left":[0,0,0,0,0,0,0,0,0,0,0,0,0,0,0],"id":16,"left_children":[1,3,5,7,9,11,13,-1,-1,-1,-1,-1,-1,-1,-1],"loss_changes":[9.418415E0,9.764175E0,1.8529293E1,1.298283E1,1.6446865E1,1.4350187E1,1.4253884E1,0E0,0E0,0E0,0E0,0E0,0E0,0E0,0E0],"parents":[2147483647,0,0,1,1,2,2,3,3,4,4,5,5,6,6],"right_children":[2,4,6,8,10,12,14,-1,-1,-1,-1,-1,-1,-1,-1],"split_conditions":[2.5943118E-1,-1.9326702E-2,-6.1571654E-2,8.9880645E-2,9.106158E-3,-2.7972769E-2,4.9576033E-2,-5.8184233E-3,6.396348E-3,1.3503779E-3,-3.0862025E-3,2.1490116E-2,-7.5352206E-3,3.0143386E-2,8.555351E-4],"split_indices":[30,2,17,22,1,11,28,0,0,0,0,0,0,0,0],"split_type":[0,0,0,0,0,0,0,0,0,0,0,0,0,0,0],"sum_hessian":[6.4033082E4,4.4746355E4,1.9286729E4,7.324211E3,3.7422145E4,9.9570624E2,1.8291021E4,6.3149883E3,1.0092228E3,2.4827723E4,1.2594422E4,7.7759314E2,2.1811307E2,1.6770985E2,1.8123312E4],"tree_param":{"num_deleted":"0","num_feature":"31","num_nodes":"15","size_leaf_vector":"1"}},{"base_weights":[-3.2286977E-7,1.3003778E-2,-1.0768663E-2,1.744626E-2,-1.1998628E-1,-1.3074061E-1,-8.044372E-3,-4.176062E-4,4.7453158E-3,1.1284142E-2,-1.5633356E-2,-4.7046762E-2,-8.320611E-3,2.0257464E-2,-9.295105E-4],"categories":[],"categories_nodes":[],"categories_segments":[],"categories_sizes":[],"default_left":[0,0,0,0,0,0,0,0,0,0,0,0,0,0,0],"id":17,"left_children":[1,3,5,7,9,11,13,-1,-1,-1,-1,-1,-1,-1,-1],"loss_changes":[8.966563E0,1.7136292E1,1.1448189E1,1.8210629E1,7.9344063E0,1.2559283E1,9.022239E0,0E0,0E0,0E0,0E0,0E0,0E0,0E0,0E0],"parents":[2147483647,0,0,1,1,2,2,3,3,4,4,5,5,6,6],"right_children":[2,4,6,8,10,12,14,-1,-1,-1,-1,-1,-1,-1,-1],"split_conditions":[2.1928146E-3,2.2110254E-2,-4.2016722E-2,-5.454301E-3,-1.829777E-1,-1.8585926E-2,-2.7972769E-2,-4.176062E-4,4.7453158E-3,1.1284142E-2,-1.5633356E-2,-4.7046762E-2,-8.320611E-3,2.0257464E-2,-9.295105E-4],"split_indices":[9,0,14,3,24,4,11,0,0,0,0,0,0,0,0],"split_type":[0,0,0,0,0,0,0,0,0,0,0,0,0,0,0],"sum_hessian":[6.403198E4,2.9004938E4,3.5027043E4,2.806736E4,9.375795E2,7.7772455E2,3.424932E4,1.6312746E4,1.1754613E4,1.2660334E2,8.109762E2,9.5461975E1,6.822626E2,2.0218448E2,3.4047133E4],"tree_param":{"num_deleted":"0","num_feature":"31","num_nodes":"15","size_leaf_vector":"1"}},{"base_weights":[-3.7325322E-7,-9.231589E-3,1.3731243E-2,-5.500425E-3,-9.5269985E-2,9.3379706E-2,7.575379E-3,-1.4321427E-4,-8.280082E-3,-1.342226E-2,1.0195547E-3,2.3249999E-2,4.6336614E-3,1.7307887E-3,-2.6041586E-3],"categories":[],"categories_nodes":[],"categories_segments":[],"categories_sizes":[],"default_left":[0,0,0,0,0,0,0,0,0,0,0,0,0,0,0],"id":18,"left_children":[1,3,5,7,9,11,13,-1,-1,-1,-1,-1,-1,-1,-1],"loss_changes":[8.116463E0,1.2291902E1,1.2620779E1,1.1540868E1,6.538001E0,1.208609E1,7.8175592E0,0E0,0E0,0E0,0E0,0E0,0E0,0E0,0E0],"parents":[2147483647,0,0,1,1,2,2,3,3,4,4,5,5,6,6],"right_children":[2,4,6,8,10,12,14,-1,-1,-1,-1,-1,-1,-1,-1],"split_conditions":[7.4592285E-2,3.9926074E-2,-3.3463266E-2,2.1652539E-1,1.7008506E-1,-5.047141E-2,1.2929273E-1,-1.4321427E-4,-8.280082E-3,-1.342226E-2,1.0195547E-3,2.3249999E-2,4.6336614E-3,1.7307887E-3,-2.6041586E-3],"split_indices":[22,2,8,25,28,4,20,0,0,0,0,0,0,0,0],"split_type":[0,0,0,0,0,0,0,0,0,0,0,0,0,0,0],"sum_hessian":[6.4030406E4,3.8289742E4,2.5740662E4,3.6698277E4,1.5914673E3,1.8467135E3,2.3893947E4,3.486343E4,1.8348457E3,1.162215E3,4.292523E2,4.6666064E2,1.3800529E3,1.8529453E4,5.364495E3],"tree_param":{"num_deleted":"0","num_feature":"31","num_nodes":"15","size_leaf_vector":"1"}},{"base_weights":[-3.4308445E-7,2.6918112E-3,-5.1208287E-2,-6.166965E-3,2.1481302E-2,-1.17416635E-1,6.50958E-3,4.1710306E-3,-1.2615788E-3,3.2944921E-3,-6.195962E-3,-4.32507E-3,-1.8110832E-2,-2.2253498E-2,3.4449704E-3],"categories":[],"categories_nodes":[],"categories_segments":[],"categories_sizes":[],"default_left":[0,0,0,0,0,0,0,0,0,0,0,0,0,0,0],"id":19,"left_children":[1,3,5,7,9,11,13,-1,-1,-1,-1,-1,-1,-1,-1],"loss_changes":[8.827077E0,1.0125491E1,1.2221179E1,1.2763927E1,1.8643787E1,7.0359726E0,1.0934222E1,0E0,0E0,0E0,0E0,0E0,0E0,0E0,0E0],"parents":[2147483647,0,0,1,1,2,2,3,3,4,4,5,5,6,6],"right_children":[2,4,6,8,10,12,14,-1,-1,-1,-1,-1,-1,-1,-1],"split_conditions":[4.7056813E-2,8.926398E-3,8.8098414E-2,-8.762133E-2,1.6691609E-1,3.9135583E-2,1.6077265E-2,4.1710306E-3,-1.2615788E-3,3.2944921E-3,-6.195962E-3,-4.32507E-3,-1.8110832E-2,-2.2253498E-2,3.4449704E-3],"split_indices":[3,2,23,20,21,19,10,0,0,0,0,0,0,0,0],"split_type":[0,0,0,0,0,0,0,0,0,0,0,0,0,0,0],"sum_hessian":[6.4029426E4,6.0831344E4,3.198085E3,4.1340383E4,1.9490959E4,1.4894883E3,1.7085967E3,4.9073438E3,3.643304E4,1.7136625E4,2.3543337E3,6.8815936E2,8.01329E2,1.8576361E2,1.5228331E3],"tree_param":{"num_deleted":"0","num_feature":"31","num_nodes":"15","size_leaf_vector":"1"}},{"base_weights":[-4.4292867E-7,4.102239E-3,-3.6701497E-2,-8.205714E-3,2.0879844E-2,-1.0573035E-1,-2.3362292E-2,-1.7696461E-3,1.970407E-3,1.1240151E-2,1.3732456E-3,2.0929616E-2,-1.2885341E-2,2.1698647E-3,-4.780063E-3],"categories":[],"categories_nodes":[],"categories_segments":[],"categories_sizes":[],"default_left":[0,0,0,0,0,0,0,0,0,0,0,0,0,0,0],"id":20,"left_children":[1,3,5,7,9,11,13,-1,-1,-1,-1,-1,-1,-1,-1],"loss_changes":[9.640981E0,1.1892391E1,5.9279346E0,8.7996E0,1.5941646E1,7.5946236E0,5.941368E0,0E0,0E0,0E0,0E0,0E0,0E0,0E0,0E0],"parents":[2147483647,0,0,1,1,2,2,3,3,4,4,5,5,6,6],"right_children":[2,4,6,8,10,12,14,-1,-1,-1,-1,-1,-1,-1,-1],"split_conditions":[6.353536E-2,4.5973152E-2,5.77895E-2,1.7215906E-2,-3.4389522E-2,-8.762133E-2,4.9612583E-3,-1.7696461E-3,1.970407E-3,1.1240151E-2,1.3732456E-3,2.0929616E-2,-1.2885341E-2,2.1698647E-3,-4.780063E-3],"split_indices":[11,21,14,18,18,20,1,0,0,0,0,0,0,0,0],"split_type":[0,0,0,0,0,0,0,0,0,0,0,0,0,0,0],"sum_hessian":[6.4028723E4,5.7590848E4,6.4378784E3,3.3220492E4,2.4370355E4,1.0425907E3,5.3952876E3,2.4790469E4,8.430021E3,1.76534E3,2.2605016E4,7.129358E1,9.712972E2,1.8971686E3,3.498119E3],"tree_param":{"num_deleted":"0","num_feature":"31","num_nodes":"15","size_leaf_vector":"1"}},{"base_weights":[-4.453504E-7,6.051743E-3,-2.3964822E-2,-6.61865E-3,2.6143067E-2,-6.943478E-2,-4.8275925E-3,1.2999498E-3,-4.6784566E-3,3.56315E-3,-2.7405827E-3,8.04777E-3,-8.982255E-3,-1.911248E-2,6.023092E-5],"categories":[],"categories_nodes":[],"categories_segments":[],"categories_sizes":[],"default_left":[0,0,0,0,0,0,0,0,0,0,0,0,0,0,0],"id":21,"left_children":[1,3,5,7,9,11,13,-1,-1,-1,-1,-1,-1,-1,-1],"loss_changes":[9.286384E0,1.3012833E1,1.1233706E1,2.4701923E1,1.0044811E1,1.1687599E1,9.190975E0,0E0,0E0,0E0,0E0,0E0,0E0,0E0,0E0],"parents":[2147483647,0,0,1,1,2,2,3,3,4,4,5,5,6,6],"right_children":[2,4,6,8,10,12,14,-1,-1,-1,-1,-1,-1,-1,-1],"split_conditions":[9.70422E-3,5.0589666E-3,-8.470938E-3,6.6307303E-3,6.353536E-2,-1.9074826E-1,-3.158225E-2,1.2999498E-3,-4.6784566E-3,3.56315E-3,-2.7405827E-3,8.04777E-3,-8.982255E-3,-1.911248E-2,6.023092E-5],"split_indices":[0,3,18,10,11,25,7,0,0,0,0,0,0,0,0],"split_type":[0,0,0,0,0,0,0,0,0,0,0,0,0,0,0],"sum_hessian":[6.4027723E4,5.111792E4,1.29098E4,3.1348379E4,1.9769545E4,3.823999E3,9.085801E3,2.1061404E4,1.0286975E4,1.6793814E4,2.9757297E3,4.5779642E2,3.3662026E3,2.5731888E2,8.828482E3],"tree_param":{"num_deleted":"0","num_feature":"31","num_nodes":"15","size_leaf_vector":"1"}},{"base_weights":[-4.7214291E-7,-3.3104762E-2,3.7146988E-3,3.922811E-3,-9.489229E-2,4.3979775E-2,-2.0941475E-3,-1.8065565E-3,1.5392333E-2,-1.3360965E-2,7.08266E-4,1.6254349E-2,3.749104E-3,-1.8039551E-3,6.344195E-4],"categories":[],"categories_nodes":[],"categories_segments":[],"categories_sizes":[],"default_left":[0,0,0,0,0,0,0,0,0,0,0,0,0,0,0],"id":22,"left_children":[1,3,5,7,9,11,13,-1,-1,-1,-1,-1,-1,-1,-1],"loss_changes":[7.8744206E0,1.4780291E1,1.3464206E1,1.3323559E1,9.5577965E0,5.5835314E0,6.7690597E0,0E0,0E0,0E0,0E0,0E0,0E0,0E0,0E0],"parents":[2147483647,0,0,1,1,2,2,3,3,4,4,5,5,6,6],"right_children":[2,4,6,8,10,12,14,-1,-1,-1,-1,-1,-1,-1,-1],"split_conditions":[-3.041428E-2,-3.4853656E-2,-2.0297224E-2,7.18115E-2,1.7893068E-2,-3.1165356E-2,-2.220446E-16,-1.8065565E-3,1.5392333E-2,-1.3360965E-2,7.08266E-4,1.6254349E-2,3.749104E-3,-1.8039551E-3,6.344195E-4],"split_indices":[3,9,5,21,19,1,2,0,0,0,0,0,0,0,0],"split_type":[0,0,0,0,0,0,0,0,0,0,0,0,0,0,0],"sum_hessian":[6.4025867E4,6.460362E3,5.7565508E4,4.0395627E3,2.420799E3,7.257667E3,5.030784E4,3.523114E3,5.1644855E2,1.7546155E3,6.661838E2,3.7658658E2,6.88108E3,1.7409744E4,3.2898094E4],"tree_param":{"num_deleted":"0","num_feature":"31","num_nodes":"15","size_leaf_vector":"1"}},{"base_weights":[-4.049839E-7,3.4808593E-3,-3.1145925E-2,-7.364732E-3,1.8265275E-2,-5.380103E-2,5.8318027E-3,-5.320375E-5,-4.2283395E-3,5.654298E-3,2.8670633E-5,-3.546816E-3,-1.3099441E-2,-3.649082E-3,5.0038667E-3],"categories":[],"categories_nodes":[],"categories_segments":[],"categories_sizes":[],"default_left":[0,0,0,0,0,0,0,0,0,0,0,0,0,0,0],"id":23,"left_children":[1,3,5,7,9,11,13,-1,-1,-1,-1,-1,-1,-1,-1],"loss_changes":[6.942008E0,9.234076E0,5.392421E0,7.925761E0,1.6770327E1,5.6486225E0,4.575308E0,0E0,0E0,0E0,0E0,0E0,0E0,0E0,0E0],"parents":[2147483647,0,0,1,1,2,2,3,3,4,4,5,5,6,6],"right_children":[2,4,6,8,10,12,14,-1,-1,-1,-1,-1,-1,-1,-1],"split_conditions":[6.353536E-2,4.5973152E-2,1.04843386E-1,1.3778563E-1,-2.9752185E-3,1.6691609E-1,2.3642172E-1,-5.320375E-5,-4.2283395E-3,5.654298E-3,2.8670633E-5,-3.546816E-3,-1.3099441E-2,-3.649082E-3,5.0038667E-3],"split_indices":[11,21,16,25,0,21,27,0,0,0,0,0,0,0,0],"split_type":[0,0,0,0,0,0,0,0,0,0,0,0,0,0,0],"sum_hessian":[6.4025438E4,5.758853E4,6.4369097E3,3.3219375E4,2.4369156E4,3.9914636E3,2.445446E3,2.7782955E4,5.4364185E3,7.787977E3,1.658118E4,3.225444E3,7.660196E2,1.2493486E3,1.1960973E3],"tree_param":{"num_deleted":"0","num_feature":"31","num_nodes":"15","size_leaf_vector":"1"}},{"base_weights":[-3.7628794E-7,-6.3332403E-3,1.8865163E-2,1.6399089E-3,-2.6055902E-2,9.2815615E-2,6.8769385E-3,-2.668324E-3,1.3731001E-3,-1.1024042E-2,-1.854379E-3,8.655722E-3,9.137505E-2,3.8561426E-2,4.4419337E-4],"categories":[],"categories_nodes":[],"categories_segments":[],"categories_sizes":[],"default_left":[0,0,0,0,0,0,0,0,0,0,0,0,0,0,0],"id":24,"left_children":[1,3,5,7,9,11,13,-1,-1,-1,-1,-1,-1,-1,-1],"loss_changes":[7.649178E0,7.5376678E0,1.4264886E1,1.1689611E1,8.726734E0,1.1532154E1,1.2769169E1,0E0,0E0,0E0,0E0,0E0,0E0,0E0,0E0],"parents":[2147483647,0,0,1,1,2,2,3,3,4,4,5,5,6,6],"right_children":[2,4,6,8,10,12,14,-1,-1,-1,-1,-1,-1,-1,-1],"split_conditions":[2.9703903E-1,9.106158E-3,-2.4548946E-2,-1.1826033E-2,-6.438878E-2,5.1062737E-2,4.9576033E-2,-2.668324E-3,1.3731001E-3,-1.1024042E-2,-1.854379E-3,8.655722E-3,9.137505E-2,3.8561426E-2,4.4419337E-4],"split_indices":[30,1,8,1,19,11,28,0,0,0,0,0,0,0,0],"split_type":[0,0,0,0,0,0,0,0,0,0,0,0,0,0,0],"sum_hessian":[6.402438E4,4.793377E4,1.609061E4,3.4134457E4,1.3799311E4,2.2445986E3,1.3846012E4,1.0212313E4,2.3922145E4,1.1304886E3,1.2668821E4,2.2276165E3,1.6982233E1,8.84511E1,1.3757561E4],"tree_param":{"num_deleted":"0","num_feature":"31","num_nodes":"15","size_leaf_vector":"1"}},{"base_weights":[-2.7944768E-7,4.4387665E-2,-2.338071E-3,2.688838E-2,2.6556632E-1,-2.9899862E-2,2.2347195E-3,7.427721E-3,-7.935978E-3,2.1073883E-2,5.9836622E-2,-5.6039677E-3,5.2463724E-3,3.2923333E-3,-7.2420685E-4],"categories":[],"categories_nodes":[],"categories_segments":[],"categories_sizes":[],"default_left":[0,0,0,0,0,0,0,0,0,0,0,0,0,0,0],"id":25,"left_children":[1,3,5,7,9,11,13,-1,-1,-1,-1,-1,-1,-1,-1],"loss_changes":[6.643651E0,1.239793E1,7.6653795E0,1.494562E1,4.28524E0,1.8633366E1,1.5171139E1,0E0,0E0,0E0,0E0,0E0,0E0,0E0,0E0],"parents":[2147483647,0,0,1,1,2,2,3,3,4,4,5,5,6,6],"right_children":[2,4,6,8,10,12,14,-1,-1,-1,-1,-1,-1,-1,-1],"split_conditions":[-1.24690376E-1,2.1197091E-1,-1.0978849E-2,-2.6451878E-3,2.2341551E-2,1.8707424E-1,-2.9752185E-3,7.427721E-3,-7.935978E-3,2.1073883E-2,5.9836622E-2,-5.6039677E-3,5.2463724E-3,3.2923333E-3,-7.2420685E-4],"split_indices":[20,29,0,5,5,25,0,0,0,0,0,0,0,0,0],"split_type":[0,0,0,0,0,0,0,0,0,0,0,0,0,0,0],"sum_hessian":[6.4023E4,3.2032117E3,6.081979E4,2.9683599E3,2.3485168E2,8.65473E3,5.216506E4,2.052779E3,9.15581E2,2.0163338E2,3.321831E1,6.5696987E3,2.085032E3,1.2308035E4,3.9857023E4],"tree_param":{"num_deleted":"0","num_feature":"31","num_nodes":"15","size_leaf_vector":"1"}},{"base_weights":[-2.1652315E-7,6.763156E-3,-1.5659157E-2,-1.3967582E-3,5.39974E-2,1.2959369E-1,-2.0796783E-2,9.732864E-5,-1.5860893E-2,8.996899E-3,9.836507E-4,8.353724E-3,4.232827E-2,-8.2712835E-3,-1.298205E-3],"categories":[],"categories_nodes":[],"categories_segments":[],"categories_sizes":[],"default_left":[0,0,0,0,0,0,0,0,0,0,0,0,0,0,0],"id":26,"left_children":[1,3,5,7,9,11,13,-1,-1,-1,-1,-1,-1,-1,-1],"loss_changes":[6.7803683E0,1.7232655E1,1.441112E1,1.4205132E1,1.04623375E1,8.92341E0,9.024691E0,0E0,0E0,0E0,0E0,0E0,0E0,0E0,0E0],"parents":[2147483647,0,0,1,1,2,2,3,3,4,4,5,5,6,6],"right_children":[2,4,6,8,10,12,14,-1,-1,-1,-1,-1,-1,-1,-1],"split_conditions":[6.029906E-3,1.4624331E-2,-1.5723832E-2,6.401973E-2,3.0318137E-2,7.3960978E-3,-4.4359118E-2,9.732864E-5,-1.5860893E-2,8.996899E-3,9.836507E-4,8.353724E-3,4.232827E-2,-8.2712835E-3,-1.298205E-3],"split_indices":[0,2,1,6,6,5,16,0,0,0,0,0,0,0,0],"split_type":[0,0,0,0,0,0,0,0,0,0,0,0,0,0,0],"sum_hessian":[6.4021758E4,4.4710504E4,1.9311256E4,3.812436E4,6.5861436E3,6.597096E2,1.8651547E4,3.7558156E4,5.662062E2,3.629614E3,2.9565293E3,5.7027826E2,8.9431305E1,2.0902803E3,1.6561266E4],"tree_param":{"num_deleted":"0","num_feature":"31","num_nodes":"15","size_leaf_vector":"1"}},{"base_weights":[-2.406345E-7,6.0869125E-3,-1.4093808E-2,-1.2571358E-3,4.860026E-2,1.1662142E-1,-1.8717855E-2,9.4348314E-4,-2.6285683E-3,5.7957154E-3,-6.7733005E-3,3.0242284E-3,2.108638E-2,5.540076E-3,-2.7089196E-3],"categories":[],"categories_nodes":[],"categories_segments":[],"categories_sizes":[],"default_left":[0,0,0,0,0,0,0,0,0,0,0,0,0,0,0],"id":27,"left_children":[1,3,5,7,9,11,13,-1,-1,-1,-1,-1,-1,-1,-1],"loss_changes":[5.4923077E0,1.3959338E1,1.167201E1,1.0202179E1,7.168785E0,5.370946E0,1.1572359E1,0E0,0E0,0E0,0E0,0E0,0E0,0E0,0E0],"parents":[2147483647,0,0,1,1,2,2,3,3,4,4,5,5,6,6],"right_children":[2,4,6,8,10,12,14,-1,-1,-1,-1,-1,-1,-1,-1],"split_conditions":[6.029906E-3,1.4624331E-2,-1.5723832E-2,1.503495E-2,2.1825965E-1,1.5810419E-2,-1.2208388E-1,9.4348314E-4,-2.6285683E-3,5.7957154E-3,-6.7733005E-3,3.0242284E-3,2.108638E-2,5.540076E-3,-2.7089196E-3],"split_indices":[0,2,1,9,21,22,27,0,0,0,0,0,0,0,0],"split_type":[0,0,0,0,0,0,0,0,0,0,0,0,0,0,0],"sum_hessian":[6.40206E4,4.4709934E4,1.9310668E4,3.812411E4,6.5858213E3,6.597747E2,1.8650893E4,2.6712691E4,1.1411419E4,6.0955454E3,4.902757E2,3.4424878E2,3.1552594E2,1.8927513E3,1.6758143E4],"tree_param":{"num_deleted":"0","num_feature":"31","num_nodes":"15","size_leaf_vector":"1"}},{"base_weights":[-2.3467716E-7,-3.1361382E-2,3.5190135E-3,1.5603649E-2,-5.884867E-2,1.8185144E-2,-8.709563E-3,1.2328164E-2,-4.6906234E-3,2.3124423E-3,-9.6495915E-3,2.3312762E-3,-7.4530593E-3,-4.1435934E-3,3.4798073E-4],"categories":[],"categories_nodes":[],"categories_segments":[],"categories_sizes":[],"default_left":[0,0,0,0,0,0,0,0,0,0,0,0,0,0,0],"id":28,"left_children":[1,3,5,7,9,11,13,-1,-1,-1,-1,-1,-1,-1,-1],"loss_changes":[7.065684E0,8.33849E0,1.03232E1,1.6051296E1,1.2574238E1,1.24423065E1,1.25213375E1,0E0,0E0,0E0,0E0,0E0,0E0,0E0,0E0],"parents":[2147483647,0,0,1,1,2,2,3,3,4,4,5,5,6,6],"right_children":[2,4,6,8,10,12,14,-1,-1,-1,-1,-1,-1,-1,-1],"split_conditions":[-3.041428E-2,-3.1165356E-2,6.030791E-3,-6.982144E-2,-8.101504E-2,1.2929273E-1,1.4466897E-2,1.2328164E-2,-4.6906234E-3,2.3124423E-3,-9.6495915E-3,2.3312762E-3,-7.4530593E-3,-4.1435934E-3,3.4798073E-4],"split_indices":[3,1,8,9,22,20,14,0,0,0,0,0,0,0,0],"split_type":[0,0,0,0,0,0,0,0,0,0,0,0,0,0,0],"sum_hessian":[6.401951E4,6.4592314E3,5.756028E4,2.3847043E3,4.074527E3,2.6171703E4,3.1388576E4,8.759002E2,1.5088041E3,1.2823464E3,2.792181E3,2.4800139E4,1.3715641E3,8.518328E3,2.287025E4],"tree_param":{"num_deleted":"0","num_feature":"31","num_nodes":"15","size_leaf_vector":"1"}},{"base_weights":[-1.9577796E-7,-6.57292E-3,1.524986E-2,-4.030532E-2,-1.5830169E-4,2.1162854E-1,1.1376337E-2,3.4794733E-3,-6.3542896E-3,-5.5137514E-3,5.716511E-4,-1.007882E-2,3.0053616E-2,2.5776898E-2,9.0039923E-4],"categories":[],"categories_nodes":[],"categories_segments":[],"categories_sizes":[],"default_left":[0,0,0,0,0,0,0,0,0,0,0,0,0,0,0],"id":29,"left_children":[1,3,5,7,9,11,13,-1,-1,-1,-1,-1,-1,-1,-1],"loss_changes":[6.4168787E0,9.680247E0,1.4667051E1,1.2474323E1,1.2141011E1,1.0359631E1,1.1052614E1,0E0,0E0,0E0,0E0,0E0,0E0,0E0,0E0],"parents":[2147483647,0,0,1,1,2,2,3,3,4,4,5,5,6,6],"right_children":[2,4,6,8,10,12,14,-1,-1,-1,-1,-1,-1,-1,-1],"split_conditions":[2.5943118E-1,-1.0978849E-2,-9.250907E-2,-8.762133E-2,-5.6735545E-2,-5.495521E-3,4.9576033E-2,3.4794733E-3,-6.3542896E-3,-5.5137514E-3,5.716511E-4,-1.007882E-2,3.0053616E-2,2.5776898E-2,9.0039923E-4],"split_indices":[30,0,19,20,14,25,28,0,0,0,0,0,0,0,0],"split_type":[0,0,0,0,0,0,0,0,0,0,0,0,0,0,0],"sum_hessian":[6.4018727E4,4.473716E4,1.928157E4,7.148023E3,3.7589137E4,3.7296765E2,1.8908602E4,1.6891063E3,5.4589165E3,3.6288337E3,3.39603E4,8.2625595E1,2.9034207E2,1.8032169E2,1.872828E4],"tree_param":{"num_deleted":"0","num_feature":"31","num_nodes":"15","size_leaf_vector":"1"}},{"base_weights":[-9.8468746E-8,-8.707251E-3,1.051141E-2,2.6862925E-2,-2.0127768E-2,-5.1723372E-2,1.7763449E-2,4.219578E-3,-6.1156205E-3,-5.361795E-4,-4.2898497E-3,3.793781E-3,-8.176421E-3,3.291623E-3,-4.8471242E-4],"categories":[],"categories_nodes":[],"categories_segments":[],"categories_sizes":[],"default_left":[0,0,0,0,0,0,0,0,0,0,0,0,0,0,0],"id":30,"left_children":[1,3,5,7,9,11,13,-1,-1,-1,-1,-1,-1,-1,-1],"loss_changes":[5.859254E0,1.4223769E1,1.3090233E1,1.1484627E1,8.911611E0,8.153202E0,8.899974E0,0E0,0E0,0E0,0E0,0E0,0E0,0E0,0E0],"parents":[2147483647,0,0,1,1,2,2,3,3,4,4,5,5,6,6],"right_children":[2,4,6,8,10,12,14,-1,-1,-1,-1,-1,-1,-1,-1],"split_conditions":[5.0589666E-3,-5.5306975E-2,-3.2815225E-2,4.13085E-3,7.3208953E-3,4.0635853E-3,3.2860752E-2,4.219578E-3,-6.1156205E-3,-5.361795E-4,-4.2898497E-3,3.793781E-3,-8.176421E-3,3.291623E-3,-4.8471242E-4],"split_indices":[3,21,16,5,11,2,7,0,0,0,0,0,0,0,0],"split_type":[0,0,0,0,0,0,0,0,0,0,0,0,0,0,0],"sum_hessian":[6.4017848E4,3.50141E4,2.9003746E4,8.509752E3,2.6504352E4,3.0269956E3,2.597675E4,7.2472817E3,1.2624698E3,1.6078222E4,1.042613E4,7.5966534E2,2.2673303E3,1.5553418E4,1.0423333E4],"tree_param":{"num_deleted":"0","num_feature":"31","num_nodes":"15","size_leaf_vector":"1"}},{"base_weights":[-1.11799494E-7,-2.8292732E-2,3.1746195E-3,2.0289873E-3,-7.8889295E-2,1.082561E-1,1.6031502E-3,-7.6332088E-3,3.9006204E-3,-1.1520286E-2,2.1265438E-3,2.4394521E-4,2.7294511E-2,1.3786528E-3,-8.391025E-4],"categories":[],"categories_nodes":[],"categories_segments":[],"categories_sizes":[],"default_left":[0,0,0,0,0,0,0,0,0,0,0,0,0,0,0],"id":31,"left_children":[1,3,5,7,9,11,13,-1,-1,-1,-1,-1,-1,-1,-1],"loss_changes":[5.7500925E0,9.9086895E0,9.504729E0,1.1701737E1,8.802153E0,1.4779487E1,6.9051895E0,0E0,0E0,0E0,0E0,0E0,0E0,0E0,0E0],"parents":[2147483647,0,0,1,1,2,2,3,3,4,4,5,5,6,6],"right_children":[2,4,6,8,10,12,14,-1,-1,-1,-1,-1,-1,-1,-1],"split_conditions":[-3.041428E-2,-3.4853656E-2,-3.1165356E-2,-7.199733E-2,1.6636908E-2,-1.4822698E-2,6.030791E-3,-7.6332088E-3,3.9006204E-3,-1.1520286E-2,2.1265438E-3,2.4394521E-4,2.7294511E-2,1.3786528E-3,-8.391025E-4],"split_indices":[3,9,1,29,16,0,8,0,0,0,0,0,0,0,0],"split_type":[0,0,0,0,0,0,0,0,0,0,0,0,0,0,0],"sum_hessian":[6.4016902E4,6.458645E3,5.7558258E4,4.03846E3,2.4201853E3,8.480875E2,5.6710168E4,1.2947219E3,2.743738E3,1.7761855E3,6.4399976E2,5.163319E2,3.3175565E2,2.5556082E4,3.1154088E4],"tree_param":{"num_deleted":"0","num_feature":"31","num_nodes":"15","size_leaf_vector":"1"}},{"base_weights":[-1.0059576E-7,-5.3740456E-3,1.5981399E-2,-3.4574387E-3,-8.2940936E-2,1.7641442E-1,9.951753E-3,-4.015044E-3,1.0395473E-4,1.9484611E-2,-1.0758852E-2,3.447055E-2,6.995997E-3,-3.6018458E-3,2.6321996E-3],"categories":[],"categories_nodes":[],"categories_segments":[],"categories_sizes":[],"default_left":[0,0,0,0,0,0,0,0,0,0,0,0,0,0,0],"id":32,"left_children":[1,3,5,7,9,11,13,-1,-1,-1,-1,-1,-1,-1,-1],"loss_changes":[5.497912E0,7.122055E0,1.5583221E1,7.714363E0,7.9093013E0,1.0453733E1,1.1683693E1,0E0,0E0,0E0,0E0,0E0,0E0,0E0,0E0],"parents":[2147483647,0,0,1,1,2,2,3,3,4,4,5,5,6,6],"right_children":[2,4,6,8,10,12,14,-1,-1,-1,-1,-1,-1,-1,-1],"split_conditions":[2.7800217E-1,2.9908475E-1,-5.7092074E-2,-3.041428E-2,1.6643581E-1,-2.575496E-2,7.4592285E-2,-4.015044E-3,1.0395473E-4,1.9484611E-2,-1.0758852E-2,3.447055E-2,6.995997E-3,-3.6018458E-3,2.6321996E-3],"split_indices":[29,25,22,3,24,9,22,0,0,0,0,0,0,0,0],"split_type":[0,0,0,0,0,0,0,0,0,0,0,0,0,0,0],"sum_hessian":[6.4015773E4,4.7906664E4,1.6109112E4,4.6751477E4,1.1551862E3,5.835077E2,1.55256045E4,5.1041714E3,4.1647305E4,9.414444E1,1.0610417E3,2.2608917E2,3.5741855E2,4.076934E3,1.144867E4],"tree_param":{"num_deleted":"0","num_feature":"31","num_nodes":"15","size_leaf_vector":"1"}},{"base_weights":[-2.3469845E-8,2.1252697E-3,-4.0442426E-2,-4.9882834E-3,1.721288E-2,-1.0024458E-1,1.1649315E-2,-1.175574E-3,2.7749988E-3,2.7253318E-3,-5.587114E-3,-6.1987717E-2,-9.033072E-3,-1.4895329E-2,4.229772E-3],"categories":[],"categories_nodes":[],"categories_segments":[],"categories_sizes":[],"default_left":[0,0,0,0,0,0,0,0,0,0,0,0,0,0,0],"id":33,"left_children":[1,3,5,7,9,11,13,-1,-1,-1,-1,-1,-1,-1,-1],"loss_changes":[5.502224E0,6.527491E0,9.956505E0,9.157251E0,1.4299641E1,7.665189E0,8.407985E0,0E0,0E0,0E0,0E0,0E0,0E0,0E0,0E0],"parents":[2147483647,0,0,1,1,2,2,3,3,4,4,5,5,6,6],"right_children":[2,4,6,8,10,12,14,-1,-1,-1,-1,-1,-1,-1,-1],"split_conditions":[4.7056813E-2,8.926398E-3,8.8098414E-2,1.4435251E-1,1.6691609E-1,-4.8842365E-3,2.612042E-2,-1.175574E-3,2.7749988E-3,2.7253318E-3,-5.587114E-3,-6.1987717E-2,-9.033072E-3,-1.4895329E-2,4.229772E-3],"split_indices":[3,2,23,22,21,2,14,0,0,0,0,0,0,0,0],"split_type":[0,0,0,0,0,0,0,0,0,0,0,0,0,0,0],"sum_hessian":[6.40151E4,6.0818996E4,3.1961057E3,4.1331766E4,1.9487229E4,1.4879338E3,1.708172E3,3.4251504E4,7.080263E3,1.7133404E4,2.353823E3,2.7856243E1,1.4600776E3,2.7373837E2,1.4344336E3],"tree_param":{"num_deleted":"0","num_feature":"31","num_nodes":"15","size_leaf_vector":"1"}},{"base_weights":[-1.5528096E-7,3.9811008E-2,-2.1170727E-3,1.05754165E-2,1.6552024E-1,-2.9508632E-2,3.3247282E-3,1.0544177E-2,-3.7601725E-3,2.9019121E-2,-1.7519725E-2,-7.4404413E-3,-3.6090787E-4,1.2238714E-3,-1.3612129E-3],"categories":[],"categories_nodes":[],"categories_segments":[],"categories_sizes":[],"default_left":[0,0,0,0,0,0,0,0,0,0,0,0,0,0,0],"id":34,"left_children":[1,3,5,7,9,11,13,-1,-1,-1,-1,-1,-1,-1,-1],"loss_changes":[5.3949003E0,1.1878252E1,9.060119E0,1.1984417E1,2.5904078E1,1.1713849E1,7.6556263E0,0E0,0E0,0E0,0E0,0E0,0E0,0E0,0E0],"parents":[2147483647,0,0,1,1,2,2,3,3,4,4,5,5,6,6],"right_children":[2,4,6,8,10,12,14,-1,-1,-1,-1,-1,-1,-1,-1],"split_conditions":[-3.1165356E-2,1.8707424E-1,-1.6613742E-2,-8.762133E-2,9.051629E-3,-1.5723832E-2,6.029906E-3,1.0544177E-2,-3.7601725E-3,2.9019121E-2,-1.7519725E-2,-7.4404413E-3,-3.6090787E-4,1.2238714E-3,-1.3612129E-3],"split_indices":[1,25,3,20,13,1,0,0,0,0,0,0,0,0,0],"split_type":[0,0,0,0,0,0,0,0,0,0,0,0,0,0,0],"sum_hessian":[6.4013953E4,3.2320164E3,6.0781938E4,2.622187E3,6.0982947E2,1.0073998E4,5.0707938E4,8.8315424E2,1.7390327E3,4.4646478E2,1.6336465E2,3.6854412E3,6.3885566E3,3.3222633E4,1.7485305E4],"tree_param":{"num_deleted":"0","num_feature":"31","num_nodes":"15","size_leaf_vector":"1"}},{"base_weights":[-1.0462287E-8,-8.600361E-3,8.494323E-3,-5.3307596E-3,-9.409111E-2,1.0848629E-1,5.585086E-3,-2.0622578E-4,-8.114302E-3,3.3627518E-2,-1.2701613E-2,1.2684002E-2,-2.1280875E-2,1.2780634E-3,-2.8288807E-3],"categories":[],"categories_nodes":[],"categories_segments":[],"categories_sizes":[],"default_left":[0,0,0,0,0,0,0,0,0,0,0,0,0,0,0],"id":35,"left_children":[1,3,5,7,9,11,13,-1,-1,-1,-1,-1,-1,-1,-1],"loss_changes":[4.6763887E0,8.890931E0,9.368378E0,7.5913973E0,1.6602497E1,5.36917E0,7.627704E0,0E0,0E0,0E0,0E0,0E0,0E0,0E0,0E0],"parents":[2147483647,0,0,1,1,2,2,3,3,4,4,5,5,6,6],"right_children":[2,4,6,8,10,12,14,-1,-1,-1,-1,-1,-1,-1,-1],"split_conditions":[4.4403747E-2,2.1652539E-1,-3.8507003E-2,3.9926074E-2,-8.155095E-2,8.504962E-4,3.7257317E-1,-2.0622578E-4,-8.114302E-3,3.3627518E-2,-1.2701613E-2,1.2684002E-2,-2.1280875E-2,1.2780634E-3,-2.8288807E-3],"split_indices":[22,25,2,2,14,5,27,0,0,0,0,0,0,0,0],"split_type":[0,0,0,0,0,0,0,0,0,0,0,0,0,0,0],"sum_hessian":[6.401256E4,3.1807785E4,3.2204773E4,3.0636105E4,1.1716803E3,9.1049774E2,3.1294275E4,2.9369879E4,1.2662267E3,8.326856E1,1.0884117E3,8.612968E2,4.9200886E1,2.581138E4,5.4828955E3],"tree_param":{"num_deleted":"0","num_feature":"31","num_nodes":"15","size_leaf_vector":"1"}},{"base_weights":[2.7003426E-9,-1.1348882E-2,6.1748666E-3,2.3068223E-2,-2.5201468E-2,3.0332277E-2,-4.070021E-3,2.6792665E-3,-3.989168E-2,-3.3562903E-3,5.638073E-3,4.1797226E-3,-4.202611E-3,-3.281854E-3,7.7165297E-4],"categories":[],"categories_nodes":[],"categories_segments":[],"categories_sizes":[],"default_left":[0,0,0,0,0,0,0,0,0,0,0,0,0,0,0],"id":36,"left_children":[1,3,5,7,9,11,13,-1,-1,-1,-1,-1,-1,-1,-1],"loss_changes":[4.485799E0,1.0753871E1,1.0259896E1,1.0173587E1,1.0970734E1,1.0241561E1,9.863943E0,0E0,0E0,0E0,0E0,0E0,0E0,0E0,0E0],"parents":[2147483647,0,0,1,1,2,2,3,3,4,4,5,5,6,6],"right_children":[2,4,6,8,10,12,14,-1,-1,-1,-1,-1,-1,-1,-1],"split_conditions":[-5.454301E-3,-5.5306975E-2,2.1928146E-3,3.392554E-2,1.6691609E-1,2.2610718E-2,1.6636908E-2,2.6792665E-3,-3.989168E-2,-3.3562903E-3,5.638073E-3,4.1797226E-3,-4.202611E-3,-3.281854E-3,7.7165297E-4],"split_indices":[3,21,9,5,21,2,16,0,0,0,0,0,0,0,0],"split_type":[0,0,0,0,0,0,0,0,0,0,0,0,0,0,0],"sum_hessian":[6.401168E4,2.2555871E4,4.145581E4,6.473155E3,1.6082717E4,1.2345399E4,2.9110408E4,6.4165225E3,5.6632244E1,1.4587618E4,1.4950986E3,1.0656855E4,1.6885438E3,8.464554E3,2.0645854E4],"tree_param":{"num_deleted":"0","num_feature":"31","num_nodes":"15","size_leaf_vector":"1"}},{"base_weights":[-5.5902634E-9,-4.9128407E-3,1.4636708E-2,-1.4171561E-3,-4.33424E-2,5.796073E-2,-1.4860581E-3,-5.1121926E-4,5.083673E-3,-2.4057899E-2,-3.3434425E-3,-4.7300295E-3,9.097322E-3,-5.6683007E-3,2.7241625E-3],"categories":[],"categories_nodes":[],"categories_segments":[],"categories_sizes":[],"default_left":[0,0,0,0,0,0,0,0,0,0,0,0,0,0,0],"id":37,"left_children":[1,3,5,7,9,11,13,-1,-1,-1,-1,-1,-1,-1,-1],"loss_changes":[4.6028643E0,6.438087E0,1.1236114E1,8.481768E0,7.8088713E0,1.5160196E1,1.8589334E1,0E0,0E0,0E0,0E0,0E0,0E0,0E0,0E0],"parents":[2147483647,0,0,1,1,2,2,3,3,4,4,5,5,6,6],"right_children":[2,4,6,8,10,12,14,-1,-1,-1,-1,-1,-1,-1,-1],"split_conditions":[2.9703903E-1,6.353536E-2,-4.4811224E-3,6.255839E-2,3.7912033E-2,1.020721E-1,3.1009603E-3,-5.1121926E-4,5.083673E-3,-2.4057899E-2,-3.3434425E-3,-4.7300295E-3,9.097322E-3,-5.6683007E-3,2.7241625E-3],"split_indices":[30,11,0,16,13,24,4,0,0,0,0,0,0,0,0],"split_type":[0,0,0,0,0,0,0,0,0,0,0,0,0,0,0],"sum_hessian":[6.4010668E4,4.792468E4,1.6085989E4,4.3928766E4,3.9959111E3,4.3627363E3,1.1723253E4,4.102758E4,2.9011892E3,1.9112932E2,3.8047817E3,1.0415934E3,3.3211428E3,4.012909E3,7.710344E3],"tree_param":{"num_deleted":"0","num_feature":"31","num_nodes":"15","size_leaf_vector":"1"}},{"base_weights":[5.4790843E-9,4.8093707E-3,-1.43324565E-2,-7.7307364E-4,4.0171497E-2,-4.4943243E-2,-7.0451437E-3,-1.391263E-5,-4.3110613E-2,-1.6001314E-2,5.1689534E-3,4.5155264E-3,-8.381588E-3,7.669594E-3,-1.2892738E-3],"categories":[],"categories_nodes":[],"categories_segments":[],"categories_sizes":[],"default_left":[0,0,0,0,0,0,0,0,0,0,0,0,0,0,0],"id":38,"left_children":[1,3,5,7,9,11,13,-1,-1,-1,-1,-1,-1,-1,-1],"loss_changes":[4.4121814E0,9.461174E0,3.5874932E0,1.1292294E1,1.5066746E1,1.0830801E1,6.3609514E0,0E0,0E0,0E0,0E0,0E0,0E0,0E0,0E0],"parents":[2147483647,0,0,1,1,2,2,3,3,4,4,5,5,6,6],"right_children":[2,4,6,8,10,12,14,-1,-1,-1,-1,-1,-1,-1,-1],"split_conditions":[3.449448E-2,2.2341551E-2,-1.3864868E-2,5.279145E-2,-1.829777E-1,-2.899536E-4,-2.8982395E-2,-1.391263E-5,-4.3110613E-2,-1.6001314E-2,5.1689534E-3,4.5155264E-3,-8.381588E-3,7.669594E-3,-1.2892738E-3],"split_indices":[11,5,23,4,24,1,25,0,0,0,0,0,0,0,0],"split_type":[0,0,0,0,0,0,0,0,0,0,0,0,0,0,0],"sum_hessian":[6.400955E4,4.7927215E4,1.6082338E4,4.1392746E4,6.5344683E3,3.0924246E3,1.2989913E4,4.1331855E4,6.0888237E1,3.5551865E2,6.1789497E3,9.3207434E2,2.1603503E3,8.478721E2,1.2142041E4],"tree_param":{"num_deleted":"0","num_feature":"31","num_nodes":"15","size_leaf_vector":"1"}},{"base_weights":[-9.451393E-8,3.984639E-3,-1.5790412E-2,-1.8774944E-3,2.2990089E-2,-2.331211E-1,-9.194353E-3,7.9659757E-4,-2.350479E-3,1.0959077E-2,9.094928E-4,-3.8429882E-2,-7.48817E-3,-4.950866E-3,8.696698E-4],"categories":[],"categories_nodes":[],"categories_segments":[],"categories_sizes":[],"default_left":[0,0,0,0,0,0,0,0,0,0,0,0,0,0,0],"id":39,"left_children":[1,3,5,7,9,11,13,-1,-1,-1,-1,-1,-1,-1,-1],"loss_changes":[4.0274467E0,5.6943836E0,1.8489573E1,8.315872E0,1.4498392E1,9.088709E0,9.028831E0,0E0,0E0,0E0,0E0,0E0,0E0,0E0,0E0],"parents":[2147483647,0,0,1,1,2,2,3,3,4,4,5,5,6,6],"right_children":[2,4,6,8,10,12,14,-1,-1,-1,-1,-1,-1,-1,-1],"split_conditions":[5.7047483E-2,1.6126227E-2,1.6636908E-2,6.6307303E-3,1.0213986E-3,4.0834043E-3,5.0589666E-3,7.9659757E-4,-2.350479E-3,1.0959077E-2,9.094928E-4,-3.8429882E-2,-7.48817E-3,-4.950866E-3,8.696698E-4],"split_indices":[19,4,16,10,7,14,3,0,0,0,0,0,0,0,0],"split_type":[0,0,0,0,0,0,0,0,0,0,0,0,0,0,0],"sum_hessian":[6.400879E4,5.111082E4,1.2897969E4,3.9062266E4,1.2048556E4,3.7992673E2,1.2518042E4,2.6844316E4,1.221795E4,1.6659061E3,1.0382649E4,1.942988E2,1.8562793E2,3.8477715E3,8.6702705E3],"tree_param":{"num_deleted":"0","num_feature":"31","num_nodes":"15","size_leaf_vector":"1"}},{"base_weights":[-8.355736E-8,2.6758616E-3,-2.3829898E-2,-3.727706E-3,3.2072574E-2,4.1460343E-2,-6.198577E-2,-3.5261025E-3,1.0173192E-5,1.9719817E-2,2.6946205E-3,-5.127231E-3,8.104652E-3,-9.705887E-3,1.2232987E-3],"categories":[],"categories_nodes":[],"categories_segments":[],"categories_sizes":[],"default_left":[0,0,0,0,0,0,0,0,0,0,0,0,0,0,0],"id":40,"left_children":[1,3,5,7,9,11,13,-1,-1,-1,-1,-1,-1,-1,-1],"loss_changes":[4.0816274E0,1.0832699E1,1.6098377E1,5.7060156E0,8.713164E0,8.749756E0,1.0616818E1,0E0,0E0,0E0,0E0,0E0,0E0,0E0,0E0],"parents":[2147483647,0,0,1,1,2,2,3,3,4,4,5,5,6,6],"right_children":[2,4,6,8,10,12,14,-1,-1,-1,-1,-1,-1,-1,-1],"split_conditions":[3.7257317E-1,2.7800217E-1,-1.6379134E-3,-3.041428E-2,-8.101504E-2,1.6943005E-1,3.392554E-2,-3.5261025E-3,1.0173192E-5,1.9719817E-2,2.6946205E-3,-5.127231E-3,8.104652E-3,-9.705887E-3,1.2232987E-3],"split_indices":[27,29,0,3,22,23,5,0,0,0,0,0,0,0,0],"split_type":[0,0,0,0,0,0,0,0,0,0,0,0,0,0,0],"sum_hessian":[6.400818E4,5.7546098E4,6.4620815E3,4.7252875E4,1.0293225E4,2.3835247E3,4.0785571E3,5.1170205E3,4.2135855E4,3.0993408E2,9.98329E3,7.1308545E2,1.6704393E3,2.769698E3,1.3088591E3],"tree_param":{"num_deleted":"0","num_feature":"31","num_nodes":"15","size_leaf_vector":"1"}},{"base_weights":[-2.468187E-8,3.5106435E-2,-1.8661652E-3,-4.562158E-2,6.969332E-2,-3.6382005E-2,1.3603154E-3,-5.4768487E-3,4.4590577E-2,1.815449E-2,1.9289901E-3,-7.2051235E-3,2.5993418E-3,4.8831236E-3,-2.3906026E-4],"categories":[],"categories_nodes":[],"categories_segments":[],"categories_sizes":[],"default_left":[0,0,0,0,0,0,0,0,0,0,0,0,0,0,0],"id":41,"left_children":[1,3,5,7,9,11,13,-1,-1,-1,-1,-1,-1,-1,-1],"loss_changes":[4.193351E0,9.020485E0,6.7683744E0,4.3565435E0,1.2750732E1,1.1559646E1,9.896736E0,0E0,0E0,0E0,0E0,0E0,0E0,0E0,0E0],"parents":[2147483647,0,0,1,1,2,2,3,3,4,4,5,5,6,6],"right_children":[2,4,6,8,10,12,14,-1,-1,-1,-1,-1,-1,-1,-1],"split_conditions":[-3.1165356E-2,-7.2850615E-2,-5.6735545E-2,9.730825E-2,-5.9906032E-2,7.472503E-2,-1.1642341E-1,-5.4768487E-3,4.4590577E-2,1.815449E-2,1.9289901E-3,-7.2051235E-3,2.5993418E-3,4.8831236E-3,-2.3906026E-4],"split_indices":[1,28,14,14,16,28,23,0,0,0,0,0,0,0,0],"split_type":[0,0,0,0,0,0,0,0,0,0,0,0,0,0,0],"sum_hessian":[6.4007348E4,3.2306816E3,6.0776664E4,9.6899194E2,2.2616897E3,5.1956196E3,5.5581047E4,9.5128925E2,1.770268E1,7.0257855E2,1.5591112E3,3.305422E3,1.8901974E3,4.0701377E3,5.1510906E4],"tree_param":{"num_deleted":"0","num_feature":"31","num_nodes":"15","size_leaf_vector":"1"}},{"base_weights":[-9.6334825E-9,3.7695248E-2,-1.9846335E-3,7.123006E-2,-3.795112E-2,-3.451639E-2,1.1786536E-3,3.992798E-3,1.4103636E-2,-7.5888345E-3,2.6393747E-2,-5.610025E-3,4.63333E-3,4.3839025E-3,-1.7301296E-4],"categories":[],"categories_nodes":[],"categories_segments":[],"categories_sizes":[],"default_left":[0,0,0,0,0,0,0,0,0,0,0,0,0,0,0],"id":42,"left_children":[1,3,5,7,9,11,13,-1,-1,-1,-1,-1,-1,-1,-1],"loss_changes":[4.7884207E0,8.121178E0,6.257341E0,4.84667E0,1.126148E1,9.403334E0,6.8766866E0,0E0,0E0,0E0,0E0,0E0,0E0,0E0,0E0],"parents":[2147483647,0,0,1,1,2,2,3,3,4,4,5,5,6,6],"right_children":[2,4,6,8,10,12,14,-1,-1,-1,-1,-1,-1,-1,-1],"split_conditions":[-1.24690376E-1,-2.6451878E-3,-3.041428E-2,-6.2959015E-2,1.3580647E-1,7.18115E-2,-2.4929887E-2,3.992798E-3,1.4103636E-2,-7.5888345E-3,2.6393747E-2,-5.610025E-3,4.63333E-3,4.3839025E-3,-1.7301296E-4],"split_indices":[20,5,3,18,29,21,4,0,0,0,0,0,0,0,0],"split_type":[0,0,0,0,0,0,0,0,0,0,0,0,0,0,0],"sum_hessian":[6.4006973E4,3.2013645E3,6.080561E4,2.218071E3,9.8329364E2,5.38858E3,5.541703E4,1.5313798E3,6.866912E2,8.735214E2,1.0977222E2,4.2531475E3,1.1354323E3,3.5373955E3,5.1879633E4],"tree_param":{"num_deleted":"0","num_feature":"31","num_nodes":"15","size_leaf_vector":"1"}},{"base_weights":[7.500192E-9,2.8005224E-3,-2.4976239E-2,-6.6378135E-3,1.7111938E-2,8.265827E-2,-3.8642615E-2,5.530002E-5,-4.3024616E-3,1.0804432E-2,1.0144473E-3,3.741118E-2,5.818472E-3,-1.8804893E-2,-2.2205065E-3],"categories":[],"categories_nodes":[],"categories_segments":[],"categories_sizes":[],"default_left":[0,0,0,0,0,0,0,0,0,0,0,0,0,0,0],"id":43,"left_children":[1,3,5,7,9,11,13,-1,-1,-1,-1,-1,-1,-1,-1],"loss_changes":[4.4769726E0,7.7739716E0,9.492499E0,9.074243E0,1.4490879E1,5.1859865E0,1.4062715E1,0E0,0E0,0E0,0E0,0E0,0E0,0E0,0E0],"parents":[2147483647,0,0,1,1,2,2,3,3,4,4,5,5,6,6],"right_children":[2,4,6,8,10,12,14,-1,-1,-1,-1,-1,-1,-1,-1],"split_conditions":[1.2929273E-1,4.5973152E-2,-1.4584292E-2,1.3778563E-1,-3.4389522E-2,-3.5192635E-2,-6.9327513E-3,5.530002E-5,-4.3024616E-3,1.0804432E-2,1.0144473E-3,3.741118E-2,5.818472E-3,-1.8804893E-2,-2.2205065E-3],"split_indices":[20,21,2,25,18,19,8,0,0,0,0,0,0,0,0],"split_type":[0,0,0,0,0,0,0,0,0,0,0,0,0,0,0],"sum_hessian":[6.4005805E4,5.7552598E4,6.453208E3,3.4680746E4,2.287185E4,7.2705133E2,5.7261562E3,2.8958021E4,5.722727E3,1.6277737E3,2.1244076E4,5.6321625E1,6.7072974E2,5.675457E2,5.158611E3],"tree_param":{"num_deleted":"0","num_feature":"31","num_nodes":"15","size_leaf_vector":"1"}},{"base_weights":[8.3310496E-8,2.4281768E-2,-2.7163462E-3,-1.038885E-2,7.080558E-2,-4.5320988E-2,-1.03960156E-4,-5.8079036E-3,7.1051195E-3,8.9519005E-3,-1.1956223E-2,5.4112505E-3,-6.5115127E-3,9.015231E-3,-1.2620943E-4],"categories":[],"categories_nodes":[],"categories_segments":[],"categories_sizes":[],"default_left":[0,0,0,0,0,0,0,0,0,0,0,0,0,0,0],"id":44,"left_children":[1,3,5,7,9,11,13,-1,-1,-1,-1,-1,-1,-1,-1],"loss_changes":[4.2217627E0,1.0387678E1,6.4070215E0,1.43316965E1,9.796335E0,6.5458584E0,5.669609E0,0E0,0E0,0E0,0E0,0E0,0E0,0E0,0E0],"parents":[2147483647,0,0,1,1,2,2,3,3,4,4,5,5,6,6],"right_children":[2,4,6,8,10,12,14,-1,-1,-1,-1,-1,-1,-1,-1],"split_conditions":[-4.7661074E-2,-5.9906032E-2,-3.041428E-2,6.496714E-2,1.5832722E-2,-1.1197425E-1,-3.1165356E-2,-5.8079036E-3,7.1051195E-3,8.9519005E-3,-1.1956223E-2,5.4112505E-3,-6.5115127E-3,9.015231E-3,-1.2620943E-4],"split_indices":[9,16,3,30,0,22,1,0,0,0,0,0,0,0,0],"split_type":[0,0,0,0,0,0,0,0,0,0,0,0,0,0,0],"sum_hessian":[6.400539E4,6.439936E3,5.7565453E4,3.6900361E3,2.7499E3,3.3258088E3,5.4239645E4,2.3272375E3,1.3627986E3,2.5037754E3,2.4612463E2,5.5214984E2,2.773659E3,6.87165E2,5.355248E4],"tree_param":{"num_deleted":"0","num_feature":"31","num_nodes":"15","size_leaf_vector":"1"}},{"base_weights":[7.943167E-8,-3.406219E-2,1.811994E-3,5.064778E-2,-1.18129894E-1,8.7351725E-2,-4.2218788E-4,-5.097235E-3,1.7475445E-2,-1.6689992E-2,-1.8244813E-3,5.632102E-3,2.7293174E-2,3.044928E-4,-3.1329796E-3],"categories":[],"categories_nodes":[],"categories_segments":[],"categories_sizes":[],"default_left":[0,0,0,0,0,0,0,0,0,0,0,0,0,0,0],"id":45,"left_children":[1,3,5,7,9,11,13,-1,-1,-1,-1,-1,-1,-1,-1],"loss_changes":[3.9502199E0,2.302127E1,1.16141615E1,2.0307415E1,7.9038525E0,8.907944E0,6.3465505E0,0E0,0E0,0E0,0E0,0E0,0E0,0E0,0E0],"parents":[2147483647,0,0,1,1,2,2,3,3,4,4,5,5,6,6],"right_children":[2,4,6,8,10,12,14,-1,-1,-1,-1,-1,-1,-1,-1],"split_conditions":[-2.1912294E-2,-3.2815225E-2,-3.1165356E-2,6.496714E-2,1.610756E-1,1.0073034E-1,3.7257317E-1,-5.097235E-3,1.7475445E-2,-1.6689992E-2,-1.8244813E-3,5.632102E-3,2.7293174E-2,3.044928E-4,-3.1329796E-3],"split_indices":[0,16,1,30,25,21,27,0,0,0,0,0,0,0,0],"split_type":[0,0,0,0,0,0,0,0,0,0,0,0,0,0,0],"sum_hessian":[6.4004418E4,3.2327017E3,6.077172E4,1.6102E3,1.6225017E3,1.5468727E3,5.9224844E4,8.853027E2,7.248972E2,1.0901993E3,5.323023E2,1.3252744E3,2.2159824E2,5.3251285E4,5.9735576E3],"tree_param":{"num_deleted":"0","num_feature":"31","num_nodes":"15","size_leaf_vector":"1"}},{"base_weights":[1.2899046E-7,-7.3556057E-3,7.264965E-3,1.639726E-2,-1.7471213E-2,1.6891183E-2,-1.5181672E-2,-1.1963415E-3,5.048103E-3,-4.0297424E-3,5.0995866E-4,3.734034E-3,3.5619744E-4,-2.317248E-2,-8.2942564E-4],"categories":[],"categories_nodes":[],"categories_segments":[],"categories_sizes":[],"default_left":[0,0,0,0,0,0,0,0,0,0,0,0,0,0,0],"id":46,"left_children":[1,3,5,7,9,11,13,-1,-1,-1,-1,-1,-1,-1,-1],"loss_changes":[3.4202318E0,7.641403E0,6.9578075E0,9.181753E0,1.1491223E1,6.1426926E0,1.4413988E1,0E0,0E0,0E0,0E0,0E0,0E0,0E0,0E0],"parents":[2147483647,0,0,1,1,2,2,3,3,4,4,5,5,6,6],"right_children":[2,4,6,8,10,12,14,-1,-1,-1,-1,-1,-1,-1,-1],"split_conditions":[4.4403747E-2,-8.277866E-2,5.7047483E-2,-7.199733E-2,-2.220446E-16,3.1987336E-2,4.0834043E-3,-1.1963415E-3,5.048103E-3,-4.0297424E-3,5.0995866E-4,3.734034E-3,3.5619744E-4,-2.317248E-2,-8.2942564E-4],"split_indices":[22,23,19,29,2,20,14,0,0,0,0,0,0,0,0],"split_type":[0,0,0,0,0,0,0,0,0,0,0,0,0,0,0],"sum_hessian":[6.400349E4,3.1802783E4,3.2200705E4,9.498641E3,2.2304143E4,2.2536113E4,9.664591E3,5.1846006E3,4.3140405E3,1.1089328E4,1.1214813E4,8.892929E3,1.3643186E4,2.9791833E2,9.366673E3],"tree_param":{"num_deleted":"0","num_feature":"31","num_nodes":"15","size_leaf_vector":"1"}},{"base_weights":[1.1272519E-7,3.4518156E-2,-1.816921E-3,2.578084E-2,2.2737508E-1,-2.2275774E-2,2.8991164E-3,5.5912076E-3,-5.561048E-3,5.0539877E-2,1.1801096E-2,-1.4718856E-3,-1.0051723E-2,5.1118904E-3,-2.1636404E-5],"categories":[],"categories_nodes":[],"categories_segments":[],"categories_sizes":[],"default_left":[0,0,0,0,0,0,0,0,0,0,0,0,0,0,0],"id":47,"left_children":[1,3,5,7,9,11,13,-1,-1,-1,-1,-1,-1,-1,-1],"loss_changes":[4.014283E0,5.393231E0,5.8664775E0,7.5091E0,4.21786E0,6.734575E0,7.4230585E0,0E0,0E0,0E0,0E0,0E0,0E0,0E0,0E0],"parents":[2147483647,0,0,1,1,2,2,3,3,4,4,5,5,6,6],"right_children":[2,4,6,8,10,12,14,-1,-1,-1,-1,-1,-1,-1,-1],"split_conditions":[-1.24690376E-1,2.0960192E-1,-1.6613742E-2,8.504962E-4,-1.4822698E-2,9.70422E-3,-3.3463266E-2,5.5912076E-3,-5.561048E-3,5.0539877E-2,1.1801096E-2,-1.4718856E-3,-1.0051723E-2,5.1118904E-3,-2.1636404E-5],"split_indices":[20,26,3,5,0,0,8,0,0,0,0,0,0,0,0],"split_type":[0,0,0,0,0,0,0,0,0,0,0,0,0,0,0],"sum_hessian":[6.4002773E4,3.2006318E3,6.0802145E4,3.0619128E3,1.387189E2,1.1390126E4,4.9412016E4,2.2346433E3,8.2726953E2,3.916198E1,9.955693E1,1.0386911E4,1.00321545E3,2.9987605E3,4.6413258E4],"tree_param":{"num_deleted":"0","num_feature":"31","num_nodes":"15","size_leaf_vector":"1"}},{"base_weights":[1.5964824E-7,-4.1724457E-3,1.2410775E-2,-5.2346405E-2,-1.532312E-3,7.892717E-2,5.054709E-3,3.742087E-4,-1.39431795E-2,-3.6914248E-3,2.5685527E-4,3.4981765E-2,5.354404E-3,-8.344313E-3,1.2016254E-3],"categories":[],"categories_nodes":[],"categories_segments":[],"categories_sizes":[],"default_left":[0,0,0,0,0,0,0,0,0,0,0,0,0,0,0],"id":48,"left_children":[1,3,5,7,9,11,13,-1,-1,-1,-1,-1,-1,-1,-1],"loss_changes":[3.3143015E0,6.0919185E0,7.8796005E0,1.2155609E1,6.5887203E0,1.1026353E1,8.933349E0,0E0,0E0,0E0,0E0,0E0,0E0,0E0,0E0],"parents":[2147483647,0,0,1,1,2,2,3,3,4,4,5,5,6,6],"right_children":[2,4,6,8,10,12,14,-1,-1,-1,-1,-1,-1,-1,-1],"split_conditions":[2.7800217E-1,-2.1912294E-2,2.2591032E-1,-2.3925174E-2,-5.9906032E-2,-5.8216333E-2,1.3357958E-1,3.742087E-4,-1.39431795E-2,-3.6914248E-3,2.5685527E-4,3.4981765E-2,5.354404E-3,-8.344313E-3,1.2016254E-3],"split_indices":[29,0,28,17,16,15,26,0,0,0,0,0,0,0,0],"split_type":[0,0,0,0,0,0,0,0,0,0,0,0,0,0,0],"sum_hessian":[6.4001684E4,4.789783E4,1.6103855E4,2.4886143E3,4.5409215E4,1.6035884E3,1.4500267E4,1.5136975E3,9.749168E2,4.716409E3,4.0692805E4,1.3738686E2,1.4662015E3,1.0574578E3,1.344281E4],"tree_param":{"num_deleted":"0","num_feature":"31","num_nodes":"15","size_leaf_vector":"1"}},{"base_weights":[1.5879294E-7,3.2635794E-3,-1.837454E-2,-9.425723E-3,1.3805265E-2,-9.501067E-2,-7.1446532E-3,3.9253823E-4,-3.4056385E-3,1.0645462E-2,8.54953E-4,1.5981775E-2,-1.441105E-2,2.4936998E-3,-3.1127909E-3],"categories":[],"categories_nodes":[],"categories_segments":[],"categories_sizes":[],"default_left":[0,0,0,0,0,0,0,0,0,0,0,0,0,0,0],"id":49,"left_children":[1,3,5,7,9,11,13,-1,-1,-1,-1,-1,-1,-1,-1],"loss_changes":[3.8377728E0,7.2700014E0,8.307082E0,8.110027E0,1.4455482E1,1.5435536E1,6.477644E0,0E0,0E0,0E0,0E0,0E0,0E0,0E0,0E0],"parents":[2147483647,0,0,1,1,2,2,3,3,4,4,5,5,6,6],"right_children":[2,4,6,8,10,12,14,-1,-1,-1,-1,-1,-1,-1,-1],"split_conditions":[1.2271016E-2,1.20413706E-1,-4.0508933E-2,1.0457203E-2,-6.438878E-2,-2.2115745E-1,1.20413706E-1,3.9253823E-4,-3.4056385E-3,1.0645462E-2,8.54953E-4,1.5981775E-2,-1.441105E-2,2.4936998E-3,-3.1127909E-3],"split_indices":[0,30,13,9,19,30,30,0,0,0,0,0,0,0,0],"split_type":[0,0,0,0,0,0,0,0,0,0,0,0,0,0,0],"sum_hessian":[6.400089E4,5.4348395E4,9.652494E3,2.4662045E4,2.968635E4,1.2336558E3,8.418839E3,1.5993002E4,8.669043E3,1.5936205E3,2.8092729E4,1.9929799E2,1.0343578E3,3.601382E3,4.8174565E3],"tree_param":{"num_deleted":"0","num_feature":"31","num_nodes":"15","size_leaf_vector":"1"}},{"base_weights":[7.022386E-8,1.7082079E-3,-3.251674E-2,-6.3931216E-3,1.269769E-2,-8.366684E-2,1.1991373E-2,2.452318E-3,-1.6318405E-3,-4.8628086E-3,1.9844552E-3,-5.5873174E-2,-7.4643106E-3,-1.4969108E-2,4.4648903E-3],"categories":[],"categories_nodes":[],"categories_segments":[],"categories_sizes":[],"default_left":[0,0,0,0,0,0,0,0,0,0,0,0,0,0,0],"id":50,"left_children":[1,3,5,7,9,11,13,-1,-1,-1,-1,-1,-1,-1,-1],"loss_changes":[3.5547028E0,5.413413E0,7.2717376E0,1.0740412E1,1.1309097E1,6.3710117E0,9.018265E0,0E0,0E0,0E0,0E0,0E0,0E0,0E0,0E0],"parents":[2147483647,0,0,1,1,2,2,3,3,4,4,5,5,6,6],"right_children":[2,4,6,8,10,12,14,-1,-1,-1,-1,-1,-1,-1,-1],"split_conditions":[4.7056813E-2,5.0589666E-3,8.8098414E-2,-5.5306975E-2,-3.1787697E-2,-4.8842365E-3,2.7220778E-2,2.452318E-3,-1.6318405E-3,-4.8628086E-3,1.9844552E-3,-5.5873174E-2,-7.4643106E-3,-1.4969108E-2,4.4648903E-3],"split_indices":[3,3,23,21,15,2,15,0,0,0,0,0,0,0,0],"split_type":[0,0,0,0,0,0,0,0,0,0,0,0,0,0,0],"sum_hessian":[6.39989E4,6.0804766E4,3.19413E3,3.500181E4,2.580296E4,1.4861735E3,1.7079564E3,8.506106E3,2.6495701E4,2.6931953E3,2.3109766E4,2.7703243E1,1.4584702E3,2.870106E2,1.4209459E3],"tree_param":{"num_deleted":"0","num_feature":"31","num_nodes":"15","size_leaf_vector":"1"}},{"base_weights":[-7.233863E-8,2.302823E-3,-2.0509906E-2,-2.9733595E-3,2.6526399E-2,-6.528188E-2,7.5297654E-3,-5.161579E-3,-3.207236E-5,3.2567382E-3,-9.2608845E-3,2.2202386E-2,-8.448259E-3,-7.3122615E-3,2.8488047E-3],"categories":[],"categories_nodes":[],"categories_segments":[],"categories_sizes":[],"default_left":[0,0,0,0,0,0,0,0,0,0,0,0,0,0,0],"id":51,"left_children":[1,3,5,7,9,11,13,-1,-1,-1,-1,-1,-1,-1,-1],"loss_changes":[3.0227504E0,7.353751E0,8.110396E0,6.096261E0,7.4062805E0,1.37245E1,6.7149253E0,0E0,0E0,0E0,0E0,0E0,0E0,0E0,0E0],"parents":[2147483647,0,0,1,1,2,2,3,3,4,4,5,5,6,6],"right_children":[2,4,6,8,10,12,14,-1,-1,-1,-1,-1,-1,-1,-1],"split_conditions":[3.7257317E-1,2.7800217E-1,4.6680328E-1,-2.1912294E-2,5.560836E-1,-5.165726E-2,-1.23245865E-2,-5.161579E-3,-3.207236E-5,3.2567382E-3,-9.2608845E-3,2.2202386E-2,-8.448259E-3,-7.3122615E-3,2.8488047E-3],"split_indices":[27,29,30,0,29,11,3,0,0,0,0,0,0,0,0],"split_type":[0,0,0,0,0,0,0,0,0,0,0,0,0,0,0],"sum_hessian":[6.3997934E4,5.753748E4,6.4604517E3,4.724661E4,1.0290873E4,2.4879116E3,3.97254E3,2.443277E3,4.4803332E4,9.794236E3,4.966359E2,1.5585211E2,2.3320596E3,8.193787E2,3.1531614E3],"tree_param":{"num_deleted":"0","num_feature":"31","num_nodes":"15","size_leaf_vector":"1"}},{"base_weights":[-2.0421487E-8,4.909724E-3,-1.1367029E-2,-3.9447066E-3,2.1007571E-2,5.8906414E-2,-1.9551232E-2,1.012754E-3,-3.3131184E-3,-6.407041E-3,2.8045762E-3,1.0525025E-2,-1.8262413E-3,-2.721546E-3,5.590576E-3],"categories":[],"categories_nodes":[],"categories_segments":[],"categories_sizes":[],"default_left":[0,0,0,0,0,0,0,0,0,0,0,0,0,0,0],"id":52,"left_children":[1,3,5,7,9,11,13,-1,-1,-1,-1,-1,-1,-1,-1],"loss_changes":[3.5716357E0,6.370433E0,1.1102503E1,1.1842493E1,9.496616E0,7.201588E0,9.999471E0,0E0,0E0,0E0,0E0,0E0,0E0,0E0,0E0],"parents":[2147483647,0,0,1,1,2,2,3,3,4,4,5,5,6,6],"right_children":[2,4,6,8,10,12,14,-1,-1,-1,-1,-1,-1,-1,-1],"split_conditions":[6.029906E-3,5.0589666E-3,-1.2208388E-1,6.6307303E-3,-1.2349359E-1,2.2341551E-2,6.401973E-2,1.012754E-3,-3.3131184E-3,-6.407041E-3,2.8045762E-3,1.0525025E-2,-1.8262413E-3,-2.721546E-3,5.590576E-3],"split_indices":[0,3,27,10,26,5,6,0,0,0,0,0,0,0,0],"split_type":[0,0,0,0,0,0,0,0,0,0,0,0,0,0,0],"sum_hessian":[6.399736E4,4.4693098E4,1.930426E4,2.8833547E4,1.5859551E4,2.0136981E3,1.7290562E4,1.9453871E4,9.379677E3,1.2117579E3,1.4647793E4,1.2581278E3,7.5557025E2,1.5696279E4,1.5942833E3],"tree_param":{"num_deleted":"0","num_feature":"31","num_nodes":"15","size_leaf_vector":"1"}},{"base_weights":[-6.216824E-8,2.4099827E-3,-2.1493029E-2,-5.9514684E-3,1.508819E-2,2.9707683E-2,-6.028619E-2,8.621545E-5,-4.0431754E-3,9.741566E-3,9.0954127E-4,-1.5539121E-3,1.31606E-2,-9.27532E-3,3.3456848E-3],"categories":[],"categories_nodes":[],"categories_segments":[],"categories_sizes":[],"default_left":[0,0,0,0,0,0,0,0,0,0,0,0,0,0,0],"id":53,"left_children":[1,3,5,7,9,11,13,-1,-1,-1,-1,-1,-1,-1,-1],"loss_changes":[3.3149312E0,6.100091E0,1.2816124E1,8.146384E0,1.1282693E1,1.2823975E1,1.1172998E1,0E0,0E0,0E0,0E0,0E0,0E0,0E0,0E0],"parents":[2147483647,0,0,1,1,2,2,3,3,4,4,5,5,6,6],"right_children":[2,4,6,8,10,12,14,-1,-1,-1,-1,-1,-1,-1,-1],"split_conditions":[1.2929273E-1,4.5973152E-2,3.064784E-3,1.3778563E-1,-3.5192635E-2,7.213064E-2,7.33945E-2,8.621545E-5,-4.0431754E-3,9.741566E-3,9.0954127E-4,-1.5539121E-3,1.31606E-2,-9.27532E-3,3.3456848E-3],"split_indices":[20,21,1,25,19,14,8,0,0,0,0,0,0,0,0],"split_type":[0,0,0,0,0,0,0,0,0,0,0,0,0,0,0],"sum_hessian":[6.3996027E4,5.7543566E4,6.452463E3,3.4674957E4,2.2868607E4,2.7814275E3,3.6710354E3,2.8953482E4,5.7214756E3,1.5516996E3,2.1316908E4,1.9261445E3,8.552829E2,2.726677E3,9.443585E2],"tree_param":{"num_deleted":"0","num_feature":"31","num_nodes":"15","size_leaf_vector":"1"}},{"base_weights":[-6.4012816E-8,2.487654E-3,-2.2260796E-2,4.573E-3,-4.808683E-2,-4.1439927E-1,-1.9826319E-2,-1.8193707E-3,9.0314477E-4,-9.5467706E-4,-1.7412303E-2,1.7463785E-2,-6.329214E-2,-4.327688E-3,7.902475E-4],"categories":[],"categories_nodes":[],"categories_segments":[],"categories_sizes":[],"default_left":[0,0,0,0,0,0,0,0,0,0,0,0,0,0,0],"id":54,"left_children":[1,3,5,7,9,11,13,-1,-1,-1,-1,-1,-1,-1,-1],"loss_changes":[3.5439754E0,6.070872E0,6.1411314E0,5.6114793E0,1.1072553E1,5.1088085E0,4.1571865E0,0E0,0E0,0E0,0E0,0E0,0E0,0E0,0E0],"parents":[2147483647,0,0,1,1,2,2,3,3,4,4,5,5,6,6],"right_children":[2,4,6,8,10,12,14,-1,-1,-1,-1,-1,-1,-1,-1],"split_conditions":[6.353536E-2,2.2110254E-2,-1.2420045E-2,-1.0978849E-2,2.1652539E-1,-3.4596592E-2,7.761648E-2,-1.8193707E-3,9.0314477E-4,-9.5467706E-4,-1.7412303E-2,1.7463785E-2,-6.329214E-2,-4.327688E-3,7.902475E-4],"split_indices":[11,0,9,0,25,28,9,0,0,0,0,0,0,0,0],"split_type":[0,0,0,0,0,0,0,0,0,0,0,0,0,0,0],"sum_hessian":[6.399559E4,5.7562742E4,6.4328467E3,5.528324E4,2.2795027E3,3.9690052E1,6.3931567E3,9.053297E3,4.622994E4,1.7456946E3,5.338083E2,1.073996E1,2.8950092E1,3.46379E3,2.9293667E3],"tree_param":{"num_deleted":"0","num_feature":"31","num_nodes":"15","size_leaf_vector":"1"}},{"base_weights":[-1.3704754E-7,1.5826666E-3,-3.0138856E-2,3.1170875E-3,-2.9615147E-2,-2.6421243E-1,-1.9768447E-2,-1.4413649E-4,1.9968026E-3,4.118629E-3,-7.885306E-3,-6.576092E-2,-2.100984E-2,-6.477213E-3,1.9152118E-3],"categories":[],"categories_nodes":[],"categories_segments":[],"categories_sizes":[],"default_left":[0,0,0,0,0,0,0,0,0,0,0,0,0,0,0],"id":55,"left_children":[1,3,5,7,9,11,13,-1,-1,-1,-1,-1,-1,-1,-1],"loss_changes":[3.0527723E0,2.9105964E0,7.7511106E0,4.4514694E0,9.936283E0,2.883852E0,5.355695E0,0E0,0E0,0E0,0E0,0E0,0E0,0E0,0E0],"parents":[2147483647,0,0,1,1,2,2,3,3,4,4,5,5,6,6],"right_children":[2,4,6,8,10,12,14,-1,-1,-1,-1,-1,-1,-1,-1],"split_conditions":[4.7056813E-2,4.723808E-1,8.926398E-3,2.7800217E-1,-1.6379134E-3,3.3926019E-3,8.8098414E-2,-1.4413649E-4,1.9968026E-3,4.118629E-3,-7.885306E-3,-6.576092E-2,-2.100984E-2,-6.477213E-3,1.9152118E-3],"split_indices":[3,27,2,29,0,12,23,0,0,0,0,0,0,0,0],"split_type":[0,0,0,0,0,0,0,0,0,0,0,0,0,0,0],"sum_hessian":[6.399449E4,6.0801367E4,3.1931226E3,5.795112E4,2.8502449E3,1.354666E2,3.057656E3,4.5612266E4,1.2338857E4,1.1691176E3,1.6811273E3,1.6380932E1,1.1908566E2,1.4180133E3,1.6396427E3],"tree_param":{"num_deleted":"0","num_feature":"31","num_nodes":"15","size_leaf_vector":"1"}},{"base_weights":[-2.159849E-7,3.1576045E-2,-1.6620049E-3,-4.5051365E-3,8.593265E-2,-1.4625046E-2,4.48105E-3,3.6611252E-3,-1.2339282E-2,2.141583E-2,6.0364124E-3,-6.2246653E-3,1.2975014E-5,2.4952784E-3,-5.154865E-4],"categories":[],"categories_nodes":[],"categories_segments":[],"categories_sizes":[],"default_left":[0,0,0,0,0,0,0,0,0,0,0,0,0,0,0],"id":56,"left_children":[1,3,5,7,9,11,13,-1,-1,-1,-1,-1,-1,-1,-1],"loss_changes":[3.357915E0,6.2748957E0,4.841162E0,9.399996E0,4.1848965E0,1.3734346E1,8.13656E0,0E0,0E0,0E0,0E0,0E0,0E0,0E0,0E0],"parents":[2147483647,0,0,1,1,2,2,3,3,4,4,5,5,6,6],"right_children":[2,4,6,8,10,12,14,-1,-1,-1,-1,-1,-1,-1,-1],"split_conditions":[-1.24690376E-1,-7.2850615E-2,-4.8150434E-4,-1.3048103E-1,-3.1165356E-2,-4.664445E-2,-2.9752185E-3,3.6611252E-3,-1.2339282E-2,2.141583E-2,6.0364124E-3,-6.2246653E-3,1.2975014E-5,2.4952784E-3,-5.154865E-4],"split_indices":[20,28,22,30,1,18,0,0,0,0,0,0,0,0,0],"split_type":[0,0,0,0,0,0,0,0,0,0,0,0,0,0,0],"sum_hessian":[6.3993098E4,3.199436E3,6.079366E4,1.9229846E3,1.2764513E3,1.9546578E4,4.1247082E4,1.4288336E3,4.9415106E2,2.122121E2,1.0642393E3,4.6236357E3,1.4922942E4,1.3201077E4,2.8046006E4],"tree_param":{"num_deleted":"0","num_feature":"31","num_nodes":"15","size_leaf_vector":"1"}},{"base_weights":[-1.5021267E-7,-5.154726E-3,9.479636E-3,-4.3899175E-3,-2.3883319E-1,-2.3969887E-2,2.168869E-2,4.549693E-4,-2.5408724E-3,-5.2295286E-2,-1.0120459E-2,4.3469886E-3,-4.290161E-3,4.880184E-3,-1.7788814E-3],"categories":[],"categories_nodes":[],"categories_segments":[],"categories_sizes":[],"default_left":[0,0,0,0,0,0,0,0,0,0,0,0,0,0,0],"id":57,"left_children":[1,3,5,7,9,11,13,-1,-1,-1,-1,-1,-1,-1,-1],"loss_changes":[3.1269238E0,7.4083576E0,9.204852E0,7.7635093E0,5.2878056E0,7.695037E0,1.7674294E1,0E0,0E0,0E0,0E0,0E0,0E0,0E0,0E0],"parents":[2147483647,0,0,1,1,2,2,3,3,4,4,5,5,6,6],"right_children":[2,4,6,8,10,12,14,-1,-1,-1,-1,-1,-1,-1,-1],"split_conditions":[8.926398E-3,4.7056813E-2,-9.963032E-3,1.2829003E-3,5.279145E-2,-6.8081934E-3,7.461512E-2,4.549693E-4,-2.5408724E-3,-5.2295286E-2,-1.0120459E-2,4.3469886E-3,-4.290161E-3,4.880184E-3,-1.7788814E-3],"split_indices":[2,3,24,1,4,7,20,0,0,0,0,0,0,0,0],"split_type":[0,0,0,0,0,0,0,0,0,0,0,0,0,0,0],"sum_hessian":[6.3992016E4,4.145248E4,2.2539533E4,4.1317254E4,1.3522765E2,6.0270464E3,1.6512486E4,2.898816E4,1.2329095E4,4.4128677E1,9.109896E1,1.3210652E3,4.7059814E3,9.789238E3,6.723248E3],"tree_param":{"num_deleted":"0","num_feature":"31","num_nodes":"15","size_leaf_vector":"1"}},{"base_weights":[-2.334316E-7,6.322418E-3,-7.639952E-3,-2.079447E-3,3.2140188E-2,-2.4603792E-2,3.4928047E-3,-8.943612E-4,4.903003E-3,-5.720932E-3,4.9289004E-3,2.070435E-3,-5.1317504E-3,1.1581509E-2,-1.7319445E-4],"categories":[],"categories_nodes":[],"categories_segments":[],"categories_sizes":[],"default_left":[0,0,0,0,0,0,0,0,0,0,0,0,0,0,0],"id":58,"left_children":[1,3,5,7,9,11,13,-1,-1,-1,-1,-1,-1,-1,-1],"loss_changes":[3.0909746E0,7.5950646E0,5.4725E0,9.267648E0,1.3172361E1,1.3896915E1,1.0267406E1,0E0,0E0,0E0,0E0,0E0,0E0,0E0,0E0],"parents":[2147483647,0,0,1,1,2,2,3,3,4,4,5,5,6,6],"right_children":[2,4,6,8,10,12,14,-1,-1,-1,-1,-1,-1,-1,-1],"split_conditions":[3.1987336E-2,1.6512336E-2,8.9880645E-2,5.8885112E-2,-8.305654E-3,2.673139E-2,-2.605924E-2,-8.943612E-4,4.903003E-3,-5.720932E-3,4.9289004E-3,2.070435E-3,-5.1317504E-3,1.1581509E-2,-1.7319445E-4],"split_indices":[20,17,22,21,0,26,2,0,0,0,0,0,0,0,0],"split_type":[0,0,0,0,0,0,0,0,0,0,0,0,0,0,0],"sum_hessian":[6.399099E4,3.501362E4,2.8977367E4,2.641681E4,8.596812E3,1.1481746E4,1.7495621E4,2.3289021E4,3.1277896E3,1.3842953E3,7.212516E3,4.258708E3,7.223038E3,7.7764813E2,1.6717973E4],"tree_param":{"num_deleted":"0","num_feature":"31","num_nodes":"15","size_leaf_vector":"1"}},{"base_weights":[-2.0021133E-7,1.6273897E-2,-2.8937235E-3,2.8798753E-2,-5.6134E-2,-2.4708176E-2,4.20211E-3,-2.7350793E-3,5.3595803E-3,1.340502E-2,-8.297544E-3,1.1425023E-3,-4.428921E-3,6.4274217E-3,1.6997922E-4],"categories":[],"categories_nodes":[],"categories_segments":[],"categories_sizes":[],"default_left":[0,0,0,0,0,0,0,0,0,0,0,0,0,0,0],"id":59,"left_children":[1,3,5,7,9,11,13,-1,-1,-1,-1,-1,-1,-1,-1],"loss_changes":[3.0132816E0,8.760588E0,8.409926E0,1.14665165E1,7.271973E0,9.434904E0,6.162427E0,0E0,0E0,0E0,0E0,0E0,0E0,0E0,0E0],"parents":[2147483647,0,0,1,1,2,2,3,3,4,4,5,5,6,6],"right_children":[2,4,6,8,10,12,14,-1,-1,-1,-1,-1,-1,-1,-1],"split_conditions":[-8.277866E-2,3.0318137E-2,-4.8150434E-4,-5.6735545E-2,-8.8477135E-3,-1.8605473E-2,-6.1571654E-2,-2.7350793E-3,5.3595803E-3,1.340502E-2,-8.297544E-3,1.1425023E-3,-4.428921E-3,6.4274217E-3,1.6997922E-4],"split_indices":[23,6,22,14,1,9,17,0,0,0,0,0,0,0,0],"split_type":[0,0,0,0,0,0,0,0,0,0,0,0,0,0,0],"sum_hessian":[6.399054E4,9.659942E3,5.4330598E4,8.235411E3,1.4245317E3,1.3335077E4,4.099552E4,2.5228223E3,5.712589E3,1.7618413E2,1.2483475E3,4.686677E3,8.6484E3,1.639389E3,3.9356133E4],"tree_param":{"num_deleted":"0","num_feature":"31","num_nodes":"15","size_leaf_vector":"1"}},{"base_weights":[-2.3035628E-7,-4.804238E-3,8.835028E-3,3.2021278E-3,-2.3599446E-2,1.6945546E-2,-4.357769E-2,5.1535447E-3,-4.0422697E-4,-1.9138454E-3,-1.5015696E-2,-2.304212E-3,3.464526E-3,4.5858655E-2,-4.7760154E-3],"categories":[],"categories_nodes":[],"categories_segments":[],"categories_sizes":[],"default_left":[0,0,0,0,0,0,0,0,0,0,0,0,0,0,0],"id":60,"left_children":[1,3,5,7,9,11,13,-1,-1,-1,-1,-1,-1,-1,-1],"loss_changes":[2.716011E0,6.2376256E0,9.580906E0,1.0178236E1,6.9908705E0,1.3814273E1,6.3434534E0,0E0,0E0,0E0,0E0,0E0,0E0,0E0,0E0],"parents":[2147483647,0,0,1,1,2,2,3,3,4,4,5,5,6,6],"right_children":[2,4,6,8,10,12,14,-1,-1,-1,-1,-1,-1,-1,-1],"split_conditions":[8.926398E-3,1.2829003E-3,2.0546335E-1,-8.762133E-2,2.2110254E-2,-9.963032E-3,-3.2560535E-2,5.1535447E-3,-4.0422697E-4,-1.9138454E-3,-1.5015696E-2,-2.304212E-3,3.464526E-3,4.5858655E-2,-4.7760154E-3],"split_indices":[2,1,22,20,0,24,24,0,0,0,0,0,0,0,0],"split_type":[0,0,0,0,0,0,0,0,0,0,0,0,0,0,0],"sum_hessian":[6.3989477E4,4.145117E4,2.2538307E4,2.9068566E4,1.2382604E4,1.9518021E4,3.020284E3,3.7890051E3,2.5279562E4,1.1960993E4,4.2160977E2,5.9885435E3,1.3529479E4,2.4947786E1,2.9953362E3],"tree_param":{"num_deleted":"0","num_feature":"31","num_nodes":"15","size_leaf_vector":"1"}},{"base_weights":[-2.5737464E-7,1.8767754E-2,-2.0989235E-3,-1.3109608E-2,6.15365E-2,-6.269412E-2,7.747602E-5,-3.470252E-3,1.0831395E-2,1.220953E-2,2.815659E-3,9.000005E-3,-1.0416808E-2,2.8044884E-3,-3.832788E-4],"categories":[],"categories_nodes":[],"categories_segments":[],"categories_sizes":[],"default_left":[0,0,0,0,0,0,0,0,0,0,0,0,0,0,0],"id":61,"left_children":[1,3,5,7,9,11,13,-1,-1,-1,-1,-1,-1,-1,-1],"loss_changes":[2.5203633E0,8.774057E0,7.590026E0,9.667744E0,5.5555773E0,1.2636881E1,6.0757484E0,0E0,0E0,0E0,0E0,0E0,0E0,0E0,0E0],"parents":[2147483647,0,0,1,1,2,2,3,3,4,4,5,5,6,6],"right_children":[2,4,6,8,10,12,14,-1,-1,-1,-1,-1,-1,-1,-1],"split_conditions":[-4.7661074E-2,-5.9906032E-2,-2.1912294E-2,2.5943118E-1,-5.5306975E-2,-4.7756236E-2,-8.277866E-2,-3.470252E-3,1.0831395E-2,1.220953E-2,2.815659E-3,9.000005E-3,-1.0416808E-2,2.8044884E-3,-3.832788E-4],"split_indices":[9,16,0,30,21,19,23,0,0,0,0,0,0,0,0],"split_type":[0,0,0,0,0,0,0,0,0,0,0,0,0,0,0],"sum_hessian":[6.398844E4,6.435638E3,5.7552805E4,3.687321E3,2.748317E3,1.9954553E3,5.5557348E4,3.1306018E3,5.567192E2,9.7657904E2,1.7717379E3,4.2622562E2,1.5692296E3,6.814924E3,4.8742426E4],"tree_param":{"num_deleted":"0","num_feature":"31","num_nodes":"15","size_leaf_vector":"1"}},{"base_weights":[-2.1466913E-7,-8.58719E-3,4.6698437E-3,-1.6079446E-2,2.853324E-2,3.2533035E-2,-3.3152138E-3,2.0486517E-4,-3.8751164E-3,8.272426E-3,-3.6815E-4,5.096858E-4,5.862647E-3,-2.222438E-3,5.441114E-4],"categories":[],"categories_nodes":[],"categories_segments":[],"categories_sizes":[],"default_left":[0,0,0,0,0,0,0,0,0,0,0,0,0,0,0],"id":62,"left_children":[1,3,5,7,9,11,13,-1,-1,-1,-1,-1,-1,-1,-1],"loss_changes":[2.566015E0,6.269E0,9.221454E0,7.708393E0,6.608589E0,6.6092997E0,5.333936E0,0E0,0E0,0E0,0E0,0E0,0E0,0E0,0E0],"parents":[2147483647,0,0,1,1,2,2,3,3,4,4,5,5,6,6],"right_children":[2,4,6,8,10,12,14,-1,-1,-1,-1,-1,-1,-1,-1],"split_conditions":[-5.8318153E-3,1.2375713E-1,-2.4227453E-3,-2.0297224E-2,-1.5136724E-3,-1.5734017E-2,1.6636908E-2,2.0486517E-4,-3.8751164E-3,8.272426E-3,-3.6815E-4,5.096858E-4,5.862647E-3,-2.222438E-3,5.441114E-4],"split_indices":[4,22,9,5,18,17,16,0,0,0,0,0,0,0,0],"split_type":[0,0,0,0,0,0,0,0,0,0,0,0,0,0,0],"sum_hessian":[6.3987723E4,2.2540969E4,4.1446754E4,1.8755438E4,3.7855312E3,9.232103E3,3.221465E4,1.0422057E4,8.333382E3,1.4113633E3,2.374168E3,4.500262E3,4.7318403E3,1.0196168E4,2.2018482E4],"tree_param":{"num_deleted":"0","num_feature":"31","num_nodes":"15","size_leaf_vector":"1"}},{"base_weights":[-1.4536211E-7,-1.5157334E-2,2.6939928E-3,6.1186254E-2,-2.7064536E-2,-4.3011986E-2,6.715481E-3,-2.8751919E-3,2.0467274E-2,-3.6431195E-3,1.4652001E-2,-1.0184991E-2,-2.3026327E-3,8.578288E-3,3.927662E-4],"categories":[],"categories_nodes":[],"categories_segments":[],"categories_sizes":[],"default_left":[0,0,0,0,0,0,0,0,0,0,0,0,0,0,0],"id":63,"left_children":[1,3,5,7,9,11,13,-1,-1,-1,-1,-1,-1,-1,-1],"loss_changes":[2.6129255E0,8.778497E0,9.986114E0,1.6814503E1,1.3582745E1,5.1665773E0,1.1007165E1,0E0,0E0,0E0,0E0,0E0,0E0,0E0,0E0],"parents":[2147483647,0,0,1,1,2,2,3,3,4,4,5,5,6,6],"right_children":[2,4,6,8,10,12,14,-1,-1,-1,-1,-1,-1,-1,-1],"split_conditions":[-1.0978849E-2,-6.982144E-2,-5.8216333E-2,6.496714E-2,2.6595914E-1,-3.041428E-2,-4.7661074E-2,-2.8751919E-3,2.0467274E-2,-3.6431195E-3,1.4652001E-2,-1.0184991E-2,-2.3026327E-3,8.578288E-3,3.927662E-4],"split_indices":[0,9,15,30,22,3,9,0,0,0,0,0,0,0,0],"split_type":[0,0,0,0,0,0,0,0,0,0,0,0,0,0,0],"sum_hessian":[6.398652E4,9.656902E3,5.4329617E4,1.3029536E3,8.353949E3,4.393667E3,4.993595E4,8.0092755E2,5.020261E2,7.926247E3,4.2770197E2,1.114011E3,3.279656E3,1.700715E3,4.8235234E4],"tree_param":{"num_deleted":"0","num_feature":"31","num_nodes":"15","size_leaf_vector":"1"}},{"base_weights":[-2.4663334E-8,2.8120248E-2,-1.479563E-3,9.547617E-3,1.06442854E-1,-2.200888E-2,2.8534355E-3,4.411865E-3,-5.323409E-3,7.987339E-3,3.116986E-2,-8.723526E-4,-1.0369997E-2,-3.4108188E-3,7.745546E-4],"categories":[],"categories_nodes":[],"categories_segments":[],"categories_sizes":[],"default_left":[0,0,0,0,0,0,0,0,0,0,0,0,0,0,0],"id":64,"left_children":[1,3,5,7,9,11,13,-1,-1,-1,-1,-1,-1,-1,-1],"loss_changes":[2.6621122E0,4.652416E0,5.4072227E0,5.611101E0,3.343235E0,1.1497566E1,9.075937E0,0E0,0E0,0E0,0E0,0E0,0E0,0E0,0E0],"parents":[2147483647,0,0,1,1,2,2,3,3,4,4,5,5,6,6],"right_children":[2,4,6,8,10,12,14,-1,-1,-1,-1,-1,-1,-1,-1],"split_conditions":[-1.24690376E-1,4.9576033E-2,-3.1787697E-2,-2.220446E-16,2.2341551E-2,1.394032E-2,-1.0978849E-2,4.411865E-3,-5.323409E-3,7.987339E-3,3.116986E-2,-8.723526E-4,-1.0369997E-2,-3.4108188E-3,7.745546E-4],"split_indices":[20,28,15,2,5,3,0,0,0,0,0,0,0,0,0],"split_type":[0,0,0,0,0,0,0,0,0,0,0,0,0,0,0],"sum_hessian":[6.3985367E4,3.1982908E3,6.078708E4,2.5852507E3,6.1304016E2,1.0593958E4,5.0193117E4,1.6671996E3,9.18051E2,5.427797E2,7.026047E1,9.11207E3,1.4818883E3,5.8668667E3,4.4326254E4],"tree_param":{"num_deleted":"0","num_feature":"31","num_nodes":"15","size_leaf_vector":"1"}},{"base_weights":[-2.7093133E-8,5.9104683E-3,-7.1411855E-3,-1.447624E-3,3.9535478E-2,1.7934212E-2,-1.7702328E-2,1.4440557E-4,-1.2212238E-2,5.247755E-3,-7.36904E-3,-6.913537E-4,6.485688E-3,-3.8053822E-3,1.4174093E-3],"categories":[],"categories_nodes":[],"categories_segments":[],"categories_sizes":[],"default_left":[0,0,0,0,0,0,0,0,0,0,0,0,0,0,0],"id":65,"left_children":[1,3,5,7,9,11,13,-1,-1,-1,-1,-1,-1,-1,-1],"loss_changes":[2.7006454E0,8.661753E0,7.6734743E0,1.00231085E1,9.210602E0,1.0011945E1,1.3226702E1,0E0,0E0,0E0,0E0,0E0,0E0,0E0,0E0],"parents":[2147483647,0,0,1,1,2,2,3,3,4,4,5,5,6,6],"right_children":[2,4,6,8,10,12,14,-1,-1,-1,-1,-1,-1,-1,-1],"split_conditions":[3.1987336E-2,4.5973152E-2,-2.9752185E-3,1.9882281E-1,2.0546335E-1,1.6943005E-1,1.7466083E-2,1.4440557E-4,-1.2212238E-2,5.247755E-3,-7.36904E-3,-6.913537E-4,6.485688E-3,-3.8053822E-3,1.4174093E-3],"split_indices":[20,21,0,23,22,23,3,0,0,0,0,0,0,0,0],"split_type":[0,0,0,0,0,0,0,0,0,0,0,0,0,0,0],"sum_hessian":[6.3984535E4,3.5008875E4,2.897566E4,2.8723393E4,6.285481E3,8.587143E3,2.0388518E4,2.8051213E4,6.721797E2,5.6407285E3,6.4475275E2,5.6141743E3,2.9729683E3,1.2443785E4,7.944733E3],"tree_param":{"num_deleted":"0","num_feature":"31","num_nodes":"15","size_leaf_vector":"1"}},{"base_weights":[2.5362084E-8,-1.9539893E-2,2.1903997E-3,2.693152E-2,-4.248216E-2,8.323694E-3,-1.0795324E-2,7.998123E-4,4.3047663E-2,-7.5574503E-3,-4.3405595E-5,4.900075E-3,1.4411066E-4,-5.0346497E-3,6.6171844E-5],"categories":[],"categories_nodes":[],"categories_segments":[],"categories_sizes":[],"default_left":[0,0,0,0,0,0,0,0,0,0,0,0,0,0,0],"id":66,"left_children":[1,3,5,7,9,11,13,-1,-1,-1,-1,-1,-1,-1,-1],"loss_changes":[2.7384963E0,6.87616E0,4.582349E0,1.6286798E1,6.0081186E0,1.0940319E1,8.363506E0,0E0,0E0,0E0,0E0,0E0,0E0,0E0,0E0],"parents":[2147483647,0,0,1,1,2,2,3,3,4,4,5,5,6,6],"right_children":[2,4,6,8,10,12,14,-1,-1,-1,-1,-1,-1,-1,-1],"split_conditions":[-3.041428E-2,-8.101504E-2,6.029906E-3,-4.749581E-3,8.276734E-2,-2.0297224E-2,-1.4919584E-2,7.998123E-4,4.3047663E-2,-7.5574503E-3,-4.3405595E-5,4.900075E-3,1.4411066E-4,-5.0346497E-3,6.6171844E-5],"split_indices":[3,22,0,21,24,5,15,0,0,0,0,0,0,0,0],"split_type":[0,0,0,0,0,0,0,0,0,0,0,0,0,0,0],"sum_hessian":[6.398395E4,6.449467E3,5.7534484E4,2.131646E3,4.317821E3,3.9077684E4,1.84568E4,2.0361161E3,9.552982E1,2.4162246E3,1.9015963E3,5.6551216E3,3.342256E4,4.1456133E3,1.43111875E4],"tree_param":{"num_deleted":"0","num_feature":"31","num_nodes":"15","size_leaf_vector":"1"}},{"base_weights":[-2.5017496E-8,3.7990804E-3,-1.1320331E-2,6.1618176E-4,6.823655E-2,-1.8186538E-2,2.126914E-2,-4.3106964E-4,3.339411E-3,1.1235616E-2,-3.343738E-3,-5.610435E-4,-7.578882E-3,-6.3613667E-3,4.4281846E-3],"categories":[],"categories_nodes":[],"categories_segments":[],"categories_sizes":[],"default_left":[0,0,0,0,0,0,0,0,0,0,0,0,0,0,0],"id":67,"left_children":[1,3,5,7,9,11,13,-1,-1,-1,-1,-1,-1,-1,-1],"loss_changes":[2.7516992E0,9.825305E0,3.5975096E0,7.3722315E0,1.0115124E1,9.619698E0,5.4651556E0,0E0,0E0,0E0,0E0,0E0,0E0,0E0,0E0],"parents":[2147483647,0,0,1,1,2,2,3,3,4,4,5,5,6,6],"right_children":[2,4,6,8,10,12,14,-1,-1,-1,-1,-1,-1,-1,-1],"split_conditions":[3.449448E-2,6.692097E-2,1.1149223E-1,2.2341551E-2,1.2929273E-1,8.568273E-2,3.158583E-2,-4.3106964E-4,3.339411E-3,1.1235616E-2,-3.343738E-3,-5.610435E-4,-7.578882E-3,-6.3613667E-3,4.4281846E-3],"split_indices":[11,18,18,5,20,19,29,0,0,0,0,0,0,0,0],"split_type":[0,0,0,0,0,0,0,0,0,0,0,0,0,0,0],"sum_hessian":[6.398253E4,4.7905426E4,1.6077105E4,4.565051E4,2.2549138E3,1.3279315E4,2.7977905E3,3.968537E4,5.9651416E3,1.5725386E3,6.823753E2,1.0899636E4,2.3796792E3,5.967322E2,2.2010583E3],"tree_param":{"num_deleted":"0","num_feature":"31","num_nodes":"15","size_leaf_vector":"1"}},{"base_weights":[-4.9453632E-8,-8.285356E-3,4.5067915E-3,-1.1435338E-2,6.798601E-2,2.3478376E-2,-3.5371264E-3,-8.1094634E-4,-8.788448E-3,1.2643548E-2,-1.1794683E-2,3.370978E-3,-4.1113268E-3,-3.0309835E-3,6.5240904E-4],"categories":[],"categories_nodes":[],"categories_segments":[],"categories_sizes":[],"default_left":[0,0,0,0,0,0,0,0,0,0,0,0,0,0,0],"id":68,"left_children":[1,3,5,7,9,11,13,-1,-1,-1,-1,-1,-1,-1,-1],"loss_changes":[2.3891234E0,5.415722E0,6.3240337E0,5.50414E0,9.716147E0,8.154345E0,7.8389206E0,0E0,0E0,0E0,0E0,0E0,0E0,0E0,0E0],"parents":[2147483647,0,0,1,1,2,2,3,3,4,4,5,5,6,6],"right_children":[2,4,6,8,10,12,14,-1,-1,-1,-1,-1,-1,-1,-1],"split_conditions":[-5.454301E-3,8.926398E-3,2.1928146E-3,4.723808E-1,1.2271016E-2,2.2610718E-2,1.519161E-2,-8.1094634E-4,-8.788448E-3,1.2643548E-2,-1.1794683E-2,3.370978E-3,-4.1113268E-3,-3.0309835E-3,6.5240904E-4],"split_indices":[3,2,9,27,0,2,15,0,0,0,0,0,0,0,0],"split_type":[0,0,0,0,0,0,0,0,0,0,0,0,0,0,0],"sum_hessian":[6.3982E4,2.2541697E4,4.1440305E4,2.1647656E4,8.9404114E2,1.233893E4,2.9101373E4,2.074515E4,9.025056E2,6.8021136E2,2.1382983E2,1.0651688E4,1.687242E3,7.949064E3,2.115231E4],"tree_param":{"num_deleted":"0","num_feature":"31","num_nodes":"15","size_leaf_vector":"1"}},{"base_weights":[-1.6589444E-8,2.8766397E-2,-1.5274807E-3,-3.6608674E-2,5.696494E-2,-3.8163062E-2,5.201278E-4,-5.6868214E-3,1.5252811E-2,1.3475619E-2,1.23249E-3,-7.923294E-3,9.1567E-3,5.665898E-4,-1.3402518E-3],"categories":[],"categories_nodes":[],"categories_segments":[],"categories_sizes":[],"default_left":[0,0,0,0,0,0,0,0,0,0,0,0,0,0,0],"id":69,"left_children":[1,3,5,7,9,11,13,-1,-1,-1,-1,-1,-1,-1,-1],"loss_changes":[2.8113046E0,5.947115E0,4.557557E0,3.725171E0,7.82675E0,1.7134474E1,4.1222568E0,0E0,0E0,0E0,0E0,0E0,0E0,0E0,0E0],"parents":[2147483647,0,0,1,1,2,2,3,3,4,4,5,5,6,6],"right_children":[2,4,6,8,10,12,14,-1,-1,-1,-1,-1,-1,-1,-1],"split_conditions":[-3.1165356E-2,-7.3153816E-2,-2.1158038E-2,-1.9326702E-2,-5.341464E-2,1.8121962E-1,3.449448E-2,-5.6868214E-3,1.5252811E-2,1.3475619E-2,1.23249E-3,-7.923294E-3,9.1567E-3,5.665898E-4,-1.3402518E-3],"split_indices":[1,30,1,2,12,26,11,0,0,0,0,0,0,0,0],"split_type":[0,0,0,0,0,0,0,0,0,0,0,0,0,0,0],"sum_hessian":[6.3981027E4,3.2260225E3,6.0755008E4,9.7216656E2,2.2538557E3,3.215931E3,5.7539074E4,8.7810736E2,9.405918E1,8.2178516E2,1.4320707E3,2.4426409E3,7.7329E2,4.2011676E4,1.5527398E4],"tree_param":{"num_deleted":"0","num_feature":"31","num_nodes":"15","size_leaf_vector":"1"}},{"base_weights":[1.7560124E-8,2.0647016E-3,-1.8391475E-2,-1.3622572E-3,2.4256319E-2,2.860922E-2,-4.583974E-2,1.0696119E-4,-2.8877307E-3,3.18039E-3,-9.429357E-3,-8.056476E-3,7.665649E-3,-6.4005936E-3,6.6244053E-3],"categories":[],"categories_nodes":[],"categories_segments":[],"categories_sizes":[],"default_left":[0,0,0,0,0,0,0,0,0,0,0,0,0,0,0],"id":70,"left_children":[1,3,5,7,9,11,13,-1,-1,-1,-1,-1,-1,-1,-1],"loss_changes":[2.429469E0,4.3745284E0,8.330849E0,3.3340938E0,6.884877E0,1.2488611E1,8.300843E0,0E0,0E0,0E0,0E0,0E0,0E0,0E0,0E0],"parents":[2147483647,0,0,1,1,2,2,3,3,4,4,5,5,6,6],"right_children":[2,4,6,8,10,12,14,-1,-1,-1,-1,-1,-1,-1,-1],"split_conditions":[3.7257317E-1,3.418935E-1,-1.6379134E-3,6.353536E-2,5.560836E-1,2.2474447E-1,5.279145E-2,1.0696119E-4,-2.8877307E-3,3.18039E-3,-9.429357E-3,-8.056476E-3,7.665649E-3,-6.4005936E-3,6.6244053E-3],"split_indices":[27,30,0,11,29,24,4,0,0,0,0,0,0,0,0],"split_type":[0,0,0,0,0,0,0,0,0,0,0,0,0,0,0],"sum_hessian":[6.3979504E4,5.7521918E4,6.457583E3,4.9827297E4,7.6946216E3,2.3808184E3,4.0767644E3,4.5781023E4,4.0462751E3,7.234059E3,4.6056262E2,7.275851E2,1.6532333E3,3.5081711E3,5.685934E2],"tree_param":{"num_deleted":"0","num_feature":"31","num_nodes":"15","size_leaf_vector":"1"}},{"base_weights":[3.927094E-8,1.4303796E-2,-2.5429935E-3,-2.9906485E-2,3.0910652E-2,-2.1079568E-2,3.486158E-3,3.326523E-3,-7.675747E-3,4.6541747E-3,-3.7306198E-3,7.631236E-4,-3.7355365E-3,2.2273015E-3,-5.355385E-4],"categories":[],"categories_nodes":[],"categories_segments":[],"categories_sizes":[],"default_left":[0,0,0,0,0,0,0,0,0,0,0,0,0,0,0],"id":71,"left_children":[1,3,5,7,9,11,13,-1,-1,-1,-1,-1,-1,-1,-1],"loss_changes":[2.3272028E0,7.090513E0,6.070868E0,7.804943E0,7.4859214E0,6.2298746E0,6.8084326E0,0E0,0E0,0E0,0E0,0E0,0E0,0E0,0E0],"parents":[2147483647,0,0,1,1,2,2,3,3,4,4,5,5,6,6],"right_children":[2,4,6,8,10,12,14,-1,-1,-1,-1,-1,-1,-1,-1],"split_conditions":[-8.277866E-2,-5.6735545E-2,-4.8150434E-4,-6.332039E-2,3.0318137E-2,-1.9951351E-2,-2.9752185E-3,3.326523E-3,-7.675747E-3,4.6541747E-3,-3.7306198E-3,7.631236E-4,-3.7355365E-3,2.2273015E-3,-5.355385E-4],"split_indices":[23,14,22,7,6,11,0,0,0,0,0,0,0,0,0],"split_type":[0,0,0,0,0,0,0,0,0,0,0,0,0,0,0],"sum_hessian":[6.397822E4,9.65755E3,5.4320668E4,2.6371108E3,7.020439E3,1.333189E4,4.0988777E4,1.1229613E3,1.5141495E3,5.7116753E3,1.3087637E3,4.8233726E3,8.508518E3,1.3117084E4,2.7871695E4],"tree_param":{"num_deleted":"0","num_feature":"31","num_nodes":"15","size_leaf_vector":"1"}},{"base_weights":[1.3609679E-8,-5.105129E-3,6.1746193E-3,-2.47193E-3,-7.1843565E-2,-7.408471E-2,9.498973E-3,1.3861423E-3,-1.4834707E-3,3.5212159E-3,-1.1508404E-2,-4.900924E-3,-3.9688416E-2,5.0495653E-3,-1.3828774E-4],"categories":[],"categories_nodes":[],"categories_segments":[],"categories_sizes":[],"default_left":[0,0,0,0,0,0,0,0,0,0,0,0,0,0,0],"id":72,"left_children":[1,3,5,7,9,11,13,-1,-1,-1,-1,-1,-1,-1,-1],"loss_changes":[2.0166945E0,6.1544952E0,7.7256336E0,6.8032794E0,6.153681E0,9.321782E0,1.2403862E1,0E0,0E0,0E0,0E0,0E0,0E0,0E0,0E0],"parents":[2147483647,0,0,1,1,2,2,3,3,4,4,5,5,6,6],"right_children":[2,4,6,8,10,12,14,-1,-1,-1,-1,-1,-1,-1,-1],"split_conditions":[1.7215906E-2,2.2110254E-2,-1.6958083E-3,-1.9951351E-2,-7.3153816E-2,4.2690986E-1,1.21423155E-2,1.3861423E-3,-1.4834707E-3,3.5212159E-3,-1.1508404E-2,-4.900924E-3,-3.9688416E-2,5.0495653E-3,-1.3828774E-4],"split_indices":[18,0,15,11,30,26,11,0,0,0,0,0,0,0,0],"split_type":[0,0,0,0,0,0,0,0,0,0,0,0,0,0,0],"sum_hessian":[6.3976867E4,3.5021344E4,2.8955523E4,3.3692008E4,1.3293353E3,1.1516411E3,2.7803883E4,1.4515085E4,1.9176924E4,3.8245212E2,9.468832E2,1.0686287E3,8.301242E1,5.8320405E3,2.1971842E4],"tree_param":{"num_deleted":"0","num_feature":"31","num_nodes":"15","size_leaf_vector":"1"}},{"base_weights":[-2.9433572E-8,-8.340547E-3,4.535588E-3,-1.4732888E-2,2.3336891E-2,1.6003527E-2,-4.904182E-3,-1.0129735E-3,-8.599728E-3,7.883028E-3,-3.6754997E-3,2.54703E-3,-5.224533E-3,-3.1217723E-3,1.49861E-3],"categories":[],"categories_nodes":[],"categories_segments":[],"categories_sizes":[],"default_left":[0,0,0,0,0,0,0,0,0,0,0,0,0,0,0],"id":73,"left_children":[1,3,5,7,9,11,13,-1,-1,-1,-1,-1,-1,-1,-1],"loss_changes":[2.4201577E0,4.5632596E0,4.4860945E0,6.151243E0,1.2618327E1,1.2088549E1,1.1896545E1,0E0,0E0,0E0,0E0,0E0,0E0,0E0,0E0],"parents":[2147483647,0,0,1,1,2,2,3,3,4,4,5,5,6,6],"right_children":[2,4,6,8,10,12,14,-1,-1,-1,-1,-1,-1,-1,-1],"split_conditions":[-5.8318153E-3,1.2375713E-1,1.6077265E-2,1.9276439E-1,-2.9752185E-3,2.6710674E-2,1.394032E-2,-1.0129735E-3,-8.599728E-3,7.883028E-3,-3.6754997E-3,2.54703E-3,-5.224533E-3,-3.1217723E-3,1.49861E-3],"split_indices":[4,22,10,24,0,3,3,0,0,0,0,0,0,0,0],"split_type":[0,0,0,0,0,0,0,0,0,0,0,0,0,0,0],"sum_hessian":[6.3975582E4,2.2535393E4,4.1440188E4,1.875145E4,3.7839443E3,1.8710127E4,2.2730062E4,1.7613732E4,1.137717E3,1.9672433E3,1.816701E3,1.643099E4,2.2791367E3,9.785063E3,1.2944998E4],"tree_param":{"num_deleted":"0","num_feature":"31","num_nodes":"15","size_leaf_vector":"1"}},{"base_weights":[1.2314235E-8,-5.144667E-3,7.6513975E-3,-7.763862E-4,-4.662687E-2,5.9022244E-2,1.451529E-3,1.3000044E-3,-1.1301151E-3,-2.0386283E-3,-1.1791518E-2,-6.0688853E-3,7.704927E-3,-2.1249792E-3,1.0704648E-3],"categories":[],"categories_nodes":[],"categories_segments":[],"categories_sizes":[],"default_left":[0,0,0,0,0,0,0,0,0,0,0,0,0,0,0],"id":74,"left_children":[1,3,5,7,9,11,13,-1,-1,-1,-1,-1,-1,-1,-1],"loss_changes":[2.5182796E0,6.931728E0,8.191937E0,5.0180645E0,6.8175397E0,5.977598E0,4.821052E0,0E0,0E0,0E0,0E0,0E0,0E0,0E0,0E0],"parents":[2147483647,0,0,1,1,2,2,3,3,4,4,5,5,6,6],"right_children":[2,4,6,8,10,12,14,-1,-1,-1,-1,-1,-1,-1,-1],"split_conditions":[1.1719714E-2,1.293523E-2,6.030791E-3,-4.749581E-3,9.106158E-3,-1.263251E-1,6.496714E-2,1.3000044E-3,-1.1301151E-3,-2.0386283E-3,-1.1791518E-2,-6.0688853E-3,7.704927E-3,-2.1249792E-3,1.0704648E-3],"split_indices":[6,7,8,21,1,29,30,0,0,0,0,0,0,0,0],"split_type":[0,0,0,0,0,0,0,0,0,0,0,0,0,0,0],"sum_hessian":[6.39743E4,3.825333E4,2.5720975E4,3.4608844E4,3.6444822E3,2.7699268E3,2.2951049E4,1.4988974E4,1.9619871E4,2.663918E3,9.805642E2,3.6252527E2,2.4074016E3,6.645987E3,1.6305062E4],"tree_param":{"num_deleted":"0","num_feature":"31","num_nodes":"15","size_leaf_vector":"1"}},{"base_weights":[6.428765E-10,-1.4644025E-2,2.6024184E-3,4.7856275E-2,-3.16551E-2,-3.226836E-2,5.634122E-3,-3.54791E-3,1.5932322E-2,-4.1155536E-3,1.3031833E-2,-2.0504203E-3,-1.3850616E-2,2.7010518E-3,-1.9904789E-4],"categories":[],"categories_nodes":[],"categories_segments":[],"categories_sizes":[],"default_left":[0,0,0,0,0,0,0,0,0,0,0,0,0,0,0],"id":75,"left_children":[1,3,5,7,9,11,13,-1,-1,-1,-1,-1,-1,-1,-1],"loss_changes":[2.4380305E0,1.026344E1,5.742632E0,1.9184792E1,1.167668E1,5.4302726E0,8.14532E0,0E0,0E0,0E0,0E0,0E0,0E0,0E0,0E0],"parents":[2147483647,0,0,1,1,2,2,3,3,4,4,5,5,6,6],"right_children":[2,4,6,8,10,12,14,-1,-1,-1,-1,-1,-1,-1,-1],"split_conditions":[-1.0978849E-2,-5.8216333E-2,-5.6735545E-2,3.5776094E-2,2.6595914E-1,-1.2845477E-2,3.465216E-3,-3.54791E-3,1.5932322E-2,-4.1155536E-3,1.3031833E-2,-2.0504203E-3,-1.3850616E-2,2.7010518E-3,-1.9904789E-4],"split_indices":[0,15,14,30,22,10,26,0,0,0,0,0,0,0,0],"split_type":[0,0,0,0,0,0,0,0,0,0,0,0,0,0,0],"sum_hessian":[6.3973727E4,9.653374E3,5.432035E4,2.0652927E3,7.588081E3,4.344919E3,4.9975434E4,1.1817717E3,8.83521E2,7.1676665E3,4.2041446E2,3.9117537E3,4.33165E2,1.3138954E4,3.683648E4],"tree_param":{"num_deleted":"0","num_feature":"31","num_nodes":"15","size_leaf_vector":"1"}},{"base_weights":[6.0758914E-8,-1.7924363E-2,2.0089834E-3,-1.5547995E-2,-4.3493703E-1,1.8052641E-2,-1.9417289E-3,-7.543738E-4,-1.3030459E-2,-1.6217709E-2,-7.5023405E-2,-1.6179823E-4,5.852552E-3,-3.824227E-3,1.2912219E-4],"categories":[],"categories_nodes":[],"categories_segments":[],"categories_sizes":[],"default_left":[0,0,0,0,0,0,0,0,0,0,0,0,0,0,0],"id":76,"left_children":[1,3,5,7,9,11,13,-1,-1,-1,-1,-1,-1,-1,-1],"loss_changes":[2.303577E0,6.3891077E0,3.6461794E0,5.8885474E0,3.1417694E0,9.049179E0,5.417103E0,0E0,0E0,0E0,0E0,0E0,0E0,0E0,0E0],"parents":[2147483647,0,0,1,1,2,2,3,3,4,4,5,5,6,6],"right_children":[2,4,6,8,10,12,14,-1,-1,-1,-1,-1,-1,-1,-1],"split_conditions":[-3.041428E-2,6.888382E-2,-1.9951351E-2,2.3978378E-1,8.4059045E-2,1.2918533E-1,-1.3691312E-2,-7.543738E-4,-1.3030459E-2,-1.6217709E-2,-7.5023405E-2,-1.6179823E-4,5.852552E-3,-3.824227E-3,1.2912219E-4],"split_indices":[3,7,11,23,29,27,12,0,0,0,0,0,0,0,0],"split_type":[0,0,0,0,0,0,0,0,0,0,0,0,0,0,0],"sum_hessian":[6.397264E4,6.4472915E3,5.7525348E4,6.4107593E3,3.6532036E1,1.1366506E4,4.6158844E4,5.9927646E3,4.1799457E2,1.958729E1,1.6944744E1,7.6489595E3,3.7175461E3,3.7747556E3,4.238409E4],"tree_param":{"num_deleted":"0","num_feature":"31","num_nodes":"15","size_leaf_vector":"1"}},{"base_weights":[6.4172795E-8,2.51447E-2,-1.3347185E-3,-4.238567E-3,7.9024516E-2,-1.9630427E-2,2.713281E-3,1.6019207E-4,-5.7689466E-2,1.744138E-2,-9.712311E-4,-1.8285125E-3,-7.891598E-2,-2.9988573E-3,6.420906E-4],"categories":[],"categories_nodes":[],"categories_segments":[],"categories_sizes":[],"default_left":[0,0,0,0,0,0,0,0,0,0,0,0,0,0,0],"id":77,"left_children":[1,3,5,7,9,11,13,-1,-1,-1,-1,-1,-1,-1,-1],"loss_changes":[2.1470723E0,5.105274E0,4.4990134E0,6.979262E0,9.632612E0,1.1393507E1,6.031008E0,0E0,0E0,0E0,0E0,0E0,0E0,0E0,0E0],"parents":[2147483647,0,0,1,1,2,2,3,3,4,4,5,5,6,6],"right_children":[2,4,6,8,10,12,14,-1,-1,-1,-1,-1,-1,-1,-1],"split_conditions":[-3.1165356E-2,1.4551495E-1,-3.1787697E-2,2.7800217E-1,-3.068315E-2,2.208206E-2,-1.0978849E-2,1.6019207E-4,-5.7689466E-2,1.744138E-2,-9.712311E-4,-1.8285125E-3,-7.891598E-2,-2.9988573E-3,6.420906E-4],"split_indices":[1,28,15,29,14,16,0,0,0,0,0,0,0,0,0],"split_type":[0,0,0,0,0,0,0,0,0,0,0,0,0,0,0],"sum_hessian":[6.397212E4,3.2247266E3,6.0747395E4,2.0867312E3,1.1379954E3,1.1005579E4,4.9741816E4,2.0656636E3,2.1067587E1,5.484398E2,5.895555E2,1.0986372E4,1.9206507E1,5.065275E3,4.4676543E4],"tree_param":{"num_deleted":"0","num_feature":"31","num_nodes":"15","size_leaf_vector":"1"}},{"base_weights":[1.5090743E-7,5.6378013E-3,-6.8110228E-3,-2.0187765E-2,1.2377975E-2,3.0991169E-2,-1.2497217E-2,2.4305268E-3,-4.1601323E-3,1.6111737E-3,-5.814114E-3,8.434295E-3,-1.1586876E-3,-8.14534E-3,-7.3669764E-4],"categories":[],"categories_nodes":[],"categories_segments":[],"categories_sizes":[],"default_left":[0,0,0,0,0,0,0,0,0,0,0,0,0,0,0],"id":78,"left_children":[1,3,5,7,9,11,13,-1,-1,-1,-1,-1,-1,-1,-1],"loss_changes":[2.4564354E0,6.0925603E0,6.227214E0,6.9019194E0,7.308383E0,8.604746E0,8.9086075E0,0E0,0E0,0E0,0E0,0E0,0E0,0E0,0E0],"parents":[2147483647,0,0,1,1,2,2,3,3,4,4,5,5,6,6],"right_children":[2,4,6,8,10,12,14,-1,-1,-1,-1,-1,-1,-1,-1],"split_conditions":[3.1987336E-2,-1.9326702E-2,-1.0959923E-2,-3.1165356E-2,1.9882281E-1,1.8199788E-2,-4.8150434E-4,2.4305268E-3,-4.1601323E-3,1.6111737E-3,-5.814114E-3,8.434295E-3,-1.1586876E-3,-8.14534E-3,-7.3669764E-4],"split_indices":[20,2,27,1,23,12,22,0,0,0,0,0,0,0,0],"split_type":[0,0,0,0,0,0,0,0,0,0,0,0,0,0,0],"sum_hessian":[6.397132E4,3.500088E4,2.8970441E4,7.244177E3,