{"learner":{"attributes":{"scikit_learn":"{\"_estimator_type\": \"classifier\"}"},"feature_names":["R1","R2","R3","R4","R5","R6","R7","R8","R9","R10","R11","R12","R13","R14","R15","R16","R17","R18","R19","R20","R40","R60","R80","R100","R120","R140","R160","R180","R200","R220","R240"],"feature_types":["float","float","float","float","float","float","float","float","float","float","float","float","float","float","float","float","float","float","float","float","float","float","float","float","float","float","float","float","float","float","float"],"gradient_booster":{"model":{"cats":{"enc":[],"feature_segments":[],"sorted_idx":[]},"gbtree_model_param":{"num_parallel_tree":"1","num_trees":"100"},"iteration_indptr":[0,1,2,3,4,5,6,7,8,9,10,11,12,13,14,15,16,17,18,19,20,21,22,23,24,25,26,27,28,29,30,31,32,33,34,35,36,37,38,39,40,41,42,43,44,45,46,47,48,49,50,51,52,53,54,55,56,57,58,59,60,61,62,63,64,65,66,67,68,69,70,71,72,73,74,75,76,77,78,79,80,81,82,83,84,85,86,87,88,89,90,91,92,93,94,95,96,97,98,99,100],"tree_info":[0,0,0,0,0,0,0,0,0,0,0,0,0,0,0,0,0,0,0,0,0,0,0,0,0,0,0,0,0,0,0,0,0,0,0,0,0,0,0,0,0,0,0,0,0,0,0,0,0,0,0,0,0,0,0,0,0,0,0,0,0,0,0,0,0,0,0,0,0,0,0,0,0,0,0,0,0,0,0,0,0,0,0,0,0,0,0,0,0,0,0,0,0,0,0,0,0,0,0,0],"trees":[{"base_weights":[2.8851426E-8,-3.0329144E-2,3.0704383E-2,-2.1798618E-2,-1.1552526E-1,5.6621075E-2,-2.746807E-2,-5.8770496E-3,-9.6995675E-4,5.6126732E-3,-1.6094241E-2,6.5519153E-3,-1.8869838E-2,-6.000302E-3,5.7840375E-3],"categories":[],"categories_nodes":[],"categories_segments":[],"categories_sizes":[],"default_left":[0,0,0,0,0,0,0,0,0,0,0,0,0,0,0],"id":0,"left_children":[1,3,5,7,9,11,13,-1,-1,-1,-1,-1,-1,-1,-1],"loss_changes":[5.9611748E1,2.3404446E1,4.7957924E1,1.3094302E1,2.28499E1,4.8036224E1,2.721104E1,0E0,0E0,0E0,0E0,0E0,0E0,0E0,0E0],"parents":[2147483647,0,0,1,1,2,2,3,3,4,4,5,5,6,6],"right_children":[2,4,6,8,10,12,14,-1,-1,-1,-1,-1,-1,-1,-1],"split_conditions":[6.982443E-2,6.6069745E-2,5.0677728E-2,-5.2915357E-2,-6.2166676E-2,2.466503E-2,4.0674004E-1,-5.8770496E-3,-9.6995675E-4,5.6126732E-3,-1.6094241E-2,6.5519153E-3,-1.8869838E-2,-6.000302E-3,5.7840375E-3],"split_indices":[27,10,18,13,20,0,30,0,0,0,0,0,0,0,0],"split_type":[0,0,0,0,0,0,0,0,0,0,0,0,0,0,0],"sum_hessian":[6.401346E4,3.220348E4,3.180998E4,2.9272482E4,2.9309983E3,2.2005986E4,9.803994E3,7.2174956E3,2.2054986E4,6.1324963E2,2.3177485E3,2.1235738E4,7.702495E2,7.0972456E3,2.7067483E3],"tree_param":{"num_deleted":"0","num_feature":"31","num_nodes":"15","size_leaf_vector":"1"}},{"base_weights":[9.503681E-8,1.5499256E-2,-4.618888E-2,-1.6903535E-2,5.3782858E-2,-6.8048865E-2,2.376612E-2,-5.320363E-3,-2.5040057E-4,6.279765E-3,-6.0208444E-3,-1.0255404E-3,-9.409035E-3,5.7521112E-2,1.7429788E-3],"categories":[],"categories_nodes":[],"categories_segments":[],"categories_sizes":[],"default_left":[0,0,0,0,0,0,0,0,0,0,0,0,0,0,0],"id":1,"left_children":[1,3,5,7,9,11,13,-1,-1,-1,-1,-1,-1,-1,-1],"loss_changes":[4.5826187E1,5.9456467E1,2.4594753E1,1.3568659E1,2.2577614E1,1.8442642E1,1.3379824E1,0E0,0E0,0E0,0E0,0E0,0E0,0E0,0E0],"parents":[2147483647,0,0,1,1,2,2,3,3,4,4,5,5,6,6],"right_children":[2,4,6,8,10,12,14,-1,-1,-1,-1,-1,-1,-1,-1],"split_conditions":[5.242086E-2,6.982443E-2,2.9269776E-1,-5.6181297E-2,2.5863154E-2,-3.7961162E-4,-2.7380608E-2,-5.320363E-3,-2.5040057E-4,6.279765E-3,-6.0208444E-3,-1.0255404E-3,-9.409035E-3,5.7521112E-2,1.7429788E-3],"split_indices":[19,27,28,15,1,1,12,0,0,0,0,0,0,0,0],"split_type":[0,0,0,0,0,0,0,0,0,0,0,0,0,0,0],"sum_hessian":[6.401286E4,4.792961E4,1.6083248E4,2.5958576E4,2.1971033E4,1.225403E4,3.829218E3,7.3726636E3,1.8585914E4,2.0360834E4,1.6101992E3,3.806444E3,8.447586E3,4.3499493E1,3.7857185E3],"tree_param":{"num_deleted":"0","num_feature":"31","num_nodes":"15","size_leaf_vector":"1"}},{"base_weights":[-2.8833606E-8,-2.1057481E-2,3.1223776E-2,-9.400596E-3,-6.793463E-2,8.167916E-2,-3.1937456E-3,-4.5807506E-3,3.168347E-4,-5.030838E-3,-2.2127528E-2,1.015165E-2,-1.6943809E-2,2.1580493E-3,-3.98417E-3],"categories":[],"categories_nodes":[],"categories_segments":[],"categories_sizes":[],"default_left":[0,0,0,0,0,0,0,0,0,0,0,0,0,0,0],"id":2,"left_children":[1,3,5,7,9,11,13,-1,-1,-1,-1,-1,-1,-1,-1],"loss_changes":[4.2087284E1,2.0890207E1,4.4771965E1,1.4009878E1,2.0577393E1,5.2082214E1,1.3915777E1,0E0,0E0,0E0,0E0,0E0,0E0,0E0,0E0],"parents":[2147483647,0,0,1,1,2,2,3,3,4,4,5,5,6,6],"right_children":[2,4,6,8,10,12,14,-1,-1,-1,-1,-1,-1,-1,-1],"split_conditions":[1.1738345E-1,5.242086E-2,7.0255194E-3,-5.2915357E-2,4.43664E-2,1.7719455E-2,4.578285E-2,-4.5807506E-3,3.168347E-4,-5.030838E-3,-2.2127528E-2,1.015165E-2,-1.6943809E-2,2.1580493E-3,-3.98417E-3],"split_indices":[27,19,9,13,2,0,11,0,0,0,0,0,0,0,0],"split_type":[0,0,0,0,0,0,0,0,0,0,0,0,0,0,0],"sum_hessian":[6.4011684E4,3.822954E4,2.5782145E4,3.0616238E4,7.6133022E3,1.0455134E4,1.5327012E4,7.8572144E3,2.2759023E4,6.82839E3,7.8491235E2,9.689685E3,7.654494E2,9.144962E3,6.1820493E3],"tree_param":{"num_deleted":"0","num_feature":"31","num_nodes":"15","size_leaf_vector":"1"}},{"base_weights":[-4.5320363E-8,-1.1712441E-2,4.659246E-2,-3.616317E-3,-9.1411546E-2,1.1290489E-1,6.6124587E-3,-9.586011E-6,-9.698868E-3,-4.380912E-3,-1.4818432E-2,3.155766E-2,1.0031051E-2,-8.065375E-3,2.2275008E-3],"categories":[],"categories_nodes":[],"categories_segments":[],"categories_sizes":[],"default_left":[0,0,0,0,0,0,0,0,0,0,0,0,0,0,0],"id":3,"left_children":[1,3,5,7,9,11,13,-1,-1,-1,-1,-1,-1,-1,-1],"loss_changes":[3.493091E1,3.3005756E1,3.4089966E1,1.5263668E1,1.274778E1,1.234523E1,1.0964527E1,0E0,0E0,0E0,0E0,0E0,0E0,0E0,0E0],"parents":[2147483647,0,0,1,1,2,2,3,3,4,4,5,5,6,6],"right_children":[2,4,6,8,10,12,14,-1,-1,-1,-1,-1,-1,-1,-1],"split_conditions":[2.4919428E-1,6.6069745E-2,7.630997E-3,3.558161E-2,9.372782E-2,-6.7925595E-2,3.9714813E-2,-9.586011E-6,-9.698868E-3,-4.380912E-3,-1.4818432E-2,3.155766E-2,1.0031051E-2,-8.065375E-3,2.2275008E-3],"split_indices":[28,10,10,1,19,5,21,0,0,0,0,0,0,0,0],"split_type":[0,0,0,0,0,0,0,0,0,0,0,0,0,0,0],"sum_hessian":[6.4010035E4,5.1151582E4,1.2858454E4,4.6434586E4,4.716994E3,4.8364775E3,8.0219766E3,4.4747453E4,1.687132E3,2.5657131E3,2.151281E3,2.8296356E2,4.553514E3,1.220695E3,6.8012812E3],"tree_param":{"num_deleted":"0","num_feature":"31","num_nodes":"15","size_leaf_vector":"1"}},{"base_weights":[-1.29352635E-8,1.2661274E-2,-3.762243E-2,-6.1887708E-3,4.5173403E-2,-7.8582175E-2,-1.9188702E-2,-1.0611777E-4,-9.981087E-3,7.077223E-3,-2.7494186E-3,2.5698403E-3,-1.1947874E-2,2.772322E-3,-3.3839084E-3],"categories":[],"categories_nodes":[],"categories_segments":[],"categories_sizes":[],"default_left":[0,0,0,0,0,0,0,0,0,0,0,0,0,0,0],"id":4,"left_children":[1,3,5,7,9,11,13,-1,-1,-1,-1,-1,-1,-1,-1],"loss_changes":[3.0490381E1,2.9350506E1,1.2169123E1,1.4552972E1,3.269547E1,2.1333084E1,7.6390543E0,0E0,0E0,0E0,0E0,0E0,0E0,0E0,0E0],"parents":[2147483647,0,0,1,1,2,2,3,3,4,4,5,5,6,6],"right_children":[2,4,6,8,10,12,14,-1,-1,-1,-1,-1,-1,-1,-1],"split_conditions":[2.9674685E-2,6.701598E-2,-7.2578285E-3,3.237012E-2,5.242086E-2,1.7872088E-3,3.390402E-2,-1.0611777E-4,-9.981087E-3,7.077223E-3,-2.7494186E-3,2.5698403E-3,-1.1947874E-2,2.772322E-3,-3.3839084E-3],"split_indices":[7,22,27,2,19,1,9,0,0,0,0,0,0,0,0],"split_type":[0,0,0,0,0,0,0,0,0,0,0,0,0,0,0],"sum_hessian":[6.40086E4,4.7891426E4,1.6117176E4,3.0315154E4,1.7576271E4,5.0022266E3,1.1114949E4,2.8741035E4,1.5741191E3,1.2997576E4,4.5786953E3,1.4091328E3,3.5930938E3,2.6450967E3,8.469853E3],"tree_param":{"num_deleted":"0","num_feature":"31","num_nodes":"15","size_leaf_vector":"1"}},{"base_weights":[-8.826344E-8,-1.6963199E-2,2.5153683E-2,-1.9978334E-3,-5.2561462E-2,5.102218E-2,-3.2391436E-2,5.351118E-3,-1.8381292E-3,-1.8437155E-2,-4.07403E-3,5.8270935E-3,-1.6598113E-2,-1.6681269E-2,-2.574416E-3],"categories":[],"categories_nodes":[],"categories_segments":[],"categories_sizes":[],"default_left":[0,0,0,0,0,0,0,0,0,0,0,0,0,0,0],"id":5,"left_children":[1,3,5,7,9,11,13,-1,-1,-1,-1,-1,-1,-1,-1],"loss_changes":[2.7310902E1,2.0365284E1,3.8375706E1,2.4475634E1,1.762918E1,2.797551E1,7.143689E0,0E0,0E0,0E0,0E0,0E0,0E0,0E0,0E0],"parents":[2147483647,0,0,1,1,2,2,3,3,4,4,5,5,6,6],"right_children":[2,4,6,8,10,12,14,-1,-1,-1,-1,-1,-1,-1,-1],"split_conditions":[1.1738345E-1,7.0382725E-3,3.9970063E-2,-8.319317E-2,-5.0774343E-2,2.466503E-2,1.088388E-2,5.351118E-3,-1.8381292E-3,-1.8437155E-2,-4.07403E-3,5.8270935E-3,-1.6598113E-2,-1.6681269E-2,-2.574416E-3],"split_indices":[27,0,12,20,6,0,16,0,0,0,0,0,0,0,0],"split_type":[0,0,0,0,0,0,0,0,0,0,0,0,0,0,0],"sum_hessian":[6.4006992E4,3.822736E4,2.577963E4,2.6913172E4,1.1314188E4,1.778477E4,7.994862E3,6.1331997E3,2.0779973E4,9.31182E2,1.0383007E4,1.7209893E4,5.748775E2,3.76725E2,7.6181367E3],"tree_param":{"num_deleted":"0","num_feature":"31","num_nodes":"15","size_leaf_vector":"1"}},{"base_weights":[-5.9465375E-8,1.4056553E-2,-3.2584414E-2,-8.612044E-3,3.3027105E-2,-1.5012409E-1,-2.359734E-2,2.7507874E-3,-3.0415596E-3,6.524661E-3,5.175383E-4,-5.57717E-3,-2.2039227E-2,5.3970707E-3,-3.843542E-3],"categories":[],"categories_nodes":[],"categories_segments":[],"categories_sizes":[],"default_left":[0,0,0,0,0,0,0,0,0,0,0,0,0,0,0],"id":6,"left_children":[1,3,5,7,9,11,13,-1,-1,-1,-1,-1,-1,-1,-1],"loss_changes":[2.9315956E1,1.9229168E1,2.0376532E1,1.6043827E1,2.1844877E1,9.083956E0,2.0624817E1,0E0,0E0,0E0,0E0,0E0,0E0,0E0,0E0],"parents":[2147483647,0,0,1,1,2,2,3,3,4,4,5,5,6,6],"right_children":[2,4,6,8,10,12,14,-1,-1,-1,-1,-1,-1,-1,-1],"split_conditions":[7.0382725E-3,3.954941E-2,-5.7731804E-2,-7.313086E-2,8.308435E-3,-9.300482E-2,1.7872088E-3,2.7507874E-3,-3.0415596E-3,6.524661E-3,5.175383E-4,-5.57717E-3,-2.2039227E-2,5.3970707E-3,-3.843542E-3],"split_indices":[0,26,8,21,11,26,1,0,0,0,0,0,0,0,0],"split_type":[0,0,0,0,0,0,0,0,0,0,0,0,0,0,0],"sum_hessian":[6.4005055E4,4.4715266E4,1.9289787E4,2.0372014E4,2.4343254E4,1.370135E3,1.791965E4,7.6684336E3,1.270358E4,1.1286627E4,1.3056627E4,5.848412E2,7.852938E2,2.8774414E3,1.504221E4],"tree_param":{"num_deleted":"0","num_feature":"31","num_nodes":"15","size_leaf_vector":"1"}},{"base_weights":[-5.391801E-8,-8.105546E-3,4.5605205E-2,3.6994778E-3,-3.6197662E-2,3.257529E-1,3.8442604E-2,6.3894126E-3,-4.262067E-4,-1.5664196E-2,-2.5958125E-3,5.0158143E-2,2.2233937E-2,9.364676E-3,9.571882E-4],"categories":[],"categories_nodes":[],"categories_segments":[],"categories_sizes":[],"default_left":[0,0,0,0,0,0,0,0,0,0,0,0,0,0,0],"id":7,"left_children":[1,3,5,7,9,11,13,-1,-1,-1,-1,-1,-1,-1,-1],"loss_changes":[2.3659012E1,1.802218E1,1.9381096E1,1.8338081E1,1.983114E1,4.378313E0,1.5010173E1,0E0,0E0,0E0,0E0,0E0,0E0,0E0,0E0],"parents":[2147483647,0,0,1,1,2,2,3,3,4,4,5,5,6,6],"right_children":[2,4,6,8,10,12,14,-1,-1,-1,-1,-1,-1,-1,-1],"split_conditions":[2.9269776E-1,7.0382725E-3,-6.206296E-2,-1.1020053E-1,-5.7731804E-2,4.0674004E-1,-1.8916699E-3,6.3894126E-3,-4.262067E-4,-1.5664196E-2,-2.5958125E-3,5.0158143E-2,2.2233937E-2,9.364676E-3,9.571882E-4],"split_indices":[28,0,4,20,8,30,0,0,0,0,0,0,0,0,0],"split_type":[0,0,0,0,0,0,0,0,0,0,0,0,0,0,0],"sum_hessian":[6.4003293E4,5.434455E4,9.65874E3,3.8264734E4,1.6079817E4,2.407909E2,9.417949E3,4.469827E3,3.3794906E4,1.2599104E3,1.4819907E4,8.917367E1,1.5161722E2,3.2340576E3,6.1838916E3],"tree_param":{"num_deleted":"0","num_feature":"31","num_nodes":"15","size_leaf_vector":"1"}},{"base_weights":[2.1275497E-9,-7.29517E-3,4.1048747E-2,4.9980814E-3,-3.8185604E-2,1.8041614E-1,2.9788543E-2,-8.901308E-4,3.1569672E-3,-2.0051817E-3,-1.0400287E-2,4.2083472E-2,1.2733196E-2,7.607558E-3,6.2747457E-4],"categories":[],"categories_nodes":[],"categories_segments":[],"categories_sizes":[],"default_left":[0,0,0,0,0,0,0,0,0,0,0,0,0,0,0],"id":8,"left_children":[1,3,5,7,9,11,13,-1,-1,-1,-1,-1,-1,-1,-1],"loss_changes":[1.91658E1,2.0636705E1,1.5156282E1,1.4357116E1,1.8463968E1,9.214254E0,9.72577E0,0E0,0E0,0E0,0E0,0E0,0E0,0E0,0E0],"parents":[2147483647,0,0,1,1,2,2,3,3,4,4,5,5,6,6],"right_children":[2,4,6,8,10,12,14,-1,-1,-1,-1,-1,-1,-1,-1],"split_conditions":[2.9269776E-1,2.4124688E-2,-4.514542E-2,3.9714813E-2,9.372782E-2,-9.899363E-2,-1.8916699E-3,-8.901308E-4,3.1569672E-3,-2.0051817E-3,-1.0400287E-2,4.2083472E-2,1.2733196E-2,7.607558E-3,6.2747457E-4],"split_indices":[28,7,9,21,19,12,0,0,0,0,0,0,0,0,0],"split_type":[0,0,0,0,0,0,0,0,0,0,0,0,0,0,0],"sum_hessian":[6.400171E4,5.434375E4,9.657957E3,3.8873523E4,1.5470228E4,7.21983E2,8.935975E3,2.5522766E4,1.3350759E4,1.2128592E4,3.3416353E3,1.3058098E2,5.91402E2,3.0102607E3,5.925714E3],"tree_param":{"num_deleted":"0","num_feature":"31","num_nodes":"15","size_leaf_vector":"1"}},{"base_weights":[4.6208317E-8,1.183069E-2,-2.7443044E-2,-8.906675E-3,4.895912E-2,-4.035063E-2,3.7999272E-2,-4.0603587E-3,1.2951575E-3,2.3023171E-2,4.3446305E-3,-1.6270217E-3,-5.9286864E-3,-2.7472034E-2,4.578995E-3],"categories":[],"categories_nodes":[],"categories_segments":[],"categories_sizes":[],"default_left":[0,0,0,0,0,0,0,0,0,0,0,0,0,0,0],"id":9,"left_children":[1,3,5,7,9,11,13,-1,-1,-1,-1,-1,-1,-1,-1],"loss_changes":[2.0778715E1,3.4432476E1,1.6284985E1,1.98804E1,1.6015678E1,7.3427887E0,7.7378545E0,0E0,0E0,0E0,0E0,0E0,0E0,0E0,0E0],"parents":[2147483647,0,0,1,1,2,2,3,3,4,4,5,5,6,6],"right_children":[2,4,6,8,10,12,14,-1,-1,-1,-1,-1,-1,-1,-1],"split_conditions":[4.336627E-2,5.2277718E-2,4.0674004E-1,-9.457586E-3,-6.206296E-2,2.4124688E-2,1.088388E-2,-4.0603587E-3,1.2951575E-3,2.3023171E-2,4.3446305E-3,-1.6270217E-3,-5.9286864E-3,-2.7472034E-2,4.578995E-3],"split_indices":[19,22,30,2,4,7,16,0,0,0,0,0,0,0,0],"split_type":[0,0,0,0,0,0,0,0,0,0,0,0,0,0,0],"sum_hessian":[6.399961E4,4.4720652E4,1.9278957E4,2.8694113E4,1.602654E4,1.6102886E4,3.1760708E3,1.1711348E4,1.6982766E4,4.7300986E2,1.555353E4,7.0886035E3,9.014282E3,7.7201096E1,3.0988696E3],"tree_param":{"num_deleted":"0","num_feature":"31","num_nodes":"15","size_leaf_vector":"1"}},{"base_weights":[6.7257616E-8,5.3315726E-3,-4.7423773E-2,1.047601E-2,-4.8198428E-2,-8.66619E-2,-4.602259E-3,-1.16689946E-4,3.85027E-3,-1.4966051E-2,-3.0857145E-3,6.043124E-3,-1.2552273E-2,5.8321278E-3,-5.8099995E-3],"categories":[],"categories_nodes":[],"categories_segments":[],"categories_sizes":[],"default_left":[0,0,0,0,0,0,0,0,0,0,0,0,0,0,0],"id":10,"left_children":[1,3,5,7,9,11,13,-1,-1,-1,-1,-1,-1,-1,-1],"loss_changes":[1.618116E1,1.584267E1,1.0867173E1,1.7126747E1,8.874978E0,1.9292274E1,1.0410547E1,0E0,0E0,0E0,0E0,0E0,0E0,0E0,0E0],"parents":[2147483647,0,0,1,1,2,2,3,3,4,4,5,5,6,6],"right_children":[2,4,6,8,10,12,14,-1,-1,-1,-1,-1,-1,-1,-1],"split_conditions":[6.6069745E-2,1.7719455E-2,7.592257E-2,1.7185535E-1,-3.4383554E-2,-6.2166676E-2,1.3754743E-1,-1.16689946E-4,3.85027E-3,-1.4966051E-2,-3.0857145E-3,6.043124E-3,-1.2552273E-2,5.8321278E-3,-5.8099995E-3],"split_indices":[10,0,23,27,5,20,21,0,0,0,0,0,0,0,0],"split_type":[0,0,0,0,0,0,0,0,0,0,0,0,0,0,0],"sum_hessian":[6.3997504E4,5.7529855E4,6.4676484E3,5.2485773E4,5.044083E3,3.3750396E3,3.0926091E3,3.7081355E4,1.5404418E4,7.362659E2,4.307817E3,7.0531885E2,2.6697207E3,1.4211113E3,1.6714978E3],"tree_param":{"num_deleted":"0","num_feature":"31","num_nodes":"15","size_leaf_vector":"1"}},{"base_weights":[-4.802445E-8,1.0396081E-2,-2.4116939E-2,-7.6867063E-3,4.2774532E-2,-2.0876633E-1,-2.016304E-2,-3.6353697E-3,1.2081967E-3,2.0659754E-2,3.7795105E-3,-1.3710472E-2,-6.409349E-2,1.3267461E-3,-3.828231E-3],"categories":[],"categories_nodes":[],"categories_segments":[],"categories_sizes":[],"default_left":[0,0,0,0,0,0,0,0,0,0,0,0,0,0,0],"id":11,"left_children":[1,3,5,7,9,11,13,-1,-1,-1,-1,-1,-1,-1,-1],"loss_changes":[1.6045027E1,2.6182266E1,1.4073739E1,1.6260864E1,1.3072165E1,1.2515612E1,1.1431898E1,0E0,0E0,0E0,0E0,0E0,0E0,0E0,0E0],"parents":[2147483647,0,0,1,1,2,2,3,3,4,4,5,5,6,6],"right_children":[2,4,6,8,10,12,14,-1,-1,-1,-1,-1,-1,-1,-1],"split_conditions":[4.336627E-2,5.2277718E-2,-3.820611E-3,-9.457586E-3,-6.206296E-2,2.5830071E-2,-5.733153E-4,-3.6353697E-3,1.2081967E-3,2.0659754E-2,3.7795105E-3,-1.3710472E-2,-6.409349E-2,1.3267461E-3,-3.828231E-3],"split_indices":[19,22,15,2,4,8,0,0,0,0,0,0,0,0,0],"split_type":[0,0,0,0,0,0,0,0,0,0,0,0,0,0,0],"sum_hessian":[6.399521E4,4.4718355E4,1.9276855E4,2.869353E4,1.6024825E4,4.041219E2,1.8872732E4,1.1711062E4,1.6982469E4,4.727091E2,1.5552116E4,3.4664215E2,5.7479736E1,6.633592E3,1.2239142E4],"tree_param":{"num_deleted":"0","num_feature":"31","num_nodes":"15","size_leaf_vector":"1"}},{"base_weights":[-2.2397884E-8,4.866879E-3,-4.3298524E-2,-1.2328678E-3,3.9952174E-2,1.00269556E-1,-5.2945875E-2,4.3524764E-3,-6.8917795E-4,4.6019475E-3,-2.6224518E-2,2.023953E-2,-1.594655E-2,1.8768156E-3,-7.630644E-3],"categories":[],"categories_nodes":[],"categories_segments":[],"categories_sizes":[],"default_left":[0,0,0,0,0,0,0,0,0,0,0,0,0,0,0],"id":12,"left_children":[1,3,5,7,9,11,13,-1,-1,-1,-1,-1,-1,-1,-1],"loss_changes":[1.3485263E1,1.2311434E1,8.956065E0,1.2412444E1,1.5621774E1,1.0799973E1,1.015066E1,0E0,0E0,0E0,0E0,0E0,0E0,0E0,0E0],"parents":[2147483647,0,0,1,1,2,2,3,3,4,4,5,5,6,6],"right_children":[2,4,6,8,10,12,14,-1,-1,-1,-1,-1,-1,-1,-1],"split_conditions":[2.5863154E-2,3.4048495E-1,-6.1019167E-2,-1.1020053E-1,2.466503E-2,-1.7164651E-2,1.8181432E-2,4.3524764E-3,-6.8917795E-4,4.6019475E-3,-2.6224518E-2,2.023953E-2,-1.594655E-2,1.8768156E-3,-7.630644E-3],"split_indices":[1,30,9,20,0,22,4,0,0,0,0,0,0,0,0],"split_type":[0,0,0,0,0,0,0,0,0,0,0,0,0,0,0],"sum_hessian":[6.3993227E4,5.7526992E4,6.466233E3,4.9006906E4,8.520086E3,4.0715225E2,6.0590806E3,5.50069E3,4.350622E4,8.352393E3,1.6769337E2,2.9224417E2,1.1490807E2,1.4887631E3,4.5703174E3],"tree_param":{"num_deleted":"0","num_feature":"31","num_nodes":"15","size_leaf_vector":"1"}},{"base_weights":[-8.119276E-8,5.232293E-3,-4.6572786E-2,-1.525449E-2,1.6075464E-2,-1.6000862E-1,-3.471372E-2,-4.9654148E-3,9.579736E-4,9.596469E-3,6.979604E-4,-2.4783062E-3,-3.5780456E-2,2.6289502E-2,-4.1579413E-3],"categories":[],"categories_nodes":[],"categories_segments":[],"categories_sizes":[],"default_left":[0,0,0,0,0,0,0,0,0,0,0,0,0,0,0],"id":13,"left_children":[1,3,5,7,9,11,13,-1,-1,-1,-1,-1,-1,-1,-1],"loss_changes":[1.5593915E1,1.2779505E1,8.694652E0,1.7009253E1,2.7335682E1,1.6362312E1,1.1956335E1,0E0,0E0,0E0,0E0,0E0,0E0,0E0,0E0],"parents":[2147483647,0,0,1,1,2,2,3,3,4,4,5,5,6,6],"right_children":[2,4,6,8,10,12,14,-1,-1,-1,-1,-1,-1,-1,-1],"split_conditions":[1.7719455E-2,-7.2578285E-3,-5.7731804E-2,-1.2024839E-2,-4.0217403E-2,-9.71734E-3,-1.06492445E-1,-4.9654148E-3,9.579736E-4,9.596469E-3,6.979604E-4,-2.4783062E-3,-3.5780456E-2,2.6289502E-2,-4.1579413E-3],"split_indices":[0,27,8,4,7,26,14,0,0,0,0,0,0,0,0],"split_type":[0,0,0,0,0,0,0,0,0,0,0,0,0,0,0],"sum_hessian":[6.399188E4,5.752862E4,6.4632554E3,1.9910424E4,3.76182E4,6.117423E2,5.851513E3,8.347586E3,1.1562837E4,3.8452498E3,3.377295E4,3.633403E2,2.4840198E2,1.3194762E2,5.7195654E3],"tree_param":{"num_deleted":"0","num_feature":"31","num_nodes":"15","size_leaf_vector":"1"}},{"base_weights":[-1.5585707E-7,1.0373621E-2,-1.9067643E-2,-4.907717E-3,4.700459E-2,-2.8611034E-2,3.2006957E-2,5.461745E-3,-1.0633337E-3,5.643636E-3,-1.07527925E-2,8.379205E-4,-4.684724E-3,-9.529388E-3,4.812644E-3],"categories":[],"categories_nodes":[],"categories_segments":[],"categories_sizes":[],"default_left":[0,0,0,0,0,0,0,0,0,0,0,0,0,0,0],"id":14,"left_children":[1,3,5,7,9,11,13,-1,-1,-1,-1,-1,-1,-1,-1],"loss_changes":[1.2657371E1,2.3198502E1,1.0990091E1,9.966699E0,1.7780916E1,1.28150015E1,7.2841206E0,0E0,0E0,0E0,0E0,0E0,0E0,0E0,0E0],"parents":[2147483647,0,0,1,1,2,2,3,3,4,4,5,5,6,6],"right_children":[2,4,6,8,10,12,14,-1,-1,-1,-1,-1,-1,-1,-1],"split_conditions":[3.4754403E-2,6.701598E-2,4.0674004E-1,-2.4286489E-1,3.7775803E-2,-3.7961162E-4,-1.0867966E-2,5.461745E-3,-1.0633337E-3,5.643636E-3,-1.07527925E-2,8.379205E-4,-4.684724E-3,-9.529388E-3,4.812644E-3],"split_indices":[19,22,30,25,3,1,3,0,0,0,0,0,0,0,0],"split_type":[0,0,0,0,0,0,0,0,0,0,0,0,0,0,0],"sum_hessian":[6.3990152E4,4.14429E4,2.2547252E4,2.9243424E4,1.2199476E4,1.8997525E4,3.5497256E3,2.5660488E3,2.6677375E4,1.1497722E4,7.017541E2,6.273133E3,1.2724394E4,3.9896536E2,3.1507603E3],"tree_param":{"num_deleted":"0","num_feature":"31","num_nodes":"15","size_leaf_vector":"1"}},{"base_weights":[-1.2563136E-7,9.037113E-3,-2.0951822E-2,-2.0314252E-3,3.222761E-2,-1.648641E-1,-1.5824482E-2,5.024222E-3,-1.3640297E-3,2.0632355E-2,2.080243E-3,-2.5209463E-3,-3.416891E-2,3.1643212E-4,-5.9251743E-3],"categories":[],"categories_nodes":[],"categories_segments":[],"categories_sizes":[],"default_left":[0,0,0,0,0,0,0,0,0,0,0,0,0,0,0],"id":15,"left_children":[1,3,5,7,9,11,13,-1,-1,-1,-1,-1,-1,-1,-1],"loss_changes":[1.2115806E1,1.1475083E1,1.4228597E1,1.836383E1,2.8729118E1,1.6381796E1,1.5354237E1,0E0,0E0,0E0,0E0,0E0,0E0,0E0,0E0],"parents":[2147483647,0,0,1,1,2,2,3,3,4,4,5,5,6,6],"right_children":[2,4,6,8,10,12,14,-1,-1,-1,-1,-1,-1,-1,-1],"split_conditions":[7.0382725E-3,1.0448526E-2,-8.7636255E-2,-8.319317E-2,0E0,-6.2106173E-2,2.9989956E-2,5.024222E-3,-1.3640297E-3,2.0632355E-2,2.080243E-3,-2.5209463E-3,-3.416891E-2,3.1643212E-4,-5.9251743E-3],"split_indices":[0,4,9,20,5,26,3,0,0,0,0,0,0,0,0],"split_type":[0,0,0,0,0,0,0,0,0,0,0,0,0,0,0],"sum_hessian":[6.3987832E4,4.470494E4,1.9282889E4,3.0261502E4,1.4443441E4,6.6338025E2,1.8619508E4,5.499187E3,2.4762314E4,8.8948846E2,1.3553953E4,3.70647E2,2.9273328E2,1.2954906E4,5.664602E3],"tree_param":{"num_deleted":"0","num_feature":"31","num_nodes":"15","size_leaf_vector":"1"}},{"base_weights":[-2.0504775E-7,-1.7840367E-2,9.7175455E-3,-1.0188774E-2,-7.950332E-2,1.3990276E-1,5.095776E-3,-8.231707E-3,-1.747662E-4,3.4728352E-2,-8.735097E-3,2.2678833E-2,-2.0274254E-3,1.4761606E-3,-1.9071879E-3],"categories":[],"categories_nodes":[],"categories_segments":[],"categories_sizes":[],"default_left":[0,0,0,0,0,0,0,0,0,0,0,0,0,0,0],"id":16,"left_children":[1,3,5,7,9,11,13,-1,-1,-1,-1,-1,-1,-1,-1],"loss_changes":[1.1093128E1,1.06459675E1,2.4923666E1,1.2221212E1,8.342323E0,1.9764496E1,9.34469E0,0E0,0E0,0E0,0E0,0E0,0E0,0E0,0E0],"parents":[2147483647,0,0,1,1,2,2,3,3,4,4,5,5,6,6],"right_children":[2,4,6,8,10,12,14,-1,-1,-1,-1,-1,-1,-1,-1],"split_conditions":[-7.2578285E-3,3.237012E-2,-3.7849657E-2,-8.374312E-2,-1.0867966E-2,-3.5099745E-2,3.9970063E-2,-8.231707E-3,-1.747662E-4,3.4728352E-2,-8.735097E-3,2.2678833E-2,-2.0274254E-3,1.4761606E-3,-1.9071879E-3],"split_indices":[27,2,1,8,3,10,12,0,0,0,0,0,0,0,0],"split_type":[0,0,0,0,0,0,0,0,0,0,0,0,0,0,0],"sum_hessian":[6.398667E4,2.2563629E4,4.1423043E4,2.0072844E4,2.4907856E3,1.420162E3,4.0002883E4,2.1029958E3,1.7969848E4,4.4972996E1,2.4458127E3,9.207274E2,4.994345E2,2.8574527E4,1.1428354E4],"tree_param":{"num_deleted":"0","num_feature":"31","num_nodes":"15","size_leaf_vector":"1"}},{"base_weights":[-1.3953739E-7,-1.6057104E-2,8.746215E-3,-1.2828846E-2,-1.5460967E-1,2.8110875E-2,-6.6759954E-3,4.4488506E-3,-2.085788E-3,-5.75062E-2,-3.4794044E-3,3.8361238E-4,5.2870377E-3,2.8338362E-2,-8.9666713E-4],"categories":[],"categories_nodes":[],"categories_segments":[],"categories_sizes":[],"default_left":[0,0,0,0,0,0,0,0,0,0,0,0,0,0,0],"id":17,"left_children":[1,3,5,7,9,11,13,-1,-1,-1,-1,-1,-1,-1,-1],"loss_changes":[8.985988E0,1.0091954E1,1.2370447E1,1.014703E1,2.5880547E1,1.1037147E1,1.5320543E1,0E0,0E0,0E0,0E0,0E0,0E0,0E0,0E0],"parents":[2147483647,0,0,1,1,2,2,3,3,4,4,5,5,6,6],"right_children":[2,4,6,8,10,12,14,-1,-1,-1,-1,-1,-1,-1,-1],"split_conditions":[-7.2578285E-3,8.432145E-2,8.308435E-3,-1.5163094E-1,-1.5467126E-2,8.678627E-2,-4.2497344E-2,4.4488506E-3,-2.085788E-3,-5.75062E-2,-3.4794044E-3,3.8361238E-4,5.2870377E-3,2.8338362E-2,-8.9666713E-4],"split_indices":[27,26,11,20,24,24,4,0,0,0,0,0,0,0,0],"split_type":[0,0,0,0,0,0,0,0,0,0,0,0,0,0,0],"sum_hessian":[6.3984566E4,2.2562775E4,4.1421793E4,2.2049037E4,5.1373987E2,1.83637E4,2.3058092E4,2.709139E3,1.9339896E4,1.1393247E2,3.998074E2,9.27262E3,9.091078E3,1.8066891E2,2.2877424E4],"tree_param":{"num_deleted":"0","num_feature":"31","num_nodes":"15","size_leaf_vector":"1"}},{"base_weights":[-1.5633235E-7,5.258917E-2,-2.8321655E-3,3.8071413E-2,2.705778E-1,-4.149966E-2,2.590661E-3,-1.1623875E-3,1.2364093E-2,4.8663374E-2,-4.027776E-3,-7.534008E-3,8.08425E-3,1.8954668E-3,-1.2741042E-3],"categories":[],"categories_nodes":[],"categories_segments":[],"categories_sizes":[],"default_left":[0,0,0,0,0,0,0,0,0,0,0,0,0,0,0],"id":18,"left_children":[1,3,5,7,9,11,13,-1,-1,-1,-1,-1,-1,-1,-1],"loss_changes":[9.529153E0,1.0346965E1,1.2730762E1,1.3035057E1,1.3711002E1,3.0915539E1,1.335874E1,0E0,0E0,0E0,0E0,0E0,0E0,0E0,0E0],"parents":[2147483647,0,0,1,1,2,2,3,3,4,4,5,5,6,6],"right_children":[2,4,6,8,10,12,14,-1,-1,-1,-1,-1,-1,-1,-1],"split_conditions":[-1.5163094E-1,5.202794E-2,-5.7828125E-2,-1.3660675E-1,-1.8083715E-1,1.5129636E-1,9.669296E-3,-1.1623875E-3,1.2364093E-2,4.8663374E-2,-4.027776E-3,-7.534008E-3,8.08425E-3,1.8954668E-3,-1.2741042E-3],"split_indices":[20,3,16,27,21,30,7,0,0,0,0,0,0,0,0],"split_type":[0,0,0,0,0,0,0,0,0,0,0,0,0,0,0],"sum_hessian":[6.3982617E4,3.2694873E3,6.0713133E4,3.0653396E3,2.0414764E2,7.467325E3,5.3245805E4,1.9391566E3,1.1261831E3,1.204385E2,8.3709145E1,5.849364E3,1.6179614E3,2.5755816E4,2.7489988E4],"tree_param":{"num_deleted":"0","num_feature":"31","num_nodes":"15","size_leaf_vector":"1"}},{"base_weights":[-1.5485945E-7,3.443687E-2,-3.8509977E-3,6.997431E-2,-8.412625E-3,-3.9349236E-2,2.5165614E-3,5.423297E-3,2.9219443E-2,-3.0189777E-2,1.1156511E-3,-6.4768083E-3,3.7803135E-3,-6.217621E-3,6.9469435E-4],"categories":[],"categories_nodes":[],"categories_segments":[],"categories_sizes":[],"default_left":[0,0,0,0,0,0,0,0,0,0,0,0,0,0,0],"id":19,"left_children":[1,3,5,7,9,11,13,-1,-1,-1,-1,-1,-1,-1,-1],"loss_changes":[8.484636E0,9.798918E0,1.30075655E1,1.2304768E1,1.6755083E1,1.716465E1,1.3984937E1,0E0,0E0,0E0,0E0,0E0,0E0,0E0,0E0],"parents":[2147483647,0,0,1,1,2,2,3,3,4,4,5,5,6,6],"right_children":[2,4,6,8,10,12,14,-1,-1,-1,-1,-1,-1,-1,-1],"split_conditions":[-1.1020053E-1,-5.733153E-4,-4.1491747E-2,2.7574338E-2,-2.6054611E-2,8.678627E-2,-1.8075062E-2,5.423297E-3,2.9219443E-2,-3.0189777E-2,1.1156511E-3,-6.4768083E-3,3.7803135E-3,-6.217621E-3,6.9469435E-4],"split_indices":[20,0,15,4,1,24,0,0,0,0,0,0,0,0,0],"split_type":[0,0,0,0,0,0,0,0,0,0,0,0,0,0,0],"sum_hessian":[6.3981113E4,6.4349683E3,5.7546145E4,3.5176162E3,2.917352E3,8.752454E3,4.879369E4,3.284923E3,2.3269308E2,1.8236472E2,2.7349873E3,6.5834507E3,2.1690032E3,3.1273848E3,4.5666305E4],"tree_param":{"num_deleted":"0","num_feature":"31","num_nodes":"15","size_leaf_vector":"1"}},{"base_weights":[-1.4348596E-7,-1.3070688E-2,8.796573E-3,8.264758E-3,-4.493693E-2,2.307538E-2,-1.0107816E-2,-2.9864928E-4,4.065897E-3,-6.963455E-3,-1.525157E-3,2.6760346E-3,-1.5648322E-2,3.64543E-3,-2.2003248E-3],"categories":[],"categories_nodes":[],"categories_segments":[],"categories_sizes":[],"default_left":[0,0,0,0,0,0,0,0,0,0,0,0,0,0,0],"id":20,"left_children":[1,3,5,7,9,11,13,-1,-1,-1,-1,-1,-1,-1,-1],"loss_changes":[7.35632E0,1.7498676E1,1.03228655E1,5.6188345E0,7.5673923E0,1.44155E1,9.114487E0,0E0,0E0,0E0,0E0,0E0,0E0,0E0,0E0],"parents":[2147483647,0,0,1,1,2,2,3,3,4,4,5,5,6,6],"right_children":[2,4,6,8,10,12,14,-1,-1,-1,-1,-1,-1,-1,-1],"split_conditions":[7.076739E-3,-6.0298335E-2,3.4754403E-2,-3.4643795E-2,1.0579001E-3,6.952804E-2,3.9714813E-2,-2.9864928E-4,4.065897E-3,-6.963455E-3,-1.525157E-3,2.6760346E-3,-1.5648322E-2,3.64543E-3,-2.2003248E-3],"split_indices":[24,23,19,27,22,11,21,0,0,0,0,0,0,0,0],"split_type":[0,0,0,0,0,0,0,0,0,0,0,0,0,0,0],"sum_hessian":[6.3980316E4,2.573787E4,3.824245E4,1.5416226E4,1.0321645E4,2.1786633E4,1.6455814E4,1.1442116E4,3.974109E3,5.634148E3,4.6874966E3,2.1348512E4,4.381217E2,3.3485667E3,1.3107248E4],"tree_param":{"num_deleted":"0","num_feature":"31","num_nodes":"15","size_leaf_vector":"1"}},{"base_weights":[-1.5356908E-7,3.9984044E-3,-3.5599347E-2,-1.4411155E-3,3.508577E-2,-1.9924944E-2,-1.3692571E-1,9.855715E-4,-2.1266572E-3,2.7753443E-2,3.0318645E-3,-7.102506E-3,2.2987237E-3,-4.2569507E-2,-1.1147888E-2],"categories":[],"categories_nodes":[],"categories_segments":[],"categories_sizes":[],"default_left":[0,0,0,0,0,0,0,0,0,0,0,0,0,0,0],"id":21,"left_children":[1,3,5,7,9,11,13,-1,-1,-1,-1,-1,-1,-1,-1],"loss_changes":[9.107095E0,9.726362E0,1.0260834E1,1.0963697E1,9.89989E0,1.2268891E1,6.3599854E0,0E0,0E0,0E0,0E0,0E0,0E0,0E0,0E0],"parents":[2147483647,0,0,1,1,2,2,3,3,4,4,5,5,6,6],"right_children":[2,4,6,8,10,12,14,-1,-1,-1,-1,-1,-1,-1,-1],"split_conditions":[1.7719455E-2,3.4048495E-1,1.6673869E-1,1.4305399E-2,-9.593203E-2,3.421677E-3,-9.075501E-2,9.855715E-4,-2.1266572E-3,2.7753443E-2,3.0318645E-3,-7.102506E-3,2.2987237E-3,-4.2569507E-2,-1.1147888E-2],"split_indices":[0,30,21,7,11,15,25,0,0,0,0,0,0,0,0],"split_type":[0,0,0,0,0,0,0,0,0,0,0,0,0,0,0],"sum_hessian":[6.3978832E4,5.7518285E4,6.4605454E3,4.895276E4,8.565521E3,5.5950366E3,8.655088E2,3.118379E4,1.7768975E4,1.6517122E2,8.400351E3,2.5538704E3,3.041166E3,7.009331E1,7.954155E2],"tree_param":{"num_deleted":"0","num_feature":"31","num_nodes":"15","size_leaf_vector":"1"}},{"base_weights":[-1.6005446E-7,3.1145928E-2,-3.482914E-3,-2.1487039E-2,5.2210025E-2,-4.1956645E-2,1.1537081E-3,-6.2870528E-3,1.1186248E-2,1.3346234E-2,2.6901853E-3,-6.8010325E-3,7.38486E-3,-5.091663E-3,4.89054E-4],"categories":[],"categories_nodes":[],"categories_segments":[],"categories_sizes":[],"default_left":[0,0,0,0,0,0,0,0,0,0,0,0,0,0,0],"id":22,"left_children":[1,3,5,7,9,11,13,-1,-1,-1,-1,-1,-1,-1,-1],"loss_changes":[6.9398355E0,7.1335936E0,1.0264891E1,1.0148896E1,9.449566E0,1.8672642E1,9.9922905E0,0E0,0E0,0E0,0E0,0E0,0E0,0E0,0E0],"parents":[2147483647,0,0,1,1,2,2,3,3,4,4,5,5,6,6],"right_children":[2,4,6,8,10,12,14,-1,-1,-1,-1,-1,-1,-1,-1],"split_conditions":[-1.1020053E-1,-9.899363E-2,-5.2915357E-2,-6.723949E-2,-1.3266256E-2,2.1402979E-1,-1.8075062E-2,-6.2870528E-3,1.1186248E-2,1.3346234E-2,2.6901853E-3,-6.8010325E-3,7.38486E-3,-5.091663E-3,4.89054E-4],"split_indices":[20,12,13,28,0,30,0,0,0,0,0,0,0,0,0],"split_type":[0,0,0,0,0,0,0,0,0,0,0,0,0,0,0],"sum_hessian":[6.3976848E4,6.434394E3,5.7542453E4,1.8390786E3,4.5953154E3,6.1888296E3,5.1353625E4,1.4035142E3,4.3556448E2,1.0913899E3,3.5039255E3,5.052195E3,1.1366348E3,3.438624E3,4.7915E4],"tree_param":{"num_deleted":"0","num_feature":"31","num_nodes":"15","size_leaf_vector":"1"}},{"base_weights":[-1.2744663E-7,7.908329E-3,-1.4534984E-2,-8.029513E-3,3.9995853E-2,-1.426747E-1,-1.1050466E-2,2.337878E-3,-2.2538083E-3,4.632277E-3,-6.0399477E-3,-8.36304E-3,-5.155189E-2,1.0632634E-2,-1.372821E-3],"categories":[],"categories_nodes":[],"categories_segments":[],"categories_sizes":[],"default_left":[0,0,0,0,0,0,0,0,0,0,0,0,0,0,0],"id":23,"left_children":[1,3,5,7,9,11,13,-1,-1,-1,-1,-1,-1,-1,-1],"loss_changes":[7.3539076E0,2.1188744E1,1.0065765E1,1.2614611E1,8.733807E0,1.3138103E1,6.8979416E0,0E0,0E0,0E0,0E0,0E0,0E0,0E0,0E0],"parents":[2147483647,0,0,1,1,2,2,3,3,4,4,5,5,6,6],"right_children":[2,4,6,8,10,12,14,-1,-1,-1,-1,-1,-1,-1,-1],"split_conditions":[3.4754403E-2,3.9714813E-2,-3.820611E-3,-8.319317E-2,2.5899458E-1,2.5830071E-2,-3.2154165E-2,2.337878E-3,-2.2538083E-3,4.632277E-3,-6.0399477E-3,-8.36304E-3,-5.155189E-2,1.0632634E-2,-1.372821E-3],"split_indices":[19,21,15,20,22,8,2,0,0,0,0,0,0,0,0],"split_type":[0,0,0,0,0,0,0,0,0,0,0,0,0,0,0],"sum_hessian":[6.397579E4,4.1432336E4,2.2543451E4,2.7682477E4,1.3749859E4,5.967978E2,2.1946654E4,8.746964E3,1.8935514E4,1.2934714E4,8.151459E2,5.152084E2,8.158937E1,4.895066E2,2.1457148E4],"tree_param":{"num_deleted":"0","num_feature":"31","num_nodes":"15","size_leaf_vector":"1"}},{"base_weights":[-1.4922409E-7,3.3541895E-3,-2.9847376E-2,-6.6579008E-3,2.115506E-2,5.7357382E-2,-4.929593E-2,-1.5931244E-3,2.5984447E-3,4.332482E-3,-5.9607765E-4,9.366427E-4,1.7579494E-2,-8.858544E-3,-7.976522E-4],"categories":[],"categories_nodes":[],"categories_segments":[],"categories_sizes":[],"default_left":[0,0,0,0,0,0,0,0,0,0,0,0,0,0,0],"id":24,"left_children":[1,3,5,7,9,11,13,-1,-1,-1,-1,-1,-1,-1,-1],"loss_changes":[6.4049478E0,1.0249818E1,1.0961768E1,1.1141967E1,1.2445478E1,6.699075E0,8.579253E0,0E0,0E0,0E0,0E0,0E0,0E0,0E0,0E0],"parents":[2147483647,0,0,1,1,2,2,3,3,4,4,5,5,6,6],"right_children":[2,4,6,8,10,12,14,-1,-1,-1,-1,-1,-1,-1,-1],"split_conditions":[6.6069745E-2,9.026681E-3,5.860143E-3,1.6944356E-1,2.4720294E-2,1.797004E-1,7.592257E-2,-1.5931244E-3,2.5984447E-3,4.332482E-3,-5.9607765E-4,9.366427E-4,1.7579494E-2,-8.858544E-3,-7.976522E-4],"split_indices":[10,3,3,25,11,24,23,0,0,0,0,0,0,0,0],"split_type":[0,0,0,0,0,0,0,0,0,0,0,0,0,0,0],"sum_hessian":[6.3974176E4,5.7510895E4,6.4632817E3,3.6808164E4,2.0702732E4,1.1785989E3,5.2846826E3,2.8664799E4,8.1433633E3,1.1390183E4,9.31255E3,8.387408E2,3.3985815E2,2.7088809E3,2.5758018E3],"tree_param":{"num_deleted":"0","num_feature":"31","num_nodes":"15","size_leaf_vector":"1"}},{"base_weights":[-1.8653704E-7,9.133266E-3,-1.1024846E-2,-9.047929E-3,3.472921E-2,-1.6843587E-2,2.7710231E-2,-2.2566507E-3,5.3212983E-3,4.050876E-3,-1.2190304E-2,-5.072436E-3,-7.8437413E-4,-2.6669031E-2,3.8756956E-3],"categories":[],"categories_nodes":[],"categories_segments":[],"categories_sizes":[],"default_left":[0,0,0,0,0,0,0,0,0,0,0,0,0,0,0],"id":25,"left_children":[1,3,5,7,9,11,13,-1,-1,-1,-1,-1,-1,-1,-1],"loss_changes":[6.441594E0,1.6281788E1,6.5329857E0,1.7217846E1,1.3154022E1,7.683979E0,1.2311036E1,0E0,0E0,0E0,0E0,0E0,0E0,0E0,0E0],"parents":[2147483647,0,0,1,1,2,2,3,3,4,4,5,5,6,6],"right_children":[2,4,6,8,10,12,14,-1,-1,-1,-1,-1,-1,-1,-1],"split_conditions":[9.669296E-3,-7.4997186E-3,4.0674004E-1,1.6944356E-1,2.5899458E-1,3.421677E-3,-1.9242372E-2,-2.2566507E-3,5.3212983E-3,4.050876E-3,-1.2190304E-2,-5.072436E-3,-7.8437413E-4,-2.6669031E-2,3.8756956E-3],"split_indices":[7,4,30,25,22,15,1,0,0,0,0,0,0,0,0],"split_type":[0,0,0,0,0,0,0,0,0,0,0,0,0,0,0],"sum_hessian":[6.397248E4,3.4987145E4,2.8985334E4,2.0456545E4,1.4530601E4,2.5199842E4,3.7854927E3,1.6807229E4,3.6493174E3,1.4013519E4,5.170825E2,5.2889795E3,1.9910861E4,1.3690512E2,3.6485874E3],"tree_param":{"num_deleted":"0","num_feature":"31","num_nodes":"15","size_leaf_vector":"1"}},{"base_weights":[-1.0633742E-7,7.255045E-3,-1.6821332E-2,-5.546311E-3,3.8562458E-2,-5.8277488E-2,-2.295426E-3,4.4651437E-3,-1.5936027E-3,5.462008E-3,-5.024614E-3,2.9648717E-3,-1.0526788E-2,6.180106E-4,-9.9470345E-3],"categories":[],"categories_nodes":[],"categories_segments":[],"categories_sizes":[],"default_left":[0,0,0,0,0,0,0,0,0,0,0,0,0,0,0],"id":26,"left_children":[1,3,5,7,9,11,13,-1,-1,-1,-1,-1,-1,-1,-1],"loss_changes":[7.807042E0,1.791233E1,1.16083355E1,1.6544703E1,1.8497631E1,2.0666147E1,1.1757069E1,0E0,0E0,0E0,0E0,0E0,0E0,0E0,0E0],"parents":[2147483647,0,0,1,1,2,2,3,3,4,4,5,5,6,6],"right_children":[2,4,6,8,10,12,14,-1,-1,-1,-1,-1,-1,-1,-1],"split_conditions":[7.0382725E-3,7.4186884E-3,-2.0145793E-2,-8.319317E-2,6.6069745E-2,-9.075501E-2,2.1621685E-1,4.4651437E-3,-1.5936027E-3,5.462008E-3,-5.024614E-3,2.9648717E-3,-1.0526788E-2,6.180106E-4,-9.9470345E-3],"split_indices":[0,2,15,20,10,25,21,0,0,0,0,0,0,0,0],"split_type":[0,0,0,0,0,0,0,0,0,0,0,0,0,0,0],"sum_hessian":[6.397089E4,4.4693965E4,1.9276924E4,3.1722773E4,1.2971192E4,5.001866E3,1.4275058E4,5.4399146E3,2.628286E4,1.0984981E4,1.9862117E3,1.7421108E3,3.2597554E3,1.3129879E4,1.1451792E3],"tree_param":{"num_deleted":"0","num_feature":"31","num_nodes":"15","size_leaf_vector":"1"}},{"base_weights":[-1.3327909E-7,4.249451E-3,-2.389053E-2,-3.0060268E-3,2.036023E-2,-1.6021386E-1,-1.7437855E-2,4.1947514E-4,-3.166625E-3,7.4816467E-3,-2.4750593E-4,-1.2734927E-2,-6.969416E-2,-5.7493884E-4,-9.344989E-3],"categories":[],"categories_nodes":[],"categories_segments":[],"categories_sizes":[],"default_left":[0,0,0,0,0,0,0,0,0,0,0,0,0,0,0],"id":27,"left_children":[1,3,5,7,9,11,13,-1,-1,-1,-1,-1,-1,-1,-1],"loss_changes":[6.494496E0,6.348304E0,8.497835E0,7.7279E0,2.0970371E1,7.7013197E0,8.195078E0,0E0,0E0,0E0,0E0,0E0,0E0,0E0,0E0],"parents":[2147483647,0,0,1,1,2,2,3,3,4,4,5,5,6,6],"right_children":[2,4,6,8,10,12,14,-1,-1,-1,-1,-1,-1,-1,-1],"split_conditions":[1.3903006E-2,1.414145E-2,-9.593203E-2,1.4305399E-2,1.7872088E-3,-7.361968E-2,1.6673869E-1,4.1947514E-4,-3.166625E-3,7.4816467E-3,-2.4750593E-4,-1.2734927E-2,-6.969416E-2,-5.7493884E-4,-9.344989E-3],"split_indices":[0,4,11,7,1,14,21,0,0,0,0,0,0,0,0],"split_type":[0,0,0,0,0,0,0,0,0,0,0,0,0,0,0],"sum_hessian":[6.3969887E4,5.4309418E4,9.66047E3,3.744575E4,1.6863668E4,4.3659924E2,9.22387E3,2.9926758E4,7.5189907E3,4.9822637E3,1.1881404E4,4.1140814E2,2.519109E1,7.99454E3,1.2293304E3],"tree_param":{"num_deleted":"0","num_feature":"31","num_nodes":"15","size_leaf_vector":"1"}},{"base_weights":[-2.1117235E-7,2.8880308E-3,-2.5705751E-2,-1.1860083E-2,1.0228739E-2,3.289146E-2,-4.832396E-2,-2.701544E-3,2.4957E-3,3.4101584E-3,-5.4082595E-4,5.18815E-3,-2.0734673E-2,-1.42111005E-2,-2.1749511E-3],"categories":[],"categories_nodes":[],"categories_segments":[],"categories_sizes":[],"default_left":[0,0,0,0,0,0,0,0,0,0,0,0,0,0,0],"id":28,"left_children":[1,3,5,7,9,11,13,-1,-1,-1,-1,-1,-1,-1,-1],"loss_changes":[4.7492876E0,6.2258363E0,8.563774E0,1.06636095E1,1.4333254E1,8.209518E0,1.16191845E1,0E0,0E0,0E0,0E0,0E0,0E0,0E0,0E0],"parents":[2147483647,0,0,1,1,2,2,3,3,4,4,5,5,6,6],"right_children":[2,4,6,8,10,12,14,-1,-1,-1,-1,-1,-1,-1,-1],"split_conditions":[2.5863154E-2,-9.457586E-3,1.8181432E-2,6.701598E-2,6.4369836E-3,8.502478E-2,-3.8047396E-3,-2.701544E-3,2.4957E-3,3.4101584E-3,-5.4082595E-4,5.18815E-3,-2.0734673E-2,-1.42111005E-2,-2.1749511E-3],"split_indices":[1,2,4,22,8,16,16,0,0,0,0,0,0,0,0],"split_type":[0,0,0,0,0,0,0,0,0,0,0,0,0,0,0],"sum_hessian":[6.396879E4,5.7507336E4,6.4614517E3,1.911123E4,3.8396105E4,1.7994915E3,4.66196E3,1.3538324E4,5.5729062E3,1.5196209E4,2.3199896E4,1.6676678E3,1.3182364E2,1.0293079E3,3.6326523E3],"tree_param":{"num_deleted":"0","num_feature":"31","num_nodes":"15","size_leaf_vector":"1"}},{"base_weights":[-2.3205135E-7,6.8564843E-3,-1.260222E-2,-6.6742655E-3,3.410095E-2,-4.5186285E-2,1.3950582E-4,1.9683184E-3,-2.1038728E-3,2.3928164E-2,2.8218506E-3,-2.3627398E-3,-1.516601E-2,3.8064688E-3,-1.5736435E-3],"categories":[],"categories_nodes":[],"categories_segments":[],"categories_sizes":[],"default_left":[0,0,0,0,0,0,0,0,0,0,0,0,0,0,0],"id":29,"left_children":[1,3,5,7,9,11,13,-1,-1,-1,-1,-1,-1,-1,-1],"loss_changes":[5.5272827E0,1.5271501E1,9.358197E0,1.047988E1,1.6592106E1,1.45449E1,9.75631E0,0E0,0E0,0E0,0E0,0E0,0E0,0E0,0E0],"parents":[2147483647,0,0,1,1,2,2,3,3,4,4,5,5,6,6],"right_children":[2,4,6,8,10,12,14,-1,-1,-1,-1,-1,-1,-1,-1],"split_conditions":[3.4754403E-2,3.9714813E-2,3.7419904E-2,-8.509998E-2,-6.206296E-2,3.353165E-2,-3.7961162E-4,1.9683184E-3,-2.1038728E-3,2.3928164E-2,2.8218506E-3,-2.3627398E-3,-1.516601E-2,3.8064688E-3,-1.5736435E-3],"split_indices":[19,21,15,23,4,6,1,0,0,0,0,0,0,0,0],"split_type":[0,0,0,0,0,0,0,0,0,0,0,0,0,0,0],"sum_hessian":[6.3967062E4,4.1426816E4,2.2540246E4,2.767984E4,1.3746975E4,6.336385E3,1.6203862E4,9.763934E3,1.7915906E4,3.8313574E2,1.3363839E4,5.2694277E3,1.0669572E3,4.781528E3,1.1422334E4],"tree_param":{"num_deleted":"0","num_feature":"31","num_nodes":"15","size_leaf_vector":"1"}},{"base_weights":[-1.5740767E-7,-1.9020597E-3,3.61275E-2,2.0104547E-3,-3.998007E-2,-7.118624E-2,5.5181414E-2,6.458563E-5,2.0398904E-2,-3.8235225E-2,-3.2449325E-3,4.0784854E-2,-1.740664E-2,3.0020548E-2,4.496727E-3],"categories":[],"categories_nodes":[],"categories_segments":[],"categories_sizes":[],"default_left":[0,0,0,0,0,0,0,0,0,0,0,0,0,0,0],"id":30,"left_children":[1,3,5,7,9,11,13,-1,-1,-1,-1,-1,-1,-1,-1],"loss_changes":[4.3951488E0,9.053037E0,6.541116E0,1.518788E1,1.4598395E1,2.3771652E1,6.7989607E0,0E0,0E0,0E0,0E0,0E0,0E0,0E0,0E0],"parents":[2147483647,0,0,1,1,2,2,3,3,4,4,5,5,6,6],"right_children":[2,4,6,8,10,12,14,-1,-1,-1,-1,-1,-1,-1,-1],"split_conditions":[5.2166045E-1,9.372782E-2,-2.0952024E-2,1.13352835E-1,4.034195E-2,-6.2166676E-2,-2.3262154E-2,6.458563E-5,2.0398904E-2,-3.8235225E-2,-3.2449325E-3,4.0784854E-2,-1.740664E-2,3.0020548E-2,4.496727E-3],"split_indices":[30,19,3,16,17,20,4,0,0,0,0,0,0,0,0],"split_type":[0,0,0,0,0,0,0,0,0,0,0,0,0,0,0],"sum_hessian":[6.3965465E4,6.076648E4,3.1989868E3,5.5104496E4,5.661985E3,4.8234824E2,2.7166387E3,5.47347E4,3.6979605E2,1.2185943E2,5.5401255E3,8.527718E1,3.9707108E2,1.0871463E2,2.607924E3],"tree_param":{"num_deleted":"0","num_feature":"31","num_nodes":"15","size_leaf_vector":"1"}},{"base_weights":[-6.705546E-8,3.8114868E-2,-2.0524836E-3,2.456403E-2,2.4156727E-1,-3.27626E-2,2.2530206E-3,-5.782931E-4,1.2297908E-2,9.577465E-2,1.5845621E-2,-6.293448E-3,5.7923202E-3,1.1635779E-3,-1.0712276E-3],"categories":[],"categories_nodes":[],"categories_segments":[],"categories_sizes":[],"default_left":[0,0,0,0,0,0,0,0,0,0,0,0,0,0,0],"id":31,"left_children":[1,3,5,7,9,11,13,-1,-1,-1,-1,-1,-1,-1,-1],"loss_changes":[5.00381E0,9.010761E0,8.025417E0,9.151783E0,1.2148229E1,2.0420483E1,6.475819E0,0E0,0E0,0E0,0E0,0E0,0E0,0E0,0E0],"parents":[2147483647,0,0,1,1,2,2,3,3,4,4,5,5,6,6],"right_children":[2,4,6,8,10,12,14,-1,-1,-1,-1,-1,-1,-1,-1],"split_conditions":[-1.5163094E-1,5.202794E-2,-5.7828125E-2,-6.723949E-2,1.3288487E-2,1.2384613E-1,3.4754403E-2,-5.782931E-4,1.2297908E-2,9.577465E-2,1.5845621E-2,-6.293448E-3,5.7923202E-3,1.1635779E-3,-1.0712276E-3],"split_indices":[20,3,16,28,2,30,19,0,0,0,0,0,0,0,0],"split_type":[0,0,0,0,0,0,0,0,0,0,0,0,0,0,0],"sum_hessian":[6.3964668E4,3.2683792E3,6.0696285E4,3.0642842E3,2.0409502E2,7.463187E3,5.32331E4,2.342086E3,7.2219836E2,2.1222021E1,1.82873E2,5.600017E3,1.8631698E3,3.0883355E4,2.2349744E4],"tree_param":{"num_deleted":"0","num_feature":"31","num_nodes":"15","size_leaf_vector":"1"}},{"base_weights":[4.0331103E-9,1.953685E-3,-3.6884144E-2,-5.1610884E-3,1.3457055E-2,-5.957678E-2,7.091261E-2,-3.900156E-4,-1.0071556E-2,3.872268E-3,-3.4280957E-4,9.3677576E-4,-9.956678E-3,-5.103868E-2,1.0232983E-2],"categories":[],"categories_nodes":[],"categories_segments":[],"categories_sizes":[],"default_left":[0,0,0,0,0,0,0,0,0,0,0,0,0,0,0],"id":32,"left_children":[1,3,5,7,9,11,13,-1,-1,-1,-1,-1,-1,-1,-1],"loss_changes":[4.609148E0,4.971624E0,7.870758E0,4.522136E0,9.903112E0,7.328374E0,1.0218879E1,0E0,0E0,0E0,0E0,0E0,0E0,0E0,0E0],"parents":[2147483647,0,0,1,1,2,2,3,3,4,4,5,5,6,6],"right_children":[2,4,6,8,10,12,14,-1,-1,-1,-1,-1,-1,-1,-1],"split_conditions":[2.1621685E-1,8.678627E-2,8.579115E-2,2.5273824E-1,8.308435E-3,-3.7961162E-4,4.8917744E-2,-3.900156E-4,-1.0071556E-2,3.872268E-3,-3.4280957E-4,9.3677576E-4,-9.956678E-3,-5.103868E-2,1.0232983E-2],"split_indices":[21,24,9,26,11,1,17,0,0,0,0,0,0,0,0],"split_type":[0,0,0,0,0,0,0,0,0,0,0,0,0,0,0],"sum_hessian":[6.3962766E4,6.074521E4,3.2175547E3,3.7531918E4,2.3213293E4,2.6580088E3,5.5954584E2,3.70431E4,4.888191E2,9.298998E3,1.3914295E4,9.757582E2,1.6822506E3,2.8690874E1,5.30855E2],"tree_param":{"num_deleted":"0","num_feature":"31","num_nodes":"15","size_leaf_vector":"1"}},{"base_weights":[-1.2892127E-8,2.884616E-3,-2.5688319E-2,-1.3753199E-2,8.210996E-3,-1.5565054E-1,-1.7356496E-2,-6.5249205E-3,8.5955655E-4,1.0026793E-2,4.6107132E-4,2.6120871E-2,-2.9038323E-2,-2.8458913E-4,-1.0822405E-2],"categories":[],"categories_nodes":[],"categories_segments":[],"categories_sizes":[],"default_left":[0,0,0,0,0,0,0,0,0,0,0,0,0,0,0],"id":33,"left_children":[1,3,5,7,9,11,13,-1,-1,-1,-1,-1,-1,-1,-1],"loss_changes":[4.7396283E0,5.0959845E0,6.9921565E0,1.6048834E1,1.44368925E1,2.1850075E1,8.001328E0,0E0,0E0,0E0,0E0,0E0,0E0,0E0,0E0],"parents":[2147483647,0,0,1,1,2,2,3,3,4,4,5,5,6,6],"right_children":[2,4,6,8,10,12,14,-1,-1,-1,-1,-1,-1,-1,-1],"split_conditions":[1.7719455E-2,-6.552432E-2,-2.386802E-2,-5.7828125E-2,-1.2965457E-1,-1.6954786E-1,1.6673869E-1,-6.5249205E-3,8.5955655E-4,1.0026793E-2,4.6107132E-4,2.6120871E-2,-2.9038323E-2,-2.8458913E-4,-1.0822405E-2],"split_indices":[0,30,2,16,21,25,21,0,0,0,0,0,0,0,0],"split_type":[0,0,0,0,0,0,0,0,0,0,0,0,0,0,0],"sum_hessian":[6.396155E4,5.7504203E4,6.457346E3,1.3944935E4,4.355927E4,3.8903668E2,6.0683096E3,4.2203677E3,9.724567E3,1.6394552E3,4.1919812E4,9.502669E1,2.9400998E2,5.232701E3,8.356081E2],"tree_param":{"num_deleted":"0","num_feature":"31","num_nodes":"15","size_leaf_vector":"1"}},{"base_weights":[-1.5145504E-7,2.4124445E-2,-2.7074502E-3,1.1854725E-2,1.5966399E-1,-2.8764721E-2,6.3804624E-4,1.6097164E-3,-2.7352074E-2,8.921182E-3,3.9232593E-2,-1.6222615E-3,-1.757913E-2,-4.3215877E-3,3.9270535E-4],"categories":[],"categories_nodes":[],"categories_segments":[],"categories_sizes":[],"default_left":[0,0,0,0,0,0,0,0,0,0,0,0,0,0,0],"id":34,"left_children":[1,3,5,7,9,11,13,-1,-1,-1,-1,-1,-1,-1,-1],"loss_changes":[4.1774006E0,1.0732365E1,5.0131197E0,7.16459E0,8.78107E0,1.206583E1,7.3507648E0,0E0,0E0,0E0,0E0,0E0,0E0,0E0,0E0],"parents":[2147483647,0,0,1,1,2,2,3,3,4,4,5,5,6,6],"right_children":[2,4,6,8,10,12,14,-1,-1,-1,-1,-1,-1,-1,-1],"split_conditions":[-1.4589046E-1,-6.227916E-2,-5.6181297E-2,-6.0298335E-2,8.432145E-2,-3.8120542E-3,-1.8075062E-2,1.6097164E-3,-2.7352074E-2,8.921182E-3,3.9232593E-2,-1.6222615E-3,-1.757913E-2,-4.3215877E-3,3.9270535E-4],"split_indices":[22,24,15,23,26,10,0,0,0,0,0,0,0,0,0],"split_type":[0,0,0,0,0,0,0,0,0,0,0,0,0,0,0],"sum_hessian":[6.396021E4,6.4534907E3,5.750672E4,5.917783E3,5.3570746E2,6.5432114E3,5.0963508E4,5.831097E3,8.6686066E1,4.111941E2,1.24513374E2,6.028915E3,5.1429675E2,3.5555564E3,4.740795E4],"tree_param":{"num_deleted":"0","num_feature":"31","num_nodes":"15","size_leaf_vector":"1"}},{"base_weights":[-1.3086259E-7,2.4187753E-2,-2.7046362E-3,1.6719976E-2,1.5059128E-1,-2.7836109E-2,1.80163E-3,2.6144944E-3,-1.1206361E-2,6.84327E-2,7.383309E-3,-5.472363E-3,1.9390461E-3,-1.2983761E-3,1.1369435E-3],"categories":[],"categories_nodes":[],"categories_segments":[],"categories_sizes":[],"default_left":[0,0,0,0,0,0,0,0,0,0,0,0,0,0,0],"id":35,"left_children":[1,3,5,7,9,11,13,-1,-1,-1,-1,-1,-1,-1,-1],"loss_changes":[4.1840296E0,6.071808E0,6.5149674E0,7.371903E0,1.4700166E1,1.1106736E1,6.900737E0,0E0,0E0,0E0,0E0,0E0,0E0,0E0,0E0],"parents":[2147483647,0,0,1,1,2,2,3,3,4,4,5,5,6,6],"right_children":[2,4,6,8,10,12,14,-1,-1,-1,-1,-1,-1,-1,-1],"split_conditions":[-1.1020053E-1,5.202794E-2,-4.1491747E-2,3.237012E-2,3.6139716E-3,9.262338E-2,-2.7397217E-4,2.6144944E-3,-1.1206361E-2,6.84327E-2,7.383309E-3,-5.472363E-3,1.9390461E-3,-1.2983761E-3,1.1369435E-3],"split_indices":[20,3,15,2,1,30,2,0,0,0,0,0,0,0,0],"split_type":[0,0,0,0,0,0,0,0,0,0,0,0,0,0,0],"sum_hessian":[6.3960086E4,6.432318E3,5.752777E4,6.0735024E3,3.5881558E2,8.746803E3,4.8780965E4,5.659327E3,4.141752E2,4.5114346E1,3.1370123E2,5.573589E3,3.1732134E3,1.9164908E4,2.9616059E4],"tree_param":{"num_deleted":"0","num_feature":"31","num_nodes":"15","size_leaf_vector":"1"}},{"base_weights":[-6.59941E-8,8.504379E-3,-8.398384E-3,-2.1149183E-3,4.0886465E-2,-2.9147824E-2,-2.5002568E-4,-1.5217863E-3,3.84925E-3,1.7003037E-2,2.2537818E-3,2.2470597E-2,-3.6482175E-3,2.8260502E-3,-1.4099759E-3],"categories":[],"categories_nodes":[],"categories_segments":[],"categories_sizes":[],"default_left":[0,0,0,0,0,0,0,0,0,0,0,0,0,0,0],"id":36,"left_children":[1,3,5,7,9,11,13,-1,-1,-1,-1,-1,-1,-1,-1],"loss_changes":[4.568163E0,1.0927945E1,5.440866E0,1.2733114E1,1.8596416E1,1.6894379E1,9.123885E0,0E0,0E0,0E0,0E0,0E0,0E0,0E0,0E0],"parents":[2147483647,0,0,1,1,2,2,3,3,4,4,5,5,6,6],"right_children":[2,4,6,8,10,12,14,-1,-1,-1,-1,-1,-1,-1,-1],"split_conditions":[5.1598996E-3,2.1402979E-1,1.4834228E-2,2.1145327E-4,-6.139371E-2,-1.8723726E-2,1.7872088E-3,-1.5217863E-3,3.84925E-3,1.7003037E-2,2.2537818E-3,2.2470597E-2,-3.6482175E-3,2.8260502E-3,-1.4099759E-3],"split_indices":[7,30,13,4,18,5,1,0,0,0,0,0,0,0,0],"split_type":[0,0,0,0,0,0,0,0,0,0,0,0,0,0,0],"sum_hessian":[6.395924E4,3.1778832E4,3.2180408E4,2.393097E4,7.8478604E3,9.073962E3,2.3106447E4,1.8092877E4,5.8380947E3,9.763043E2,6.871556E3,2.5480334E2,8.819158E3,7.554678E3,1.555177E4],"tree_param":{"num_deleted":"0","num_feature":"31","num_nodes":"15","size_leaf_vector":"1"}},{"base_weights":[5.3081592E-8,3.5188857E-2,-1.8847202E-3,-2.7853452E-2,1.16718784E-1,-7.232588E-2,5.757422E-4,5.5965073E-3,-9.349312E-3,1.9196229E-2,-2.1733448E-3,-1.4583862E-2,5.4308437E-3,3.8042401E-3,-2.5181795E-4],"categories":[],"categories_nodes":[],"categories_segments":[],"categories_sizes":[],"default_left":[0,0,0,0,0,0,0,0,0,0,0,0,0,0,0],"id":37,"left_children":[1,3,5,7,9,11,13,-1,-1,-1,-1,-1,-1,-1,-1],"loss_changes":[4.2418423E0,1.671224E1,1.0521414E1,1.0088441E1,1.4770721E1,1.9073238E1,6.799461E0,0E0,0E0,0E0,0E0,0E0,0E0,0E0,0E0],"parents":[2147483647,0,0,1,1,2,2,3,3,4,4,5,5,6,6],"right_children":[2,4,6,8,10,12,14,-1,-1,-1,-1,-1,-1,-1,-1],"split_conditions":[-3.7849657E-2,-7.2578285E-3,-8.374312E-2,-1.6954786E-1,-3.5099745E-2,-3.061615E-2,-1.1020053E-1,5.5965073E-3,-9.349312E-3,1.9196229E-2,-2.1733448E-3,-1.4583862E-2,5.4308437E-3,3.8042401E-3,-2.5181795E-4],"split_indices":[1,27,8,25,10,30,20,0,0,0,0,0,0,0,0],"split_type":[0,0,0,0,0,0,0,0,0,0,0,0,0,0,0],"sum_hessian":[6.3957414E4,3.2515132E3,6.07059E4,1.8336552E3,1.4178579E3,2.0488513E3,5.865705E4,8.0531226E2,1.0283429E3,9.1862195E2,4.99236E2,1.2963213E3,7.5252997E2,4.474303E3,5.4182746E4],"tree_param":{"num_deleted":"0","num_feature":"31","num_nodes":"15","size_leaf_vector":"1"}},{"base_weights":[8.946275E-8,5.389988E-3,-1.2497171E-2,1.6928188E-4,2.816532E-2,-8.93117E-2,-6.6361595E-3,3.2963825E-3,-9.0490154E-4,9.09154E-3,-1.2166499E-3,1.196302E-3,-1.6869146E-2,1.0947274E-2,-1.2239831E-3],"categories":[],"categories_nodes":[],"categories_segments":[],"categories_sizes":[],"default_left":[0,0,0,0,0,0,0,0,0,0,0,0,0,0,0],"id":38,"left_children":[1,3,5,7,9,11,13,-1,-1,-1,-1,-1,-1,-1,-1],"loss_changes":[4.307994E0,5.31309E0,8.676305E0,1.0989389E1,2.1088608E1,1.09831085E1,1.1649932E1,0E0,0E0,0E0,0E0,0E0,0E0,0E0,0E0],"parents":[2147483647,0,0,1,1,2,2,3,3,4,4,5,5,6,6],"right_children":[2,4,6,8,10,12,14,-1,-1,-1,-1,-1,-1,-1,-1],"split_conditions":[7.0382725E-3,2.5066564E-2,-5.7731804E-2,-7.313086E-2,3.390402E-2,-9.075501E-2,-2.9848394E-1,3.2963825E-3,-9.0490154E-4,9.09154E-3,-1.2166499E-3,1.196302E-3,-1.6869146E-2,1.0947274E-2,-1.2239831E-3],"split_indices":[0,5,8,21,9,25,30,0,0,0,0,0,0,0,0],"split_type":[0,0,0,0,0,0,0,0,0,0,0,0,0,0,0],"sum_hessian":[6.3955766E4,4.4684113E4,1.927165E4,3.635141E4,8.332701E3,1.3662004E3,1.7905451E4,7.9760884E3,2.8375322E4,3.2602524E3,5.072449E3,6.003099E2,7.6589056E2,8.243706E2,1.708108E4],"tree_param":{"num_deleted":"0","num_feature":"31","num_nodes":"15","size_leaf_vector":"1"}},{"base_weights":[9.646439E-9,-9.169632E-3,6.1715296E-3,7.6348116E-3,-3.4269515E-2,2.3790182E-1,5.4961042E-3,1.34478E-3,-4.937398E-3,-5.678546E-3,1.3388828E-3,4.0625867E-2,-1.0324666E-2,1.623499E-2,4.3795467E-4],"categories":[],"categories_nodes":[],"categories_segments":[],"categories_sizes":[],"default_left":[0,0,0,0,0,0,0,0,0,0,0,0,0,0,0],"id":39,"left_children":[1,3,5,7,9,11,13,-1,-1,-1,-1,-1,-1,-1,-1],"loss_changes":[3.6192527E0,1.0851859E1,5.9831357E0,5.1069593E0,1.1071404E1,6.3807745E0,6.67545E0,0E0,0E0,0E0,0E0,0E0,0E0,0E0,0E0],"parents":[2147483647,0,0,1,1,2,2,3,3,4,4,5,5,6,6],"right_children":[2,4,6,8,10,12,14,-1,-1,-1,-1,-1,-1,-1,-1],"split_conditions":[7.076739E-3,-6.0298335E-2,-1.1484304E-1,6.6069745E-2,3.9714813E-2,2.2137696E-2,-1.5163094E-1,1.34478E-3,-4.937398E-3,-5.678546E-3,1.3388828E-3,4.0625867E-2,-1.0324666E-2,1.623499E-2,4.3795467E-4],"split_indices":[24,23,23,10,21,6,20,0,0,0,0,0,0,0,0],"split_type":[0,0,0,0,0,0,0,0,0,0,0,0,0,0,0],"sum_hessian":[6.3954984E4,2.5728135E4,3.822685E4,1.5410657E4,1.0317479E4,1.110962E2,3.8115754E4,1.39846875E4,1.42597E3,7.007038E3,3.3104402E3,7.438647E1,3.6709736E1,2.6940765E2,3.7846348E4],"tree_param":{"num_deleted":"0","num_feature":"31","num_nodes":"15","size_leaf_vector":"1"}},{"base_weights":[5.509015E-9,7.6406314E-3,-7.544594E-3,1.0310484E-2,-1.07682645E-1,-4.359941E-2,2.1949618E-3,6.3117023E-4,1.34822205E-2,-2.3203492E-3,-2.878408E-2,-2.2101153E-3,-1.313326E-2,1.9860556E-2,7.964122E-5],"categories":[],"categories_nodes":[],"categories_segments":[],"categories_sizes":[],"default_left":[0,0,0,0,0,0,0,0,0,0,0,0,0,0,0],"id":40,"left_children":[1,3,5,7,9,11,13,-1,-1,-1,-1,-1,-1,-1,-1],"loss_changes":[3.6866527E0,9.783319E0,1.129997E1,1.5462521E1,1.0942485E1,1.2908302E1,6.959352E0,0E0,0E0,0E0,0E0,0E0,0E0,0E0,0E0],"parents":[2147483647,0,0,1,1,2,2,3,3,4,4,5,5,6,6],"right_children":[2,4,6,8,10,12,14,-1,-1,-1,-1,-1,-1,-1,-1],"split_conditions":[5.1598996E-3,3.558161E-2,3.421677E-3,1.7438617E-2,-3.6739476E-3,2.4720294E-2,-1.842245E-2,6.3117023E-4,1.34822205E-2,-2.3203492E-3,-2.878408E-2,-2.2101153E-3,-1.313326E-2,1.9860556E-2,7.964122E-5],"split_indices":[7,1,15,6,6,11,12,0,0,0,0,0,0,0,0],"split_type":[0,0,0,0,0,0,0,0,0,0,0,0,0,0,0],"sum_hessian":[6.395391E4,3.1774744E4,3.2179168E4,3.1055771E4,7.1897296E2,6.843871E3,2.5335297E4,3.0089428E4,9.6634314E2,4.8945798E2,2.2951501E2,5.496903E3,1.3469684E3,1.7912553E2,2.515617E4],"tree_param":{"num_deleted":"0","num_feature":"31","num_nodes":"15","size_leaf_vector":"1"}},{"base_weights":[-2.0708212E-8,-2.9874141E-3,1.682004E-2,2.597493E-3,-2.2183424E-2,2.1762663E-1,1.3482401E-2,-6.5795827E-4,1.8317683E-3,-1.2489128E-2,-1.2182528E-3,2.663033E-2,-4.517521E-2,-4.213849E-3,2.6509606E-3],"categories":[],"categories_nodes":[],"categories_segments":[],"categories_sizes":[],"default_left":[0,0,0,0,0,0,0,0,0,0,0,0,0,0,0],"id":41,"left_children":[1,3,5,7,9,11,13,-1,-1,-1,-1,-1,-1,-1,-1],"loss_changes":[3.2135272E0,5.8222094E0,6.46462E0,6.068993E0,1.2571932E1,5.1383133E0,6.874733E0,0E0,0E0,0E0,0E0,0E0,0E0,0E0,0E0],"parents":[2147483647,0,0,1,1,2,2,3,3,4,4,5,5,6,6],"right_children":[2,4,6,8,10,12,14,-1,-1,-1,-1,-1,-1,-1,-1],"split_conditions":[2.9269776E-1,5.242086E-2,-9.593203E-2,2.7646856E-2,3.107922E-2,-4.514542E-2,3.9714813E-2,-6.5795827E-4,1.8317683E-3,-1.2489128E-2,-1.2182528E-3,2.663033E-2,-4.517521E-2,-4.213849E-3,2.6509606E-3],"split_indices":[28,19,11,21,16,9,21,0,0,0,0,0,0,0,0],"split_type":[0,0,0,0,0,0,0,0,0,0,0,0,0,0,0],"sum_hessian":[6.395316E4,5.4307637E4,9.645523E3,4.2068254E4,1.2239383E4,1.5769864E2,9.487825E3,2.6561992E4,1.5506264E4,1.0860272E3,1.1153355E4,1.4700832E2,1.0690321E1,1.8004845E3,7.6873403E3],"tree_param":{"num_deleted":"0","num_feature":"31","num_nodes":"15","size_leaf_vector":"1"}},{"base_weights":[6.2600684E-8,2.5215126E-3,-2.250039E-2,-2.4443315E-3,2.207893E-2,6.2178835E-2,-4.2749252E-2,-1.8295797E-3,7.695995E-4,-1.2226441E-2,2.8309494E-3,-6.504364E-2,7.2370837E-3,-1.602632E-2,-2.7973054E-3],"categories":[],"categories_nodes":[],"categories_segments":[],"categories_sizes":[],"default_left":[0,0,0,0,0,0,0,0,0,0,0,0,0,0,0],"id":42,"left_children":[1,3,5,7,9,11,13,-1,-1,-1,-1,-1,-1,-1,-1],"loss_changes":[3.6282074E0,5.585036E0,1.104989E1,7.3718424E0,1.0472743E1,9.0324135E0,9.030624E0,0E0,0E0,0E0,0E0,0E0,0E0,0E0,0E0],"parents":[2147483647,0,0,1,1,2,2,3,3,4,4,5,5,6,6],"right_children":[2,4,6,8,10,12,14,-1,-1,-1,-1,-1,-1,-1,-1],"split_conditions":[2.0105736E-1,1.6944356E-1,-7.4329716E-3,-7.4997186E-3,-6.580567E-3,-1.1513236E-1,-1.3071484E-2,-1.8295797E-3,7.695995E-4,-1.2226441E-2,2.8309494E-3,-6.504364E-2,7.2370837E-3,-1.602632E-2,-2.7973054E-3],"split_indices":[22,25,0,4,28,17,5,0,0,0,0,0,0,0,0],"split_type":[0,0,0,0,0,0,0,0,0,0,0,0,0,0,0],"sum_hessian":[6.3951465E4,5.7507094E4,6.4443706E3,4.586218E4,1.1644914E4,1.2436246E3,5.200746E3,1.7892475E4,2.7969705E4,4.818524E2,1.1163062E4,1.7535826E1,1.2260889E3,5.8089923E2,4.6198467E3],"tree_param":{"num_deleted":"0","num_feature":"31","num_nodes":"15","size_leaf_vector":"1"}},{"base_weights":[1.3193504E-7,3.1537272E-3,-1.778556E-2,-2.8031608E-3,1.7274648E-2,-8.5784666E-2,-3.3692268E-3,-1.1112804E-3,1.2894196E-3,5.867222E-3,2.8265532E-4,5.2854517E-3,-1.2965048E-2,6.6566984E-3,-1.7562093E-3],"categories":[],"categories_nodes":[],"categories_segments":[],"categories_sizes":[],"default_left":[0,0,0,0,0,0,0,0,0,0,0,0,0,0,0],"id":43,"left_children":[1,3,5,7,9,11,13,-1,-1,-1,-1,-1,-1,-1,-1],"loss_changes":[3.5869215E0,4.5691614E0,9.441635E0,4.983215E0,9.639236E0,1.0245839E1,7.887801E0,0E0,0E0,0E0,0E0,0E0,0E0,0E0,0E0],"parents":[2147483647,0,0,1,1,2,2,3,3,4,4,5,5,6,6],"right_children":[2,4,6,8,10,12,14,-1,-1,-1,-1,-1,-1,-1,-1],"split_conditions":[1.3754743E-1,5.3455327E-2,1.2612432E-3,1.24013685E-2,2.8071912E-2,-8.955201E-3,1.24013685E-2,-1.1112804E-3,1.2894196E-3,5.867222E-3,2.8265532E-4,5.2854517E-3,-1.2965048E-2,6.6566984E-3,-1.7562093E-3],"split_indices":[21,21,30,19,20,7,19,0,0,0,0,0,0,0,0],"split_type":[0,0,0,0,0,0,0,0,0,0,0,0,0,0,0],"sum_hessian":[6.395068E4,5.431928E4,9.6313955E3,3.820329E4,1.6115995E4,1.6847499E3,7.9466455E3,2.4979824E4,1.3223463E4,4.169445E3,1.1946551E4,4.049364E2,1.2798135E3,1.3406266E3,6.6060186E3],"tree_param":{"num_deleted":"0","num_feature":"31","num_nodes":"15","size_leaf_vector":"1"}},{"base_weights":[9.525345E-8,1.4990995E-2,-3.7847825E-3,1.1150417E-2,2.2211105E-1,-3.906054E-2,1.2579272E-3,3.1932336E-3,-2.0080244E-3,2.8397013E-2,-5.267336E-2,2.7077204E-2,-4.5465226E-3,4.027712E-3,-3.443347E-4],"categories":[],"categories_nodes":[],"categories_segments":[],"categories_sizes":[],"default_left":[0,0,0,0,0,0,0,0,0,0,0,0,0,0,0],"id":44,"left_children":[1,3,5,7,9,11,13,-1,-1,-1,-1,-1,-1,-1,-1],"loss_changes":[3.6284163E0,1.0254398E1,9.082547E0,8.214459E0,1.0871308E1,1.2672199E1,8.194708E0,0E0,0E0,0E0,0E0,0E0,0E0,0E0,0E0],"parents":[2147483647,0,0,1,1,2,2,3,3,4,4,5,5,6,6],"right_children":[2,4,6,8,10,12,14,-1,-1,-1,-1,-1,-1,-1,-1],"split_conditions":[-6.2166676E-2,5.3455327E-2,-3.7736055E-2,1.7872088E-3,3.2484213E-1,-1.8083715E-1,-1.9080326E-2,3.1932336E-3,-2.0080244E-3,2.8397013E-2,-5.267336E-2,2.7077204E-2,-4.5465226E-3,4.027712E-3,-3.443347E-4],"split_indices":[20,21,12,1,24,21,13,0,0,0,0,0,0,0,0],"split_type":[0,0,0,0,0,0,0,0,0,0,0,0,0,0,0],"sum_hessian":[6.394956E4,1.2891145E4,5.1058414E4,1.2656459E4,2.3468573E2,6.3859756E3,4.4672438E4,7.5994995E3,5.0569595E3,2.1677852E2,1.7907211E1,1.2933374E2,6.2566416E3,4.8036396E3,3.9868797E4],"tree_param":{"num_deleted":"0","num_feature":"31","num_nodes":"15","size_leaf_vector":"1"}},{"base_weights":[1.1088949E-7,7.2272504E-3,-7.135963E-3,-5.956638E-4,4.3475028E-2,-4.7336146E-2,-2.055884E-3,-5.6723075E-4,1.1871569E-2,1.386322E-2,2.4022826E-3,-3.1569183E-3,-2.3806002E-2,1.7981261E-2,-4.0311748E-4],"categories":[],"categories_nodes":[],"categories_segments":[],"categories_sizes":[],"default_left":[0,0,0,0,0,0,0,0,0,0,0,0,0,0,0],"id":45,"left_children":[1,3,5,7,9,11,13,-1,-1,-1,-1,-1,-1,-1,-1],"loss_changes":[3.2980728E0,9.009321E0,6.5712466E0,1.5828223E1,1.0439296E1,1.0855854E1,1.0262588E1,0E0,0E0,0E0,0E0,0E0,0E0,0E0,0E0],"parents":[2147483647,0,0,1,1,2,2,3,3,4,4,5,5,6,6],"right_children":[2,4,6,8,10,12,14,-1,-1,-1,-1,-1,-1,-1,-1],"split_conditions":[5.1598996E-3,9.026681E-3,-2.1046888E-2,9.22168E-3,-2.590102E-3,-3.8523173E-3,-2.7380608E-2,-5.6723075E-4,1.1871569E-2,1.386322E-2,2.4022826E-3,-3.1569183E-3,-2.3806002E-2,1.7981261E-2,-4.0311748E-4],"split_indices":[7,3,16,6,1,19,12,0,0,0,0,0,0,0,0],"split_type":[0,0,0,0,0,0,0,0,0,0,0,0,0,0,0],"sum_hessian":[6.3949105E4,3.1771828E4,3.2177277E4,2.6132064E4,5.6397637E3,3.61003E3,2.8567248E4,2.5065537E4,1.0665272E3,9.57215E2,4.6825483E3,3.33438E3,2.7565012E2,3.069378E2,2.826031E4],"tree_param":{"num_deleted":"0","num_feature":"31","num_nodes":"15","size_leaf_vector":"1"}},{"base_weights":[1.4936806E-7,3.0846035E-2,-1.651522E-3,-4.239281E-2,9.534817E-2,-6.371765E-2,5.154291E-4,1.1807536E-2,-1.1480968E-2,2.0564657E-2,1.6944733E-3,-1.2331038E-2,2.096544E-3,2.8296171E-3,-3.6468246E-4],"categories":[],"categories_nodes":[],"categories_segments":[],"categories_sizes":[],"default_left":[0,0,0,0,0,0,0,0,0,0,0,0,0,0,0],"id":46,"left_children":[1,3,5,7,9,11,13,-1,-1,-1,-1,-1,-1,-1,-1],"loss_changes":[3.2579875E0,1.5353842E1,8.163545E0,1.7686466E1,1.494459E1,1.033369E1,6.781774E0,0E0,0E0,0E0,0E0,0E0,0E0,0E0,0E0],"parents":[2147483647,0,0,1,1,2,2,3,3,4,4,5,5,6,6],"right_children":[2,4,6,8,10,12,14,-1,-1,-1,-1,-1,-1,-1,-1],"split_conditions":[-3.7849657E-2,-6.723949E-2,-8.374312E-2,-2.540651E-1,-6.139371E-2,-6.650094E-2,-1.5118529E-1,1.1807536E-2,-1.1480968E-2,2.0564657E-2,1.6944733E-3,-1.2331038E-2,2.096544E-3,2.8296171E-3,-3.6468246E-4],"split_indices":[1,28,8,26,18,29,30,0,0,0,0,0,0,0,0],"split_type":[0,0,0,0,0,0,0,0,0,0,0,0,0,0,0],"sum_hessian":[6.394823E4,3.2501355E3,6.0698094E4,1.5219922E3,1.7281434E3,2.0476959E3,5.86504E4,4.732718E2,1.0487203E3,7.1802374E2,1.0101196E3,1.2019008E3,8.457951E2,7.6422964E3,5.10081E4],"tree_param":{"num_deleted":"0","num_feature":"31","num_nodes":"15","size_leaf_vector":"1"}},{"base_weights":[1.3304198E-7,4.4487445E-3,-1.0314898E-2,-6.859709E-3,3.2104094E-2,-1.13760345E-1,-6.6398964E-3,2.402262E-3,-1.532779E-3,-2.8078351E-2,3.52365E-3,-4.9749915E-3,-4.9487207E-2,4.3788566E-3,-1.7000344E-3],"categories":[],"categories_nodes":[],"categories_segments":[],"categories_sizes":[],"default_left":[0,0,0,0,0,0,0,0,0,0,0,0,0,0,0],"id":47,"left_children":[1,3,5,7,9,11,13,-1,-1,-1,-1,-1,-1,-1,-1],"loss_changes":[2.9343836E0,1.3972731E1,7.3252378E0,8.293001E0,1.2708876E1,1.6126534E1,9.721787E0,0E0,0E0,0E0,0E0,0E0,0E0,0E0,0E0],"parents":[2147483647,0,0,1,1,2,2,3,3,4,4,5,5,6,6],"right_children":[2,4,6,8,10,12,14,-1,-1,-1,-1,-1,-1,-1,-1],"split_conditions":[7.0382725E-3,7.4186884E-3,-8.7636255E-2,-4.281847E-2,-2.6774468E-2,-7.361968E-2,1.7872088E-3,2.402262E-3,-1.532779E-3,-2.8078351E-2,3.52365E-3,-4.9749915E-3,-4.9487207E-2,4.3788566E-3,-1.7000344E-3],"split_indices":[0,2,9,8,0,14,1,0,0,0,0,0,0,0,0],"split_type":[0,0,0,0,0,0,0,0,0,0,0,0,0,0,0],"sum_hessian":[6.3947254E4,4.4678535E4,1.926872E4,3.1711496E4,1.2967038E4,6.610556E2,1.8607664E4,6.8242104E3,2.4887285E4,1.2852995E2,1.2838509E4,5.6599304E2,9.506256E1,3.1713635E3,1.5436301E4],"tree_param":{"num_deleted":"0","num_feature":"31","num_nodes":"15","size_leaf_vector":"1"}},{"base_weights":[5.4584044E-9,5.179778E-3,-9.518057E-3,-4.8886356E-3,2.5454216E-2,-1.4996386E-1,-7.121568E-3,1.334077E-3,-1.8724358E-3,2.9123048E-3,-1.2092006E-2,-2.4145016E-2,1.5885627E-2,-1.4844913E-3,3.424421E-3],"categories":[],"categories_nodes":[],"categories_segments":[],"categories_sizes":[],"default_left":[0,0,0,0,0,0,0,0,0,0,0,0,0,0,0],"id":48,"left_children":[1,3,5,7,9,11,13,-1,-1,-1,-1,-1,-1,-1,-1],"loss_changes":[3.1526425E0,8.453187E0,7.5850253E0,6.9787455E0,7.379178E0,1.0682015E1,7.0789905E0,0E0,0E0,0E0,0E0,0E0,0E0,0E0,0E0],"parents":[2147483647,0,0,1,1,2,2,3,3,4,4,5,5,6,6],"right_children":[2,4,6,8,10,12,14,-1,-1,-1,-1,-1,-1,-1,-1],"split_conditions":[3.4754403E-2,3.9714813E-2,-2.6774468E-2,-6.0298335E-2,6.952804E-2,1.6609418E-1,4.0674004E-1,1.334077E-3,-1.8724358E-3,2.9123048E-3,-1.2092006E-2,-2.4145016E-2,1.5885627E-2,-1.4844913E-3,3.424421E-3],"split_indices":[19,21,0,23,11,22,30,0,0,0,0,0,0,0,0],"split_type":[0,0,0,0,0,0,0,0,0,0,0,0,0,0,0],"sum_hessian":[6.394631E4,4.1410516E4,2.2535791E4,2.7669611E4,1.3740905E4,3.7808676E2,2.2157703E4,1.1939109E4,1.5730503E4,1.3404914E4,3.3599063E2,2.9167853E2,8.640821E1,1.8671564E4,3.4861404E3],"tree_param":{"num_deleted":"0","num_feature":"31","num_nodes":"15","size_leaf_vector":"1"}},{"base_weights":[-5.266538E-10,2.260136E-3,-2.0215569E-2,1.02320975E-2,-6.5580714E-3,4.558707E-2,-4.524758E-2,1.3041203E-3,-1.1120009E-2,-3.8416944E-3,3.658625E-4,-2.5035886E-3,1.0704259E-2,-7.580209E-3,5.712084E-3],"categories":[],"categories_nodes":[],"categories_segments":[],"categories_sizes":[],"default_left":[0,0,0,0,0,0,0,0,0,0,0,0,0,0,0],"id":49,"left_children":[1,3,5,7,9,11,13,-1,-1,-1,-1,-1,-1,-1,-1],"loss_changes":[2.921622E0,4.043165E0,1.0591653E1,1.0303934E1,8.888471E0,7.690874E0,1.45699415E1,0E0,0E0,0E0,0E0,0E0,0E0,0E0,0E0],"parents":[2147483647,0,0,1,1,2,2,3,3,4,4,5,5,6,6],"right_children":[2,4,6,8,10,12,14,-1,-1,-1,-1,-1,-1,-1,-1],"split_conditions":[1.328245E-1,5.1598996E-3,-3.4903681E-3,3.558161E-2,3.421677E-3,-7.672334E-3,1.13352835E-1,1.3041203E-3,-1.1120009E-2,-3.8416944E-3,3.658625E-4,-2.5035886E-3,1.0704259E-2,-7.580209E-3,5.712084E-3],"split_indices":[20,7,0,1,15,1,16,0,0,0,0,0,0,0,0],"split_type":[0,0,0,0,0,0,0,0,0,0,0,0,0,0,0],"sum_hessian":[6.3944527E4,5.751432E4,6.4302036E3,3.0206559E4,2.7307764E4,1.7720212E3,4.6581826E3,2.9523586E4,6.829726E2,6.6308105E3,2.0676953E4,8.245135E2,9.4750775E2,3.587423E3,1.0707595E3],"tree_param":{"num_deleted":"0","num_feature":"31","num_nodes":"15","size_leaf_vector":"1"}},{"base_weights":[-4.588556E-8,-6.2444923E-3,7.538093E-3,-1.287525E-2,4.5966234E-2,1.1753597E-1,2.371965E-3,1.0539116E-3,-2.0762247E-3,6.433273E-3,-7.366208E-3,1.6753135E-2,-1.0010984E-2,3.7972187E-3,-1.0630327E-3],"categories":[],"categories_nodes":[],"categories_segments":[],"categories_sizes":[],"default_left":[0,0,0,0,0,0,0,0,0,0,0,0,0,0,0],"id":50,"left_children":[1,3,5,7,9,11,13,-1,-1,-1,-1,-1,-1,-1,-1],"loss_changes":[3.009932E0,1.21075115E1,1.646309E1,5.730628E0,8.65908E0,1.4141335E1,1.280861E1,0E0,0E0,0E0,0E0,0E0,0E0,0E0,0E0],"parents":[2147483647,0,0,1,1,2,2,3,3,4,4,5,5,6,6],"right_children":[2,4,6,8,10,12,14,-1,-1,-1,-1,-1,-1,-1,-1],"split_conditions":[6.8279356E-3,1.3325787E-2,-2.1705192E-2,-6.2166676E-2,2.7594122E-1,2.023474E-2,1.7872088E-3,1.0539116E-3,-2.0762247E-3,6.433273E-3,-7.366208E-3,1.6753135E-2,-1.0010984E-2,3.7972187E-3,-1.0630327E-3],"split_indices":[4,1,7,20,27,5,1,0,0,0,0,0,0,0,0],"split_type":[0,0,0,0,0,0,0,0,0,0,0,0,0,0,0],"sum_hessian":[6.3943824E4,3.4972934E4,2.8970893E4,3.1031887E4,3.9410464E3,1.2996017E3,2.7671291E4,7.819097E3,2.321279E4,3.4165107E3,5.2453564E2,1.056836E3,2.4276564E2,7.402708E3,2.0268582E4],"tree_param":{"num_deleted":"0","num_feature":"31","num_nodes":"15","size_leaf_vector":"1"}},{"base_weights":[-7.270724E-10,1.5190138E-3,-2.8682638E-2,3.6845845E-3,-2.0368142E-2,-1.3744338E-1,-2.4061156E-3,-4.8789117E-4,1.5673954E-3,-8.540415E-3,2.3594424E-4,1.6128898E-2,-2.1584189E-2,9.841227E-3,-3.92603E-3],"categories":[],"categories_nodes":[],"categories_segments":[],"categories_sizes":[],"default_left":[0,0,0,0,0,0,0,0,0,0,0,0,0,0,0],"id":51,"left_children":[1,3,5,7,9,11,13,-1,-1,-1,-1,-1,-1,-1,-1],"loss_changes":[2.7859805E0,2.8783731E0,9.191118E0,5.6735897E0,8.081661E0,1.4656572E1,9.624392E0,0E0,0E0,0E0,0E0,0E0,0E0,0E0,0E0],"parents":[2147483647,0,0,1,1,2,2,3,3,4,4,5,5,6,6],"right_children":[2,4,6,8,10,12,14,-1,-1,-1,-1,-1,-1,-1,-1],"split_conditions":[2.1621685E-1,6.952804E-2,1.2612432E-3,4.685289E-3,6.588403E-2,-8.955201E-3,-3.4903681E-3,-4.8789117E-4,1.5673954E-3,-8.540415E-3,2.3594424E-4,1.6128898E-2,-2.1584189E-2,9.841227E-3,-3.92603E-3],"split_indices":[21,11,30,2,15,7,0,0,0,0,0,0,0,0,0],"split_type":[0,0,0,0,0,0,0,0,0,0,0,0,0,0,0],"sum_hessian":[6.3943594E4,6.0727504E4,3.2160906E3,5.525994E4,5.467559E3,6.2581E2,2.5902805E3,3.22355E4,2.3024443E4,1.4158993E3,4.0516597E3,1.3009427E2,4.9571576E2,6.934037E2,1.8968768E3],"tree_param":{"num_deleted":"0","num_feature":"31","num_nodes":"15","size_leaf_vector":"1"}},{"base_weights":[-9.53458E-8,-2.6779832E-2,1.4287541E-3,-5.038616E-2,1.3493022E-1,1.07659064E-1,-8.422392E-4,-7.7528143E-3,7.768544E-3,3.8671214E-2,1.323742E-3,6.2248297E-4,1.7267598E-2,-2.2997E-3,2.858923E-4],"categories":[],"categories_nodes":[],"categories_segments":[],"categories_sizes":[],"default_left":[0,0,0,0,0,0,0,0,0,0,0,0,0,0,0],"id":52,"left_children":[1,3,5,7,9,11,13,-1,-1,-1,-1,-1,-1,-1,-1],"loss_changes":[2.4467142E0,1.2364059E1,1.4644676E1,9.824562E0,1.2641529E1,8.37929E0,4.8734236E0,0E0,0E0,0E0,0E0,0E0,0E0,0E0,0E0],"parents":[2147483647,0,0,1,1,2,2,3,3,4,4,5,5,6,6],"right_children":[2,4,6,8,10,12,14,-1,-1,-1,-1,-1,-1,-1,-1],"split_conditions":[-9.899363E-2,1.3703625E-1,-1.20148815E-1,1.2612432E-3,-3.7849657E-2,-1.7952688E-2,-4.415513E-2,-7.7528143E-3,7.768544E-3,3.8671214E-2,1.323742E-3,6.2248297E-4,1.7267598E-2,-2.2997E-3,2.858923E-4],"split_indices":[12,29,19,30,1,2,17,0,0,0,0,0,0,0,0],"split_type":[0,0,0,0,0,0,0,0,0,0,0,0,0,0,0],"sum_hessian":[6.394263E4,3.2388857E3,6.0703742E4,2.8263037E3,4.1258194E2,1.2705635E3,5.943318E4,2.332072E3,4.9423175E2,1.3443549E2,2.7814645E2,4.9629034E2,7.742731E2,8.5076E3,5.0925582E4],"tree_param":{"num_deleted":"0","num_feature":"31","num_nodes":"15","size_leaf_vector":"1"}},{"base_weights":[5.6419875E-8,5.726088E-3,-6.916093E-3,-3.4236098E-3,2.9950144E-2,-2.0427957E-2,5.8816546E-3,3.8889653E-4,-4.8884363E-3,5.2690594E-3,-3.0656904E-3,-8.6797355E-3,-1.4730848E-3,-1.5920496E-2,1.061579E-3],"categories":[],"categories_nodes":[],"categories_segments":[],"categories_sizes":[],"default_left":[0,0,0,0,0,0,0,0,0,0,0,0,0,0,0],"id":53,"left_children":[1,3,5,7,9,11,13,-1,-1,-1,-1,-1,-1,-1,-1],"loss_changes":[2.532217E0,7.7531605E0,5.007988E0,8.440612E0,1.3217488E1,5.326672E0,1.1624326E1,0E0,0E0,0E0,0E0,0E0,0E0,0E0,0E0],"parents":[2147483647,0,0,1,1,2,2,3,3,4,4,5,5,6,6],"right_children":[2,4,6,8,10,12,14,-1,-1,-1,-1,-1,-1,-1,-1],"split_conditions":[2.8071912E-2,1.6376419E-2,1.4360152E-1,1.6647719E-2,1.4360152E-1,-8.200886E-2,5.1666707E-2,3.8889653E-4,-4.8884363E-3,5.2690594E-3,-3.0656904E-3,-8.6797355E-3,-1.4730848E-3,-1.5920496E-2,1.061579E-3],"split_indices":[20,15,27,9,27,22,29,0,0,0,0,0,0,0,0],"split_type":[0,0,0,0,0,0,0,0,0,0,0,0,0,0,0],"sum_hessian":[6.3941492E4,3.498043E4,2.8961062E4,2.5390248E4,9.590182E3,1.408749E4,1.4873573E4,2.1872031E4,3.5182185E3,6.973606E3,2.6165757E3,1.1136653E3,1.2973825E4,4.1463422E2,1.4458938E4],"tree_param":{"num_deleted":"0","num_feature":"31","num_nodes":"15","size_leaf_vector":"1"}},{"base_weights":[5.177337E-9,-7.619059E-3,5.1279874E-3,-4.433943E-3,-7.417827E-2,7.746666E-2,3.2351997E-3,1.0147855E-3,-2.5878707E-3,4.291851E-3,-1.4993727E-2,-1.35663375E-2,1.8389238E-2,-1.7450383E-2,4.7828775E-4],"categories":[],"categories_nodes":[],"categories_segments":[],"categories_sizes":[],"default_left":[0,0,0,0,0,0,0,0,0,0,0,0,0,0,0],"id":54,"left_children":[1,3,5,7,9,11,13,-1,-1,-1,-1,-1,-1,-1,-1],"loss_changes":[2.4982033E0,5.453182E0,5.2329197E0,7.6762323E0,1.0421065E1,2.2104301E1,1.0245132E1,0E0,0E0,0E0,0E0,0E0,0E0,0E0,0E0],"parents":[2147483647,0,0,1,1,2,2,3,3,4,4,5,5,6,6],"right_children":[2,4,6,8,10,12,14,-1,-1,-1,-1,-1,-1,-1,-1],"split_conditions":[7.076739E-3,9.034247E-2,-6.206296E-2,-6.0298335E-2,-1.10186085E-1,6.1555505E-2,-5.5339914E-2,1.0147855E-3,-2.5878707E-3,4.291851E-3,-1.4993727E-2,-1.35663375E-2,1.8389238E-2,-1.7450383E-2,4.7828775E-4],"split_indices":[24,10,4,23,22,30,3,0,0,0,0,0,0,0,0],"split_type":[0,0,0,0,0,0,0,0,0,0,0,0,0,0,0],"sum_hessian":[6.3941023E4,2.5722697E4,3.8218324E4,2.454798E4,1.1747162E3,9.7450836E2,3.7243816E4,1.4612154E4,9.935827E3,4.614605E2,7.132557E2,3.2455292E2,6.4995544E2,3.215042E2,3.6922312E4],"tree_param":{"num_deleted":"0","num_feature":"31","num_nodes":"15","size_leaf_vector":"1"}},{"base_weights":[4.9386912E-8,2.699053E-3,-1.5190478E-2,4.57896E-3,-5.5424385E-2,2.8368872E-2,-3.3255037E-2,-2.2372771E-4,2.5012328E-3,-1.289922E-3,-1.6211485E-2,3.510083E-2,6.842284E-4,-2.5501892E-2,-2.6024634E-3],"categories":[],"categories_nodes":[],"categories_segments":[],"categories_sizes":[],"default_left":[0,0,0,0,0,0,0,0,0,0,0,0,0,0,0],"id":55,"left_children":[1,3,5,7,9,11,13,-1,-1,-1,-1,-1,-1,-1,-1],"loss_changes":[2.6214662E0,5.9323874E0,7.5906878E0,7.324909E0,7.7174606E0,1.9640074E1,1.0933466E1,0E0,0E0,0E0,0E0,0E0,0E0,0E0,0E0],"parents":[2147483647,0,0,1,1,2,2,3,3,4,4,5,5,6,6],"right_children":[2,4,6,8,10,12,14,-1,-1,-1,-1,-1,-1,-1,-1],"split_conditions":[7.5874835E-2,2.1621685E-1,-3.7961162E-4,1.8181432E-2,4.7161765E-2,-1.4589046E-1,-2.4286489E-1,-2.2372771E-4,2.5012328E-3,-1.289922E-3,-1.6211485E-2,3.510083E-2,6.842284E-4,-2.5501892E-2,-2.6024634E-3],"split_indices":[19,21,1,4,16,22,25,0,0,0,0,0,0,0,0],"split_type":[0,0,0,0,0,0,0,0,0,0,0,0,0,0,0],"sum_hessian":[6.39393E4,5.4292742E4,9.646558E3,5.259175E4,1.7009939E3,2.8278118E3,6.818746E3,3.943641E4,1.3155341E4,1.2162253E3,4.8476852E2,1.7687146E2,2.6509402E3,2.1529921E2,6.6034473E3],"tree_param":{"num_deleted":"0","num_feature":"31","num_nodes":"15","size_leaf_vector":"1"}},{"base_weights":[-4.516323E-8,-2.5266327E-3,2.2620425E-2,-7.1223045E-4,-9.428952E-2,-2.5144628E-1,2.682636E-2,2.9417223E-4,-2.5955243E-3,-7.791301E-3,-4.4252858E-2,-7.3078744E-2,-1.1122809E-2,6.0211714E-2,2.516516E-3],"categories":[],"categories_nodes":[],"categories_segments":[],"categories_sizes":[],"default_left":[0,0,0,0,0,0,0,0,0,0,0,0,0,0,0],"id":56,"left_children":[1,3,5,7,9,11,13,-1,-1,-1,-1,-1,-1,-1,-1],"loss_changes":[3.6542473E0,9.575845E0,7.405052E0,5.2020817E0,6.359727E0,6.5260496E0,6.046504E0,0E0,0E0,0E0,0E0,0E0,0E0,0E0,0E0],"parents":[2147483647,0,0,1,1,2,2,3,3,4,4,5,5,6,6],"right_children":[2,4,6,8,10,12,14,-1,-1,-1,-1,-1,-1,-1,-1],"split_conditions":[5.9172515E-2,5.844899E-2,-5.452593E-2,4.578285E-2,1.13352835E-1,-5.3401063E-3,-2.642381E-2,2.9417223E-4,-2.5955243E-3,-7.791301E-3,-4.4252858E-2,-7.3078744E-2,-1.1122809E-2,6.0211714E-2,2.516516E-3],"split_indices":[8,4,14,11,16,0,11,0,0,0,0,0,0,0,0],"split_type":[0,0,0,0,0,0,0,0,0,0,0,0,0,0,0],"sum_hessian":[6.3938434E4,5.751438E4,6.424054E3,5.6399215E4,1.1151661E3,9.7096E1,6.326958E3,4.9267668E4,7.131547E3,1.065079E3,5.008708E1,2.197469E1,7.512131E1,1.8217018E1,6.308741E3],"tree_param":{"num_deleted":"0","num_feature":"31","num_nodes":"15","size_leaf_vector":"1"}},{"base_weights":[-1.1749636E-7,-2.274055E-3,2.0356754E-2,-9.23503E-5,-6.3690804E-2,-8.645918E-2,2.1975303E-2,-7.17255E-4,1.289198E-3,1.7187194E-3,-1.3195789E-2,1.7471632E-2,1.6652389E-3],"categories":[],"categories_nodes":[],"categories_segments":[],"categories_sizes":[],"default_left":[0,0,0,0,0,0,0,0,0,0,0,0,0],"id":57,"left_children":[1,3,5,7,9,-1,11,-1,-1,-1,-1,-1,-1],"loss_changes":[2.9597166E0,7.7064505E0,9.202021E0,5.105954E0,1.0893381E1,0E0,5.2137547E0,0E0,0E0,0E0,0E0,0E0,0E0],"parents":[2147483647,0,0,1,1,2,2,3,3,4,4,6,6],"right_children":[2,4,6,8,10,-1,12,-1,-1,-1,-1,-1,-1],"split_conditions":[5.9172515E-2,6.6069745E-2,-9.593203E-2,7.4186884E-3,1.5988603E-2,-8.645918E-2,-1.8083715E-1,-7.17255E-4,1.289198E-3,1.7187194E-3,-1.3195789E-2,1.7471632E-2,1.6652389E-3],"split_indices":[8,10,11,2,3,0,21,0,0,0,0,0,0],"split_type":[0,0,0,0,0,0,0,0,0,0,0,0,0],"sum_hessian":[6.393823E4,5.7513734E4,6.424496E3,5.554076E4,1.9729722E3,1.17288E1,6.412767E3,3.594201E4,1.959875E4,9.0307404E2,1.0698981E3,2.1595451E2,6.1968125E3],"tree_param":{"num_deleted":"0","num_feature":"31","num_nodes":"13","size_leaf_vector":"1"}},{"base_weights":[-1.8750572E-7,-2.046726E-3,1.8319987E-2,1.7664474E-4,-5.488226E-2,-2.2120465E-1,2.1992385E-2,1.6366503E-4,-5.333173E-3,-7.7171787E-3,6.225374E-3,-6.483598E-2,-9.643201E-3,2.7545584E-2,1.8659274E-3],"categories":[],"categories_nodes":[],"categories_segments":[],"categories_sizes":[],"default_left":[0,0,0,0,0,0,0,0,0,0,0,0,0,0,0],"id":58,"left_children":[1,3,5,7,9,11,13,-1,-1,-1,-1,-1,-1,-1,-1],"loss_changes":[2.397227E0,6.75626E0,5.651434E0,4.311647E0,6.063787E0,5.1707697E0,5.3458385E0,0E0,0E0,0E0,0E0,0E0,0E0,0E0,0E0],"parents":[2147483647,0,0,1,1,2,2,3,3,4,4,5,5,6,6],"right_children":[2,4,6,8,10,12,14,-1,-1,-1,-1,-1,-1,-1,-1],"split_conditions":[5.9172515E-2,6.952804E-2,-5.452593E-2,4.43664E-2,4.0674004E-1,-5.3401063E-3,-2.3262154E-2,1.6366503E-4,-5.333173E-3,-7.7171787E-3,6.225374E-3,-6.483598E-2,-9.643201E-3,2.7545584E-2,1.8659274E-3],"split_indices":[8,11,14,2,30,0,4,0,0,0,0,0,0,0,0],"split_type":[0,0,0,0,0,0,0,0,0,0,0,0,0,0,0],"sum_hessian":[6.3938098E4,5.7513312E4,6.4247856E3,5.519083E4,2.3224836E3,9.701752E1,6.327768E3,5.3724914E4,1.465914E3,1.9511954E3,3.7128836E2,2.1932457E1,7.508506E1,8.21318E1,6.245636E3],"tree_param":{"num_deleted":"0","num_feature":"31","num_nodes":"15","size_leaf_vector":"1"}},{"base_weights":[-2.5652727E-7,2.6515983E-2,-1.4193507E-3,-1.9219857E-2,1.07980296E-1,-5.677811E-2,5.125811E-4,-6.0290196E-3,5.928114E-3,1.9827802E-2,-3.4928923E-3,-1.1542914E-2,8.847659E-4,2.515095E-3,-3.1786988E-4],"categories":[],"categories_nodes":[],"categories_segments":[],"categories_sizes":[],"default_left":[0,0,0,0,0,0,0,0,0,0,0,0,0,0,0],"id":59,"left_children":[1,3,5,7,9,11,13,-1,-1,-1,-1,-1,-1,-1,-1],"loss_changes":[2.4059107E0,1.2101458E1,6.4907155E0,6.706515E0,1.5070226E1,7.8772044E0,5.333417E0,0E0,0E0,0E0,0E0,0E0,0E0,0E0,0E0],"parents":[2147483647,0,0,1,1,2,2,3,3,4,4,5,5,6,6],"right_children":[2,4,6,8,10,12,14,-1,-1,-1,-1,-1,-1,-1,-1],"split_conditions":[-3.7849657E-2,6.1555505E-2,-8.374312E-2,-4.690856E-2,-3.652459E-2,-1.04072146E-1,-1.5118529E-1,-6.0290196E-3,5.928114E-3,1.9827802E-2,-3.4928923E-3,-1.1542914E-2,8.847659E-4,2.515095E-3,-3.1786988E-4],"split_indices":[1,30,8,2,11,29,30,0,0,0,0,0,0,0,0],"split_type":[0,0,0,0,0,0,0,0,0,0,0,0,0,0,0],"sum_hessian":[6.3937598E4,3.2479827E3,6.0689617E4,2.0801443E3,1.1678384E3,2.046549E3,5.8643066E4,1.3656567E3,7.1448755E2,7.1565137E2,4.5218698E2,1.0807034E3,9.6584564E2,7.64104E3,5.1002027E4],"tree_param":{"num_deleted":"0","num_feature":"31","num_nodes":"15","size_leaf_vector":"1"}},{"base_weights":[-1.3901995E-7,-1.4252443E-2,2.5310577E-3,2.1684071E-2,-2.8656274E-2,7.059959E-2,1.0079907E-3,7.1034185E-3,-7.869539E-3,-1.0573536E-2,-1.1561237E-3,1.3986622E-2,-2.6932268E-3,-1.6934654E-3,4.121467E-4],"categories":[],"categories_nodes":[],"categories_segments":[],"categories_sizes":[],"default_left":[0,0,0,0,0,0,0,0,0,0,0,0,0,0,0],"id":60,"left_children":[1,3,5,7,9,11,13,-1,-1,-1,-1,-1,-1,-1,-1],"loss_changes":[2.3065274E0,4.9912004E0,5.6287975E0,1.3667399E1,9.0702095E0,8.027547E0,2.966687E0,0E0,0E0,0E0,0E0,0E0,0E0,0E0,0E0],"parents":[2147483647,0,0,1,1,2,2,3,3,4,4,5,5,6,6],"right_children":[2,4,6,8,10,12,14,-1,-1,-1,-1,-1,-1,-1,-1],"split_conditions":[-1.3660675E-1,-2.1648458E-1,-1.5163094E-1,-2.540651E-1,-3.79972E-2,-3.5099745E-2,-4.415513E-2,7.1034185E-3,-7.869539E-3,-1.0573536E-2,-1.1561237E-3,1.3986622E-2,-2.6932268E-3,-1.6934654E-3,4.121467E-4],"split_indices":[27,23,20,26,3,10,17,0,0,0,0,0,0,0,0],"split_type":[0,0,0,0,0,0,0,0,0,0,0,0,0,0,0],"sum_hessian":[6.393632E4,9.64253E3,5.4293793E4,2.759007E3,6.8835225E3,1.1882623E3,5.3105527E4,1.8496522E3,9.093549E2,1.2495372E3,5.6339854E3,6.948111E2,4.9345126E2,7.8524824E3,4.5253047E4],"tree_param":{"num_deleted":"0","num_feature":"31","num_nodes":"15","size_leaf_vector":"1"}},{"base_weights":[-1.3264751E-7,2.4879303E-2,-1.3311186E-3,-1.5633691E-2,9.709148E-2,-3.239567E-2,9.6459425E-4,1.0592516E-2,-5.138882E-3,1.7896777E-2,-4.9776984E-3,3.2697201E-3,-9.553066E-3,-6.555331E-3,2.7564188E-4],"categories":[],"categories_nodes":[],"categories_segments":[],"categories_sizes":[],"default_left":[0,0,0,0,0,0,0,0,0,0,0,0,0,0,0],"id":61,"left_children":[1,3,5,7,9,11,13,-1,-1,-1,-1,-1,-1,-1,-1],"loss_changes":[2.1171699E0,9.498301E0,4.328035E0,9.039734E0,1.4031409E1,1.7163267E1,6.735623E0,0E0,0E0,0E0,0E0,0E0,0E0,0E0,0E0],"parents":[2147483647,0,0,1,1,2,2,3,3,4,4,5,5,6,6],"right_children":[2,4,6,8,10,12,14,-1,-1,-1,-1,-1,-1,-1,-1],"split_conditions":[-3.7849657E-2,6.1555505E-2,-1.8075062E-2,-2.540651E-1,-3.5099745E-2,-2.2748044E-2,-7.367815E-2,1.0592516E-2,-5.138882E-3,1.7896777E-2,-4.9776984E-3,3.2697201E-3,-9.553066E-3,-6.555331E-3,2.7564188E-4],"split_indices":[1,30,0,26,10,19,6,0,0,0,0,0,0,0,0],"split_type":[0,0,0,0,0,0,0,0,0,0,0,0,0,0,0],"sum_hessian":[6.3935438E4,3.2466924E3,6.0688746E4,2.0798438E3,1.1668488E3,4.176344E3,5.6512402E4,4.7271756E2,1.6071261E3,7.4919E2,4.1765878E2,2.0562886E3,2.1200557E3,1.4823701E3,5.503003E4],"tree_param":{"num_deleted":"0","num_feature":"31","num_nodes":"15","size_leaf_vector":"1"}},{"base_weights":[5.8472875E-9,4.4462383E-3,-8.169697E-3,-3.8575768E-3,2.067032E-2,-3.8271517E-2,3.602028E-3,-2.3812146E-3,1.0410137E-3,2.6607995E-3,-5.8334945E-3,-2.9028286E-3,-2.0896656E-2,1.7624658E-2,2.6979105E-5],"categories":[],"categories_nodes":[],"categories_segments":[],"categories_sizes":[],"default_left":[0,0,0,0,0,0,0,0,0,0,0,0,0,0,0],"id":62,"left_children":[1,3,5,7,9,11,13,-1,-1,-1,-1,-1,-1,-1,-1],"loss_changes":[2.3223631E0,5.5777154E0,7.9843082E0,7.7967772E0,6.575188E0,9.994234E0,9.318503E0,0E0,0E0,0E0,0E0,0E0,0E0,0E0,0E0],"parents":[2147483647,0,0,1,1,2,2,3,3,4,4,5,5,6,6],"right_children":[2,4,6,8,10,12,14,-1,-1,-1,-1,-1,-1,-1,-1],"split_conditions":[3.4754403E-2,5.2277718E-2,3.7419904E-2,-9.457586E-3,2.5863154E-2,5.583114E-2,-3.2154165E-2,-2.3812146E-3,1.0410137E-3,2.6607995E-3,-5.8334945E-3,-2.9028286E-3,-2.0896656E-2,1.7624658E-2,2.6979105E-5],"split_indices":[19,22,15,2,1,11,2,0,0,0,0,0,0,0,0],"split_type":[0,0,0,0,0,0,0,0,0,0,0,0,0,0,0],"sum_hessian":[6.3933977E4,4.1401734E4,2.2532244E4,2.7385352E4,1.401638E4,6.33439E3,1.6197854E4,1.1417309E4,1.5968044E4,1.3036608E4,9.797716E2,6.0089995E3,3.2539066E2,3.067171E2,1.5891137E4],"tree_param":{"num_deleted":"0","num_feature":"31","num_nodes":"15","size_leaf_vector":"1"}},{"base_weights":[-1.5550906E-8,7.3228534E-3,-4.917317E-3,-2.7725943E-3,9.0309665E-2,-1.9965476E-1,-3.9319335E-3,-1.1440766E-3,4.404981E-3,1.2320896E-2,-1.3576625E-3,-2.611588E-2,4.685681E-2,1.0586463E-2,-5.8426184E-4],"categories":[],"categories_nodes":[],"categories_segments":[],"categories_sizes":[],"default_left":[0,0,0,0,0,0,0,0,0,0,0,0,0,0,0],"id":63,"left_children":[1,3,5,7,9,11,13,-1,-1,-1,-1,-1,-1,-1,-1],"loss_changes":[2.302123E0,2.1517632E1,7.3395424E0,9.293584E0,9.520575E0,7.9141264E0,7.9836235E0,0E0,0E0,0E0,0E0,0E0,0E0,0E0,0E0],"parents":[2147483647,0,0,1,1,2,2,3,3,4,4,5,5,6,6],"right_children":[2,4,6,8,10,12,14,-1,-1,-1,-1,-1,-1,-1,-1],"split_conditions":[-3.6780136E-3,2.1145327E-4,-3.7449203E-2,1.5121809E-3,1.393294E-2,2.6906163E-2,-1.20148815E-1,-1.1440766E-3,4.404981E-3,1.2320896E-2,-1.3576625E-3,-2.611588E-2,4.685681E-2,1.0586463E-2,-5.8426184E-4],"split_indices":[5,4,6,8,11,19,19,0,0,0,0,0,0,0,0],"split_type":[0,0,0,0,0,0,0,0,0,0,0,0,0,0,0],"sum_hessian":[6.3932316E4,2.5683832E4,3.8248484E4,2.2898234E4,2.7855984E3,1.9256532E2,3.8055918E4,1.9321305E4,3.5769285E3,2.1156138E3,6.699844E2,1.763352E2,1.6230104E1,6.509234E2,3.7404996E4],"tree_param":{"num_deleted":"0","num_feature":"31","num_nodes":"15","size_leaf_vector":"1"}},{"base_weights":[4.5032387E-8,3.9409557E-3,-9.137899E-3,-2.8162424E-3,2.7218414E-2,-4.4120263E-2,3.1125993E-3,2.5764005E-3,-9.320927E-4,5.143763E-3,-2.4074502E-3,3.4710509E-3,-8.625944E-3,1.3641086E-2,-9.6916374E-5],"categories":[],"categories_nodes":[],"categories_segments":[],"categories_sizes":[],"default_left":[0,0,0,0,0,0,0,0,0,0,0,0,0,0,0],"id":64,"left_children":[1,3,5,7,9,11,13,-1,-1,-1,-1,-1,-1,-1,-1],"loss_changes":[2.302294E0,7.025816E0,8.255541E0,6.4357567E0,1.2484062E1,1.6597166E1,7.7628255E0,0E0,0E0,0E0,0E0,0E0,0E0,0E0,0E0],"parents":[2147483647,0,0,1,1,2,2,3,3,4,4,5,5,6,6],"right_children":[2,4,6,8,10,12,14,-1,-1,-1,-1,-1,-1,-1,-1],"split_conditions":[7.0382725E-3,1.8181432E-2,-2.0145793E-2,-6.278546E-2,5.3058624E-2,-9.075501E-2,-4.669791E-2,2.5764005E-3,-9.320927E-4,5.143763E-3,-2.4074502E-3,3.4710509E-3,-8.625944E-3,1.3641086E-2,-9.6916374E-5],"split_indices":[0,4,15,19,10,25,19,0,0,0,0,0,0,0,0],"split_type":[0,0,0,0,0,0,0,0,0,0,0,0,0,0,0],"sum_hessian":[6.393163E4,4.4667797E4,1.926383E4,3.4618434E4,1.0049362E4,4.9963413E3,1.4267488E4,6.418197E3,2.8200238E4,6.8262026E3,3.2231594E3,1.7404465E3,3.255895E3,4.2390808E2,1.384358E4],"tree_param":{"num_deleted":"0","num_feature":"31","num_nodes":"15","size_leaf_vector":"1"}},{"base_weights":[1.4161649E-8,5.8448613E-3,-5.916243E-3,-4.918773E-3,2.9092057E-2,-9.7161E-2,-5.1432604E-4,-5.8281707E-4,6.400323E-2,9.629117E-3,1.2589201E-3,-1.7219413E-2,1.4850853E-3,2.054344E-2,-2.2277008E-4],"categories":[],"categories_nodes":[],"categories_segments":[],"categories_sizes":[],"default_left":[0,0,0,0,0,0,0,0,0,0,0,0,0,0,0],"id":65,"left_children":[1,3,5,7,9,11,13,-1,-1,-1,-1,-1,-1,-1,-1],"loss_changes":[2.210701E0,8.047079E0,1.565996E1,1.2892659E1,1.1286856E1,1.4924948E1,1.0584426E1,0E0,0E0,0E0,0E0,0E0,0E0,0E0,0E0],"parents":[2147483647,0,0,1,1,2,2,3,3,4,4,5,5,6,6],"right_children":[2,4,6,8,10,12,14,-1,-1,-1,-1,-1,-1,-1,-1],"split_conditions":[7.630997E-3,2.1145327E-4,-3.814417E-3,3.770613E-2,-3.6780136E-3,-1.1646957E-2,-4.2497344E-2,-5.8281707E-4,6.400323E-2,9.629117E-3,1.2589201E-3,-1.7219413E-2,1.4850853E-3,2.054344E-2,-2.2277008E-4],"split_indices":[10,4,12,5,5,15,4,0,0,0,0,0,0,0,0],"split_type":[0,0,0,0,0,0,0,0,0,0,0,0,0,0,0],"sum_hessian":[6.3930742E4,3.2159457E4,3.1771287E4,2.1981738E4,1.0177718E4,1.775807E3,2.999548E4,2.1950787E4,3.095117E1,2.0066603E3,8.1710576E3,1.0634418E3,7.1236523E2,2.4748618E2,2.9747994E4],"tree_param":{"num_deleted":"0","num_feature":"31","num_nodes":"15","size_leaf_vector":"1"}},{"base_weights":[7.150992E-8,-1.9465855E-3,1.7423943E-2,2.4199788E-5,-4.878651E-2,-1.1152588E-1,2.2763377E-2,1.7164047E-4,-4.346454E-3,5.0271605E-4,-1.0151677E-2,1.4144921E-3,-3.0378688E-2,3.24444E-2,1.96549E-3],"categories":[],"categories_nodes":[],"categories_segments":[],"categories_sizes":[],"default_left":[0,0,0,0,0,0,0,0,0,0,0,0,0,0,0],"id":66,"left_children":[1,3,5,7,9,11,13,-1,-1,-1,-1,-1,-1,-1,-1],"loss_changes":[2.168391E0,5.3083825E0,4.4235153E0,4.0610423E0,6.588451E0,6.172072E0,5.785301E0,0E0,0E0,0E0,0E0,0E0,0E0,0E0,0E0],"parents":[2147483647,0,0,1,1,2,2,3,3,4,4,5,5,6,6],"right_children":[2,4,6,8,10,12,14,-1,-1,-1,-1,-1,-1,-1,-1],"split_conditions":[5.9172515E-2,6.952804E-2,-1.8075062E-2,2.1621685E-1,1.5988603E-2,-1.0789177E-2,-2.3262154E-2,1.7164047E-4,-4.346454E-3,5.0271605E-4,-1.0151677E-2,1.4144921E-3,-3.0378688E-2,3.24444E-2,1.96549E-3],"split_indices":[8,11,0,21,3,1,4,0,0,0,0,0,0,0,0],"split_type":[0,0,0,0,0,0,0,0,0,0,0,0,0,0,0],"sum_hessian":[6.3929824E4,5.7505145E4,6.424679E3,5.5183312E4,2.3218323E3,2.5544974E2,6.1692295E3,5.3116477E4,2.0668328E3,1.1491111E3,1.1727213E3,1.544766E2,1.0097315E2,6.2918636E1,6.106311E3],"tree_param":{"num_deleted":"0","num_feature":"31","num_nodes":"15","size_leaf_vector":"1"}},{"base_weights":[-7.545041E-9,-1.3107574E-3,2.4912566E-2,6.4750663E-3,-9.325822E-3,-9.196997E-2,4.5608833E-2,-2.511201E-4,7.0414925E-3,-3.5263244E-2,-8.391848E-4,2.196956E-2,-1.5205296E-2,2.1110268E-2,3.4016722E-3],"categories":[],"categories_nodes":[],"categories_segments":[],"categories_sizes":[],"default_left":[0,0,0,0,0,0,0,0,0,0,0,0,0,0,0],"id":67,"left_children":[1,3,5,7,9,11,13,-1,-1,-1,-1,-1,-1,-1,-1],"loss_changes":[2.0875628E0,3.7900386E0,7.729918E0,1.770144E1,9.595601E0,9.001485E0,5.208059E0,0E0,0E0,0E0,0E0,0E0,0E0,0E0,0E0],"parents":[2147483647,0,0,1,1,2,2,3,3,4,4,5,5,6,6],"right_children":[2,4,6,8,10,12,14,-1,-1,-1,-1,-1,-1,-1,-1],"split_conditions":[5.2166045E-1,1.7872088E-3,-2.0952024E-2,1.8181432E-2,-2.6774468E-2,-8.437282E-2,-1.7178461E-2,-2.511201E-4,7.0414925E-3,-3.5263244E-2,-8.391848E-4,2.196956E-2,-1.5205296E-2,2.1110268E-2,3.4016722E-3],"split_indices":[30,1,3,4,0,19,4,0,0,0,0,0,0,0,0],"split_type":[0,0,0,0,0,0,0,0,0,0,0,0,0,0,0],"sum_hessian":[6.3929484E4,6.0734027E4,3.1954592E3,3.080758E4,2.9926445E4,4.8069965E2,2.7147595E3,2.701134E4,3.7962412E3,8.119476E1,2.984525E4,7.7691956E1,4.030077E2,1.777092E2,2.5370503E3],"tree_param":{"num_deleted":"0","num_feature":"31","num_nodes":"15","size_leaf_vector":"1"}},{"base_weights":[9.3155215E-8,2.4120058E-3,-1.358951E-2,1.2503237E-4,4.033377E-2,-7.583021E-2,8.1277825E-3,7.8027224E-4,-1.7233005E-3,8.363312E-4,1.1656093E-2,-9.999784E-4,-1.7422339E-2,7.241445E-3,-1.467277E-3],"categories":[],"categories_nodes":[],"categories_segments":[],"categories_sizes":[],"default_left":[0,0,0,0,0,0,0,0,0,0,0,0,0,0,0],"id":68,"left_children":[1,3,5,7,9,11,13,-1,-1,-1,-1,-1,-1,-1,-1],"loss_changes":[2.0953822E0,4.7085834E0,1.3024934E1,6.8240137E0,7.5255775E0,1.6144724E1,1.047066E1,0E0,0E0,0E0,0E0,0E0,0E0,0E0,0E0],"parents":[2147483647,0,0,1,1,2,2,3,3,4,4,5,5,6,6],"right_children":[2,4,6,8,10,12,14,-1,-1,-1,-1,-1,-1,-1,-1],"split_conditions":[2.9989956E-2,6.282048E-2,3.421677E-3,1.7810024E-2,8.924404E-3,-1.7054386E-2,3.4754403E-2,7.8027224E-4,-1.7233005E-3,8.363312E-4,1.1656093E-2,-9.999784E-4,-1.7422339E-2,7.241445E-3,-1.467277E-3],"split_indices":[3,9,15,10,0,20,19,0,0,0,0,0,0,0,0],"split_type":[0,0,0,0,0,0,0,0,0,0,0,0,0,0,0],"sum_hessian":[6.3928562E4,5.4292594E4,9.63597E3,5.1204566E4,3.0880283E3,2.4925225E3,7.143447E3,3.5501695E4,1.5702871E4,2.1755713E3,9.1245703E2,1.4933737E3,9.9914874E2,1.8702462E3,5.2732007E3],"tree_param":{"num_deleted":"0","num_feature":"31","num_nodes":"15","size_leaf_vector":"1"}},{"base_weights":[2.8526296E-8,-7.0027234E-3,4.713019E-3,5.0885966E-3,-2.5063816E-2,9.735528E-2,3.3568772E-3,1.4375717E-3,-4.4457163E-3,-2.1148731E-3,-1.4771759E-2,-5.7694097E-3,1.8017245E-2,2.0387946E-2,2.6589306E-4],"categories":[],"categories_nodes":[],"categories_segments":[],"categories_sizes":[],"default_left":[0,0,0,0,0,0,0,0,0,0,0,0,0,0,0],"id":69,"left_children":[1,3,5,7,9,11,13,-1,-1,-1,-1,-1,-1,-1,-1],"loss_changes":[2.1098793E0,5.616126E0,4.8007107E0,7.0880785E0,4.9521365E0,7.0789075E0,5.2706637E0,0E0,0E0,0E0,0E0,0E0,0E0,0E0,0E0],"parents":[2147483647,0,0,1,1,2,2,3,3,4,4,5,5,6,6],"right_children":[2,4,6,8,10,12,14,-1,-1,-1,-1,-1,-1,-1,-1],"split_conditions":[7.076739E-3,-6.0298335E-2,-2.0457381E-1,2.5592463E-2,9.746244E-2,-2.9848394E-1,-1.4589046E-1,1.4375717E-3,-4.4457163E-3,-2.1148731E-3,-1.4771759E-2,-5.7694097E-3,1.8017245E-2,2.0387946E-2,2.6589306E-4],"split_indices":[24,23,29,2,25,30,22,0,0,0,0,0,0,0,0],"split_type":[0,0,0,0,0,0,0,0,0,0,0,0,0,0,0],"sum_hessian":[6.392817E4,2.5716926E4,3.8211246E4,1.5404266E4,1.0312659E4,5.5128467E2,3.765996E4,1.297261E4,2.431655E3,9.993664E3,3.1899582E2,1.9193887E2,3.5934583E2,1.3062607E2,3.7529336E4],"tree_param":{"num_deleted":"0","num_feature":"31","num_nodes":"15","size_leaf_vector":"1"}},{"base_weights":[6.6245565E-10,-1.4146991E-2,2.5123495E-3,-3.7553231E-3,-6.346168E-2,4.1609416E-3,-3.2877363E-2,-1.1101754E-3,1.3012131E-2,9.585037E-3,-1.0611856E-2,1.4215629E-3,-5.150814E-4,-8.206357E-3,9.086866E-3],"categories":[],"categories_nodes":[],"categories_segments":[],"categories_sizes":[],"default_left":[0,0,0,0,0,0,0,0,0,0,0,0,0,0,0],"id":70,"left_children":[1,3,5,7,9,11,13,-1,-1,-1,-1,-1,-1,-1,-1],"loss_changes":[2.272121E0,4.940502E0,3.1672611E0,7.831526E0,1.1402808E1,4.8564596E0,1.4707211E1,0E0,0E0,0E0,0E0,0E0,0E0,0E0,0E0],"parents":[2147483647,0,0,1,1,2,2,3,3,4,4,5,5,6,6],"right_children":[2,4,6,8,10,12,14,-1,-1,-1,-1,-1,-1,-1,-1],"split_conditions":[-1.3660675E-1,2.5592463E-2,2.466503E-2,2.0613473E-2,-8.437282E-2,8.308435E-3,6.282048E-2,-1.1101754E-3,1.3012131E-2,9.585037E-3,-1.0611856E-2,1.4215629E-3,-5.150814E-4,-8.206357E-3,9.086866E-3],"split_indices":[27,2,0,2,19,11,9,0,0,0,0,0,0,0,0],"split_type":[0,0,0,0,0,0,0,0,0,0,0,0,0,0,0],"sum_hessian":[6.392745E4,9.640721E3,5.4286727E4,7.9627896E3,1.6779313E3,5.18704E4,2.4163271E3,7.548565E3,4.1422473E2,3.5438766E2,1.3235436E3,2.4940277E4,2.6930121E4,1.7290638E3,6.872633E2],"tree_param":{"num_deleted":"0","num_feature":"31","num_nodes":"15","size_leaf_vector":"1"}},{"base_weights":[-1.0597751E-7,-1.176688E-3,2.2364847E-2,1.632076E-3,-2.851832E-2,-4.5809366E-2,6.0869854E-2,-7.0369926E-5,3.901731E-3,-6.934746E-2,-2.5222448E-3,-5.7156286E-3,7.883125E-2,-2.6980639E-2,6.971115E-3],"categories":[],"categories_nodes":[],"categories_segments":[],"categories_sizes":[],"default_left":[0,0,0,0,0,0,0,0,0,0,0,0,0,0,0],"id":71,"left_children":[1,3,5,7,9,11,13,-1,-1,-1,-1,-1,-1,-1,-1],"loss_changes":[1.6821629E0,4.663916E0,8.386923E0,4.8092084E0,1.2399282E1,1.0914658E1,5.9693117E0,0E0,0E0,0E0,0E0,0E0,0E0,0E0,0E0],"parents":[2147483647,0,0,1,1,2,2,3,3,4,4,5,5,6,6],"right_children":[2,4,6,8,10,12,14,-1,-1,-1,-1,-1,-1,-1,-1],"split_conditions":[5.2166045E-1,9.372782E-2,-2.7397217E-4,6.282048E-2,-3.9083596E-2,5.844899E-2,1.7185535E-1,-7.0369926E-5,3.901731E-3,-6.934746E-2,-2.5222448E-3,-5.7156286E-3,7.883125E-2,-2.6980639E-2,6.971115E-3],"split_indices":[30,19,2,9,13,4,27,0,0,0,0,0,0,0,0],"split_type":[0,0,0,0,0,0,0,0,0,0,0,0,0,0,0],"sum_hessian":[6.392605E4,6.073109E4,3.1949592E3,5.5073477E4,5.6576143E3,1.1531948E3,2.0417643E3,5.1834906E4,3.23857E3,2.7903786E1,5.6297104E3,1.137718E3,1.5476866E1,5.3169067E1,1.9885952E3],"tree_param":{"num_deleted":"0","num_feature":"31","num_nodes":"15","size_leaf_vector":"1"}},{"base_weights":[-9.849832E-8,1.9047469E-3,-1.7000293E-2,-3.4005216E-3,1.5590211E-2,-6.2741205E-2,7.5127827E-3,-1.1960235E-3,1.1123075E-3,4.424428E-3,-3.3279692E-4,1.6424006E-2,-8.328757E-3,6.6990755E-3,-2.3007565E-3],"categories":[],"categories_nodes":[],"categories_segments":[],"categories_sizes":[],"default_left":[0,0,0,0,0,0,0,0,0,0,0,0,0,0,0],"id":72,"left_children":[1,3,5,7,9,11,13,-1,-1,-1,-1,-1,-1,-1,-1],"loss_changes":[2.0700898E0,4.1736765E0,7.222047E0,5.1499515E0,8.705288E0,1.0481167E1,7.6126723E0,0E0,0E0,0E0,0E0,0E0,0E0,0E0,0E0],"parents":[2147483647,0,0,1,1,2,2,3,3,4,4,5,5,6,6],"right_children":[2,4,6,8,10,12,14,-1,-1,-1,-1,-1,-1,-1,-1],"split_conditions":[2.0105736E-1,8.394993E-2,1.8219772E-1,7.4186884E-3,-3.7961162E-4,-3.7449203E-2,3.144452E-1,-1.1960235E-3,1.1123075E-3,4.424428E-3,-3.3279692E-4,1.6424006E-2,-8.328757E-3,6.6990755E-3,-2.3007565E-3],"split_indices":[22,22,30,2,1,6,29,0,0,0,0,0,0,0,0],"split_type":[0,0,0,0,0,0,0,0,0,0,0,0,0,0,0],"sum_hessian":[6.392571E4,5.7484645E4,6.4410654E3,4.1425684E4,1.6058963E4,2.2474214E3,4.193644E3,2.6064281E4,1.53614E4,6.38621E3,9.672753E3,1.8655032E2,2.060871E3,1.4221539E3,2.77149E3],"tree_param":{"num_deleted":"0","num_feature":"31","num_nodes":"15","size_leaf_vector":"1"}},{"base_weights":[-8.818542E-8,-1.3029148E-2,2.311654E-3,-8.761083E-3,-2.5849614E-1,8.6475104E-2,1.6661988E-3,-4.8468003E-4,-2.6285747E-2,3.7281353E-2,-3.345736E-2,6.5731923E-3,7.965767E-2,9.035363E-3,8.4815365E-5],"categories":[],"categories_nodes":[],"categories_segments":[],"categories_sizes":[],"default_left":[0,0,0,0,0,0,0,0,0,0,0,0,0,0,0],"id":73,"left_children":[1,3,5,7,9,11,13,-1,-1,-1,-1,-1,-1,-1,-1],"loss_changes":[1.9254014E0,1.0092165E1,2.94933E0,9.417255E0,7.906971E0,6.0863147E0,3.908906E0,0E0,0E0,0E0,0E0,0E0,0E0,0E0,0E0],"parents":[2147483647,0,0,1,1,2,2,3,3,4,4,5,5,6,6],"right_children":[2,4,6,8,10,12,14,-1,-1,-1,-1,-1,-1,-1,-1],"split_conditions":[-5.1081505E-2,2.0517402E-3,-6.400079E-2,5.844899E-2,-2.6054611E-2,5.1598996E-3,-1.20148815E-1,-4.8468003E-4,-2.6285747E-2,3.7281353E-2,-3.345736E-2,6.5731923E-3,7.965767E-2,9.035363E-3,8.4815365E-5],"split_indices":[12,10,10,4,1,7,19,0,0,0,0,0,0,0,0],"split_type":[0,0,0,0,0,0,0,0,0,0,0,0,0,0,0],"sum_hessian":[6.392472E4,9.632969E3,5.429175E4,9.468338E3,1.6463104E2,4.1319818E2,5.387855E4,9.324693E3,1.4364424E2,1.7705597E1,1.4692545E2,4.0147058E2,1.172759E1,4.9242902E2,5.338612E4],"tree_param":{"num_deleted":"0","num_feature":"31","num_nodes":"15","size_leaf_vector":"1"}},{"base_weights":[-1.0002862E-7,-1.3887156E-3,2.6178254E-2,1.3184431E-3,-3.1353384E-2,1.1451119E-1,-1.129E-2,2.488211E-4,-9.380545E-3,2.1416457E-2,-3.6732124E-3,-8.315741E-3,1.4594326E-2,1.7977541E-2,-3.6103968E-3],"categories":[],"categories_nodes":[],"categories_segments":[],"categories_sizes":[],"default_left":[0,0,0,0,0,0,0,0,0,0,0,0,0,0,0],"id":74,"left_children":[1,3,5,7,9,11,13,-1,-1,-1,-1,-1,-1,-1,-1],"loss_changes":[2.323758E0,4.924283E0,1.0657262E1,6.195055E0,6.64238E0,5.958659E0,1.0719529E1,0E0,0E0,0E0,0E0,0E0,0E0,0E0,0E0],"parents":[2147483647,0,0,1,1,2,2,3,3,4,4,5,5,6,6],"right_children":[2,4,6,8,10,12,14,-1,-1,-1,-1,-1,-1,-1,-1],"split_conditions":[1.13352835E-1,1.328245E-1,6.6069745E-2,1.0618946E-1,-5.2915357E-2,1.136157E-3,9.372782E-2,2.488211E-4,-9.380545E-3,2.1416457E-2,-3.6732124E-3,-8.315741E-3,1.4594326E-2,1.7977541E-2,-3.6103968E-3],"split_indices":[16,20,10,14,13,9,19,0,0,0,0,0,0,0,0],"split_type":[0,0,0,0,0,0,0,0,0,0,0,0,0,0,0],"sum_hessian":[6.3924375E4,6.0704348E4,3.2200269E3,5.5674438E4,5.029908E3,9.590432E2,2.2609836E3,5.499811E4,6.763289E2,1.0783147E2,4.9220767E3,1.315784E2,8.2746484E2,2.5988577E2,2.0010979E3],"tree_param":{"num_deleted":"0","num_feature":"31","num_nodes":"15","size_leaf_vector":"1"}},{"base_weights":[-1.4184809E-7,-2.3004739E-2,1.2261561E-3,-4.2309146E-2,1.1715772E-1,1.0060216E-1,1.5489217E-4,5.2900515E-3,-8.1731165E-3,1.7938117E-2,-1.834966E-2,-9.814261E-3,1.9066602E-2,-1.4146835E-3,2.2823387E-4],"categories":[],"categories_nodes":[],"categories_segments":[],"categories_sizes":[],"default_left":[0,0,0,0,0,0,0,0,0,0,0,0,0,0,0],"id":75,"left_children":[1,3,5,7,9,11,13,-1,-1,-1,-1,-1,-1,-1,-1],"loss_changes":[1.803323E0,8.753418E0,6.4607973E0,1.0672607E1,7.326509E0,1.15854435E1,1.8268322E0,0E0,0E0,0E0,0E0,0E0,0E0,0E0,0E0],"parents":[2147483647,0,0,1,1,2,2,3,3,4,4,5,5,6,6],"right_children":[2,4,6,8,10,12,14,-1,-1,-1,-1,-1,-1,-1,-1],"split_conditions":[-9.899363E-2,1.255852E-1,-1.06492445E-1,-2.4286489E-1,1.3903006E-2,-1.5163094E-1,-1.9242372E-2,5.2900515E-3,-8.1731165E-3,1.7938117E-2,-1.834966E-2,-9.814261E-3,1.9066602E-2,-1.4146835E-3,2.2823387E-4],"split_indices":[12,28,14,25,0,20,1,0,0,0,0,0,0,0,0],"split_type":[0,0,0,0,0,0,0,0,0,0,0,0,0,0,0],"sum_hessian":[6.3923848E4,3.235113E3,6.0688734E4,2.8434834E3,3.916296E2,6.4724164E2,6.0041492E4,8.3261127E2,2.0108722E3,3.24476E2,6.7153595E1,2.0183981E2,4.4540182E2,7.7748926E3,5.2266598E4],"tree_param":{"num_deleted":"0","num_feature":"31","num_nodes":"15","size_leaf_vector":"1"}},{"base_weights":[-8.880086E-8,-1.8084514E-3,1.6123375E-2,7.8860554E-5,-4.2694647E-2,9.966742E-2,-5.3698727E-4,-1.8264771E-3,3.2383067E-4,1.1163462E-2,-7.239261E-3,2.0302465E-2,9.6143066E-4,-8.784517E-3,1.6263999E-3],"categories":[],"categories_nodes":[],"categories_segments":[],"categories_sizes":[],"default_left":[0,0,0,0,0,0,0,0,0,0,0,0,0,0,0],"id":76,"left_children":[1,3,5,7,9,11,13,-1,-1,-1,-1,-1,-1,-1,-1],"loss_changes":[1.8638076E0,4.435182E0,8.972596E0,3.1841183E0,1.1623445E1,9.975979E0,7.883818E0,0E0,0E0,0E0,0E0,0E0,0E0,0E0,0E0],"parents":[2147483647,0,0,1,1,2,2,3,3,4,4,5,5,6,6],"right_children":[2,4,6,8,10,12,14,-1,-1,-1,-1,-1,-1,-1,-1],"split_conditions":[8.502478E-2,6.952804E-2,8.808554E-2,-1.4991379E-1,-1.1484304E-1,3.6254164E-2,9.22168E-3,-1.8264771E-3,3.2383067E-4,1.1163462E-2,-7.239261E-3,2.0302465E-2,9.6143066E-4,-8.784517E-3,1.6263999E-3],"split_indices":[16,11,17,29,23,7,6,0,0,0,0,0,0,0,0],"split_type":[0,0,0,0,0,0,0,0,0,0,0,0,0,0,0],"sum_hessian":[6.392301E4,5.7476598E4,6.4464146E3,5.4940535E4,2.536062E3,1.0718052E3,5.3746094E3,8.07241E3,4.6868125E4,4.092649E2,2.126797E3,4.9903943E2,5.727657E2,8.673468E2,4.5072627E3],"tree_param":{"num_deleted":"0","num_feature":"31","num_nodes":"15","size_leaf_vector":"1"}},{"base_weights":[-1.3508888E-7,2.3789158E-2,-1.2722512E-3,-3.807567E-2,6.568061E-2,-4.6198215E-2,2.9448458E-4,9.919057E-3,-1.127789E-2,8.357702E-3,-2.2661781E-2,-1.0194348E-2,4.9779355E-3,2.3657645E-3,-3.205548E-4],"categories":[],"categories_nodes":[],"categories_segments":[],"categories_sizes":[],"default_left":[0,0,0,0,0,0,0,0,0,0,0,0,0,0,0],"id":77,"left_children":[1,3,5,7,9,11,13,-1,-1,-1,-1,-1,-1,-1,-1],"loss_changes":[1.9344711E0,8.409E0,4.270937E0,1.3433502E1,1.0120387E1,1.0940036E1,4.7945333E0,0E0,0E0,0E0,0E0,0E0,0E0,0E0,0E0],"parents":[2147483647,0,0,1,1,2,2,3,3,4,4,5,5,6,6],"right_children":[2,4,6,8,10,12,14,-1,-1,-1,-1,-1,-1,-1,-1],"split_conditions":[-3.7849657E-2,-1.0512244E-1,-8.374312E-2,-2.540651E-1,2.203175E-2,-3.061615E-2,-1.5118529E-1,9.919057E-3,-1.127789E-2,8.357702E-3,-2.2661781E-2,-1.0194348E-2,4.9779355E-3,2.3657645E-3,-3.205548E-4],"split_indices":[1,30,8,26,9,30,30,0,0,0,0,0,0,0,0],"split_type":[0,0,0,0,0,0,0,0,0,0,0,0,0,0,0],"sum_hessian":[6.392253E4,3.244705E3,6.0677824E4,1.310045E3,1.9346602E3,2.0447537E3,5.863307E4,4.6169196E2,8.483531E2,1.8230416E3,1.1161846E2,1.2934802E3,7.5127344E2,7.639362E3,5.099371E4],"tree_param":{"num_deleted":"0","num_feature":"31","num_nodes":"15","size_leaf_vector":"1"}},{"base_weights":[-1.7201478E-7,1.2076373E-3,-2.2899242E-2,-5.1267364E-4,5.259251E-2,-7.34243E-2,1.1870065E-2,1.8893089E-4,-4.2408216E-3,-1.4053988E-2,6.7165005E-3,-2.4917522E-3,-1.9098468E-2,-4.0897474E-2,1.8160716E-3],"categories":[],"categories_nodes":[],"categories_segments":[],"categories_sizes":[],"default_left":[0,0,0,0,0,0,0,0,0,0,0,0,0,0,0],"id":78,"left_children":[1,3,5,7,9,11,13,-1,-1,-1,-1,-1,-1,-1,-1],"loss_changes":[1.7679135E0,5.3673987E0,5.6260676E0,5.912317E0,5.5358057E0,7.4446E0,5.022341E0,0E0,0E0,0E0,0E0,0E0,0E0,0E0,0E0],"parents":[2147483647,0,0,1,1,2,2,3,3,4,4,5,5,6,6],"right_children":[2,4,6,8,10,12,14,-1,-1,-1,-1,-1,-1,-1,-1],"split_conditions":[1.0618946E-1,7.008524E-2,2.209116E-2,4.726927E-2,4.4486467E-2,-3.8122084E-2,-9.800661E-3,1.8893089E-4,-4.2408216E-3,-1.4053988E-2,6.7165005E-3,-2.4917522E-3,-1.9098468E-2,-4.0897474E-2,1.8160716E-3],"split_indices":[14,6,23,5,7,23,9,0,0,0,0,0,0,0,0],"split_type":[0,0,0,0,0,0,0,0,0,0,0,0,0,0,0],"sum_hessian":[6.3921184E4,6.0718586E4,3.202596E3,5.8751645E4,1.9669426E3,1.3055029E3,1.8970929E3,5.5565902E4,3.1857405E3,1.3799997E2,